tree
version=v2
num_class=1
num_tree_per_iteration=1
label_index=0
max_feature_idx=16
objective=binary sigmoid:1
feature_names=Team Home Opp_Name Opp OFF1stD OFFTotYd OFFPassY OFFRushY TOOFF DEF1stD DEFTotYd DEFPassY DEFRushY TODEF OffenseEP DefenseEP Sp_TmsEP
feature_infos=1:0:2:3:4:5:7:10:11:12:13:16:18:20:22:26:27:28:29:6:14:15:21:23:24:31:8:9:19:25:17:30 [0:1] 6:7:9:11:12:13:14:15:18:19:20:22:24:30:0:2:3:5:8:10:21:23:26:27:28:29:31:1:4:17:25:33:16:32 [0:59] [5:36] [89:643] [20:490] [14:323] [0:7] [5:36] [89:643] [20:490] [14:323] [0:7] [-35.649999999999999:42.689999999999998] [-42.689999999999998:35.649999999999999] [-25.940000000000001:25.940000000000001]
tree_sizes=861 863 866 867 866 868 865 872 867 869 856 866 869 854 873 856 867 858 869 858 869 860 865 863 861 866 860 870 860 871 872 872 867 873 872 872 869 872 874 874 869 862 869 873 871 875 870 878 877 871 870 893 901 872 877 861 875 896 875 905 875 876 902 879 903 862 870 898 876 890 859 897 872 872 877 900 900 904 890 873 872 909 896 906 882 848 880 879 877 878 900 900 879 859 895 875 872 888 871 878 886 875 872 884 902 869 876 881 886 845 873 897 879 900 899 876 910 906 860 883 876 886 884 874 886 886 876 876 888 885 882 876 884 883

Tree=0
num_leaves=10
num_cat=0
split_feature=3 14 14 15 15 15 14 13 16
split_gain=302.611 125.395 116.224 45.4812 28.7045 27.9594 40.0232 19.7003 18.6896
threshold=23.500000000000004 -4.6199999999999983 12.940000000000001 7.495000000000001 -21.024999999999995 -0.78499999999999992 6.2950000000000008 2.5000000000000004 5.035000000000001
decision_type=2 2 2 2 2 2 2 2 2
left_child=1 3 7 -1 -4 6 8 -2 -3
right_child=2 5 4 -5 -6 -7 -8 -9 -10
leaf_value=-0.075085795882103387 -0.074339918717108447 -0.043798047046916304 -0.048242661834718585 0.052670296642883169 0.062220287341027976 0.10498354966341424 0.090810286526524162 0.0012329185663436312 0.08509578179934979
leaf_count=76 374 45 30 44 109 295 105 38 15
internal_value=0 1.00835 -1.06142 -0.81241 0.520016 1.48333 0.824017 -1.59496 -0.479063
internal_count=1131 580 551 120 139 460 165 412 60
shrinkage=1


Tree=1
num_leaves=10
num_cat=0
split_feature=3 14 14 15 15 15 14 13 16
split_gain=273.558 113.451 105.034 41.1046 25.9274 25.3699 36.2036 17.8338 16.884
threshold=23.500000000000004 -4.6199999999999983 12.940000000000001 7.495000000000001 -21.024999999999995 -0.78499999999999992 6.2950000000000008 2.5000000000000004 5.035000000000001
decision_type=2 2 2 2 2 2 2 2 2
left_child=1 3 7 -1 -4 6 8 -2 -3
right_child=2 5 4 -5 -6 -7 -8 -9 -10
leaf_value=-0.083206744028473459 -0.082494843233519563 -0.05339159871244429 -0.057621850610867789 0.03830273839193301 0.047394544908511048 0.088218607540106034 0.074663940470910989 -0.010587962699650927 0.069206245382224432
leaf_count=76 374 45 30 44 109 295 105 38 15
internal_value=0 0.95996 -1.0095 -0.772661 0.494446 1.41249 0.784085 -1.51709 -0.455454
internal_count=1131 580 551 120 139 460 165 412 60
shrinkage=0.05


Tree=2
num_leaves=10
num_cat=0
split_feature=3 14 14 15 15 15 14 14 13
split_gain=248.055 103.015 95.2766 37.2841 24.1178 23.1912 32.8488 16.5692 16.2683
threshold=23.500000000000004 -4.6199999999999983 12.940000000000001 7.495000000000001 -14.524999999999997 -0.78499999999999992 6.2950000000000008 20.915000000000003 2.5000000000000004
decision_type=2 2 2 2 2 2 2 2 2
left_child=1 3 8 -1 7 6 -3 -4 -2
right_child=2 5 4 -5 -6 -7 -8 -9 -10
leaf_value=-0.079439512428460243 -0.078752847211053439 -0.02168703819957429 -0.044941084665218345 0.036438863169656763 0.071405472535688977 0.084372638082878967 0.071278446162050688 0.052664525252113716 -0.010058785708053308
leaf_count=76 374 60 53 44 60 295 105 26 38
internal_value=0 0.91685 -0.962745 -0.73676 0.470721 1.34963 0.747914 -0.256354 -1.44763
internal_count=1131 580 551 120 139 460 165 79 412
shrinkage=0.05


Tree=3
num_leaves=10
num_cat=0
split_feature=3 14 14 15 15 15 14 16 13
split_gain=225.463 93.7835 86.7237 33.9245 22.4431 21.394 29.9005 15.2836 14.9379
threshold=23.500000000000004 -4.6199999999999983 12.940000000000001 7.495000000000001 -21.024999999999995 -0.78499999999999992 6.2950000000000008 5.035000000000001 2.5000000000000004
decision_type=2 2 2 2 2 2 2 2 2
left_child=1 3 8 -1 -4 6 7 -3 -2
right_child=2 5 4 -5 -6 -7 -8 -9 -10
leaf_value=-0.076076014878858414 -0.075407767195817821 -0.049794215840017864 -0.054314092713890108 0.034687499608955077 0.043574102596570852 0.080969855906232555 0.068211963255230434 0.06700602366697743 -0.0095565547106986129
leaf_count=76 374 45 30 44 109 295 105 15 38
internal_value=0 0.877804 -0.920135 -0.704083 0.44836 1.29278 0.714026 -0.412261 -1.38516
internal_count=1131 580 551 120 139 460 165 60 412
shrinkage=0.05


Tree=4
num_leaves=10
num_cat=0
split_feature=3 14 14 15 15 15 14 14 16
split_gain=205.43 85.6373 79.1471 30.9513 20.9946 19.8077 27.2681 15.0243 13.8569
threshold=23.500000000000004 -4.6199999999999983 12.940000000000001 7.495000000000001 -14.524999999999997 -0.78499999999999992 6.2950000000000008 20.915000000000003 5.035000000000001
decision_type=2 2 2 2 2 2 2 2 2
left_child=1 3 -2 -1 7 6 8 -4 -3
right_child=2 5 4 -5 -6 -7 -8 -9 -10
leaf_value=-0.073048470640726032 -0.066425842982427485 -0.047478038975850421 -0.043154908806348799 0.033037902902147878 0.066313185846993181 0.077934730666529672 0.065414146467828879 0.049979049659822972 0.064018846420109479
leaf_count=76 412 45 53 44 60 295 105 26 15
internal_value=0 0.842643 -0.881265 -0.674134 0.427538 1.24185 0.683483 -0.250818 -0.393264
internal_count=1131 580 551 120 139 460 165 79 60
shrinkage=0.05


Tree=5
num_leaves=10
num_cat=0
split_feature=3 14 14 15 15 15 14 14 15
split_gain=187.472 78.3829 72.6011 28.3054 21.6766 18.4257 24.9157 15.8271 30.2624
threshold=23.500000000000004 -4.6199999999999983 14.585000000000003 7.495000000000001 -21.024999999999995 -0.78499999999999992 6.2950000000000008 2.7350000000000008 -6.794999999999999
decision_type=2 2 2 2 2 2 2 2 2
left_child=1 3 7 -1 -4 6 -3 -2 -9
right_child=2 5 4 -5 -6 -7 -8 8 -10
leaf_value=-0.070303067590338483 -0.076816858343160294 -0.018779585078087947 -0.05334984622675501 0.031480862187078892 0.050619259935046734 0.075207663644456357 0.06284444154134472 -0.059105151254350931 0.04838849385949362
leaf_count=76 269 60 26 44 92 295 105 130 34
internal_value=0 0.810585 -0.844908 -0.646514 0.552497 1.19559 0.655293 -1.23259 -0.735897
internal_count=1131 580 551 120 118 460 165 433 164
shrinkage=0.05


Tree=6
num_leaves=10
num_cat=0
split_feature=3 14 14 15 15 14 3 13 12
split_gain=171.351 72.145 66.4742 22.5441 20.6044 26.9696 18.984 14.2417 13.5044
threshold=23.500000000000004 -5.7749999999999995 12.940000000000001 7.495000000000001 -0.78499999999999992 4.6550000000000002 31.500000000000004 2.5000000000000004 97.500000000000014
decision_type=2 2 2 2 2 2 2 2 2
left_child=1 3 7 -1 5 -3 -4 -2 -8
right_child=2 4 6 -5 -6 -7 8 -9 -10
leaf_value=-0.075172943821468677 -0.067587530274373142 -0.031604191741025398 0.053141293634111922 0.022334991281609012 0.072383753766485967 0.055292720001261703 0.049063047598349341 -0.003007718676879205 -0.053088470182564754
leaf_count=65 374 53 77 39 304 119 19 38 43
internal_value=0 0.780724 -0.811398 -0.754244 1.12162 0.561483 0.391858 -1.22796 -0.437723
internal_count=1131 580 551 104 476 172 139 412 62
shrinkage=0.05


Tree=7
num_leaves=10
num_cat=0
split_feature=3 14 14 15 15 14 15 14 16
split_gain=156.817 66.1561 61.8235 25.5745 20.9147 20.5294 19.4599 22.2266 18.3718
threshold=23.500000000000004 -5.7749999999999995 6.8950000000000005 -14.764999999999999 6.9300000000000006 20.915000000000003 -3.2499999999999996 6.2950000000000008 -2.3149999999999995
decision_type=2 2 2 2 2 2 2 2 2
left_child=1 4 -2 5 -1 -4 7 -3 -5
right_child=2 6 3 8 -6 -7 -8 -9 -10
leaf_value=-0.075845182614205572 -0.068019029026239408 -0.038132994526039625 -0.055692926882698869 -0.00079010332170651528 0.017114430744357381 0.046615358431364697 0.066439198007141584 0.052759498738550327 0.082306960725615649
leaf_count=61 325 44 88 62 43 26 356 76 50
internal_value=0 0.75278 -0.780329 0.0328994 -0.725736 -0.642443 1.08203 0.372509 0.726932
internal_count=1131 580 551 226 104 114 476 120 112
shrinkage=0.05


Tree=8
num_leaves=10
num_cat=0
split_feature=3 14 14 15 15 14 15 14 15
split_gain=144.408 73.0586 40.19 27.5514 24.7968 37.6984 14.0077 9.68691 19.1809
threshold=25.500000000000004 -4.6199999999999983 15.355000000000002 7.495000000000001 -0.78499999999999992 4.6550000000000002 -21.024999999999995 1.8450000000000004 -4.2599999999999989
decision_type=2 2 2 2 2 2 2 2 2
left_child=1 3 7 -1 5 -3 -4 -2 -9
right_child=2 4 6 -5 -6 -7 -8 8 -10
leaf_value=-0.067286568010694658 -0.073534336197877234 -0.041573947852767669 -0.048239138700421243 0.029586672922836118 0.069074636742297177 0.050778190312380095 0.040735868230756755 -0.052970896249736776 0.058882569809274254
leaf_count=95 218 65 25 45 302 159 66 138 18
internal_value=0 0.62338 -0.879367 -0.696927 0.982281 0.46989 0.323705 -1.1851 -0.795785
internal_count=1131 666 465 140 526 224 91 374 156
shrinkage=0.05


Tree=9
num_leaves=10
num_cat=0
split_feature=3 14 14 15 15 14 15 14 15
split_gain=132.473 65.9882 41.2529 25.007 23.3745 29.2287 13.6328 9.81484 19.705
threshold=24.500000000000004 -4.6199999999999983 15.355000000000002 7.495000000000001 -3.2499999999999996 6.2950000000000008 -21.024999999999995 1.8450000000000004 -3.2499999999999996
decision_type=2 2 2 2 2 2 2 2 2
left_child=1 3 7 -1 5 -3 -4 -2 -9
right_child=2 4 6 -5 -6 -7 -8 8 -10
leaf_value=-0.064842517846583833 -0.071592591759674876 -0.046088496347663904 -0.046142722565385312 0.028226278885141218 0.063362950977022381 0.047254561098317216 0.041246294583008242 -0.049756595221626627 0.072520411221845257
leaf_count=93 223 53 25 45 358 106 70 143 15
internal_value=0 0.614337 -0.831067 -0.657958 0.961944 0.308655 0.362479 -1.14451 -0.753406
internal_count=1131 655 476 138 517 159 95 381 158
shrinkage=0.05


Tree=10
num_leaves=10
num_cat=0
split_feature=3 14 14 15 14 16 14 3 14
split_gain=122.069 53.8705 52.4183 23.1635 17.7244 17.6013 14.6374 14.1056 15.7679
threshold=22.500000000000004 6.8950000000000005 -7.21 -14.764999999999999 20.915000000000003 -2.8299999999999996 15.355000000000002 18.500000000000004 3.7050000000000005
decision_type=2 2 2 2 2 2 2 2 2
left_child=2 -2 -1 4 -3 6 -5 -4 -9
right_child=1 3 7 5 -6 -7 -8 8 -10
leaf_value=-0.041294134677941949 -0.058726955030982388 -0.051321460331343452 0.064247068342490665 -0.049538139225574422 0.044406503642996059 0.069265029063842173 0.047063253214526611 -0.026720866952322522 0.049892367201925823
leaf_count=78 354 90 316 36 26 70 31 45 85
internal_value=0 -0.633654 0.754266 0.0839505 -0.590197 0.659963 -0.0944326 1.03874 0.458964
internal_count=1131 607 524 253 116 137 67 446 130
shrinkage=0.05


Tree=11
num_leaves=10
num_cat=0
split_feature=3 14 15 14 15 14 14 15 11
split_gain=112.87 59.4341 50.0314 32.003 17.2043 15.1101 15.1059 11.3517 9.809
threshold=25.500000000000004 0.58000000000000007 5.7150000000000007 14.585000000000003 -9.7249999999999979 9.7700000000000014 -8.2949999999999982 -21.024999999999995 184.50000000000003
decision_type=2 2 2 2 2 2 2 2 2
left_child=1 2 -1 -2 5 -3 8 -5 -4
right_child=3 4 6 7 -6 -7 -8 -9 -10
leaf_value=-0.057546962219679969 -0.054389166228608635 -0.056845490922180809 -0.064491259636335549 -0.045136433172947237 0.060847202791151779 0.051306173803192634 0.06780445445961851 0.034024310778939852 0.045884555014359799
leaf_count=132 369 27 19 26 371 29 73 70 15
internal_value=0 0.564402 -0.275445 -0.794702 1.04528 -0.0256746 0.791068 0.250318 -0.315698
internal_count=1131 666 239 465 427 56 107 96 34
shrinkage=0.05


Tree=12
num_leaves=10
num_cat=0
split_feature=3 14 15 14 15 14 14 13 15
split_gain=103.636 54.7382 45.8472 29.5614 16.0143 14.2044 13.7436 11.8804 10.3256
threshold=25.500000000000004 0.58000000000000007 5.7150000000000007 14.585000000000003 -9.7249999999999979 -7.4949999999999992 9.7700000000000014 2.5000000000000004 -21.024999999999995
decision_type=2 2 2 2 2 2 2 2 2
left_child=1 2 -1 -2 6 7 -3 -4 -5
right_child=3 4 5 8 -6 -7 -8 -9 -10
leaf_value=-0.05549390003342565 -0.052632932407917978 -0.054127050389040511 -0.057607029995395125 -0.043260296666810097 0.059011477017202954 0.069085669315202533 0.049415380030403223 0.056823172844523866 0.032543398179882284
leaf_count=132 369 27 23 26 371 68 29 16 70
internal_value=0 0.54564 -0.265397 -0.767228 1.01205 0.762187 -0.0244391 -0.199838 0.239541
internal_count=1131 666 239 465 427 107 56 39 96
shrinkage=0.05


Tree=13
num_leaves=10
num_cat=0
split_feature=3 14 14 15 16 14 13 3 11
split_gain=95.8681 44.8142 42.0691 19.4974 16.2593 15.4914 13.6122 12.7117 14.9288
threshold=22.500000000000004 6.8950000000000005 -7.21 -14.764999999999999 -2.8299999999999996 20.915000000000003 2.5000000000000004 18.500000000000004 222.50000000000003
decision_type=2 2 2 2 2 2 2 2 2
left_child=2 6 -1 5 -5 -3 -2 -4 -9
right_child=1 3 7 4 -6 -7 -8 8 -10
leaf_value=-0.037314853526476226 -0.061866870050304223 -0.04776193787074999 0.059832655051094745 -0.0055529234353663918 0.066659478475671788 0.042726938635455167 0.0048756855554227098 -0.019964161194536961 0.0529654629071072
leaf_count=78 317 90 316 67 70 26 37 59 71
internal_value=0 -0.572581 0.687976 0.0881002 0.62507 -0.539018 -1.08341 0.953244 0.393586
internal_count=1131 607 524 253 137 116 354 446 130
shrinkage=0.05


Tree=14
num_leaves=10
num_cat=0
split_feature=3 14 15 14 15 14 14 15 16
split_gain=88.2726 47.9551 41.0156 26.4746 15.0136 17.5356 13.8643 16.7948 13.3561
threshold=25.500000000000004 0.58000000000000007 5.7150000000000007 20.915000000000003 -6.3249999999999993 9.7700000000000014 2.7350000000000008 -6.6149999999999993 2.4550000000000005
decision_type=2 2 2 2 2 2 2 2 2
left_child=1 2 -1 6 5 8 -2 -8 -3
right_child=3 4 -4 -5 -6 -7 7 -9 -10
leaf_value=-0.053259040230884104 -0.063338048028749247 -0.081373133482861293 0.036504412971105654 0.046582865101738397 0.060165447457467408 0.052660816694936066 -0.037926922547486912 0.04422319033222695 0.034049541375756102
leaf_count=132 227 27 107 38 323 59 168 32 18
internal_value=0 0.512258 -0.256017 -0.719506 0.958291 0.266224 -0.880525 -0.484891 -0.696257
internal_count=1131 666 239 465 427 104 427 200 45
shrinkage=0.05


Tree=15
num_leaves=10
num_cat=0
split_feature=3 14 14 13 3 15 14 3 11
split_gain=81.7901 55.4929 29.3514 28.6118 20.3444 15.7353 13.8449 9.08591 8.10931
threshold=18.500000000000004 3.4950000000000006 -7.21 1.0000000180025095e-35 32.500000000000007 4.3150000000000004 21.140000000000004 12.500000000000002 192.50000000000003
decision_type=2 2 2 2 2 2 2 2 2
left_child=2 5 7 6 -5 -2 -3 -1 -7
right_child=1 3 -4 4 -6 8 -8 -9 -10
leaf_value=0.029159096617678598 -0.058384754206086735 -0.048188759244921484 0.057253412911659675 0.043180287774197273 -0.029213173995410287 -0.030186267064936025 0.048908210128683786 -0.065045352662737491 0.077114431710495757
leaf_count=17 340 110 316 209 55 17 19 33 15
internal_value=0 -0.39609 0.877443 0.151559 0.555265 -1.02128 -0.668759 -0.620698 0.398757
internal_count=1131 765 366 393 264 372 129 50 32
shrinkage=0.05


Tree=16
num_leaves=10
num_cat=0
split_feature=3 14 14 15 14 15 16 11 15
split_gain=76.1188 42.6316 23.7304 21.1967 28.3771 16.3947 13.1736 9.71806 9.00855
threshold=25.500000000000004 -5.7749999999999995 14.585000000000003 -0.78499999999999992 9.7700000000000014 7.495000000000001 5.6550000000000011 184.50000000000003 -21.024999999999995
decision_type=2 2 2 2 2 2 2 2 2
left_child=1 5 -2 4 6 -1 -3 -7 -4
right_child=2 3 8 -5 -6 7 -8 -9 -10
leaf_value=-0.063431882226690772 -0.047465683741911839 -0.035131251870784336 -0.040974123843517188 0.058395571344862722 0.056877449557067507 -0.028504003038446427 0.05294232400044583 0.0722628714874987 0.030795938757949448
leaf_count=83 369 103 26 311 106 21 23 19 70
internal_value=0 0.484959 -0.678163 0.76001 0.282823 -0.663282 -0.378707 0.374937 0.228926
internal_count=1131 666 465 543 232 123 126 40 96
shrinkage=0.05


Tree=17
num_leaves=10
num_cat=0
split_feature=3 14 13 14 14 15 16 15 16
split_gain=70.4365 49.4998 30.0597 25.8205 18.7982 14.5313 15.8391 12.9037 11.9569
threshold=18.500000000000004 0.58000000000000007 1.5000000000000002 -7.21 21.140000000000004 -9.7249999999999979 0.51500000000000012 5.7150000000000007 -5.1899999999999986
decision_type=2 2 2 2 2 2 2 2 2
left_child=3 7 4 -1 5 -3 -7 -2 -4
right_child=1 2 8 -5 -6 6 -8 -9 -10
leaf_value=-0.029290460512565897 -0.062374089047988947 -0.044380440743818216 -0.021638978932620876 0.054793269938683498 0.049467584530437786 -0.017740622985008052 0.082863224620682865 0.019534444288609509 0.0592405702373646
leaf_count=50 279 179 26 316 44 73 24 24 116
internal_value=0 -0.370983 0.0610861 0.83583 -0.307484 -0.519843 0.153805 -1.09956 0.887343
internal_count=1131 765 462 366 320 276 97 303 142
shrinkage=0.05


Tree=18
num_leaves=10
num_cat=0
split_feature=3 14 15 14 15 14 13 15 16
split_gain=65.778 37.3174 31.9558 21.4212 13.0977 14.7859 12.7189 11.5503 11.0274
threshold=25.500000000000004 0.58000000000000007 5.7150000000000007 6.8950000000000005 -6.3249999999999993 9.7700000000000014 1.0000000180025095e-35 -20.449999999999999 2.9850000000000008
decision_type=2 2 2 2 2 2 2 2 2
left_child=1 2 -1 -2 5 -3 -5 -8 -9
right_child=3 4 -4 6 -6 -7 7 8 -10
leaf_value=-0.04914414609998128 -0.053593026038742775 -0.033642770251857773 0.032623811131144334 -0.039572429184389274 0.055804499166478519 0.04830892377600686 -0.048285800870519757 0.013754015962620726 0.1014317187441891
leaf_count=132 277 45 107 76 323 59 25 67 20
internal_value=0 0.46028 -0.237817 -0.64028 0.871803 0.215731 -0.108419 0.337021 0.687422
internal_count=1131 666 239 465 427 104 188 112 87
shrinkage=0.05


Tree=19
num_leaves=10
num_cat=0
split_feature=3 14 14 13 3 15 14 15 11
split_gain=60.8318 44.0489 23.5413 22.9786 17.0217 12.9945 11.5091 8.11736 7.42686
threshold=18.500000000000004 3.4950000000000006 -7.21 1.0000000180025095e-35 30.500000000000004 4.3150000000000004 21.140000000000004 11.080000000000002 192.50000000000003
decision_type=2 2 2 2 2 2 2 2 2
left_child=2 5 7 6 -5 -2 -3 -1 -7
right_child=1 3 -4 4 -6 8 -8 -9 -10
leaf_value=-0.063147844237442741 -0.054070923047501454 -0.044085581149922219 0.052685221601941834 0.044663792322613999 -0.014526443933366212 -0.029973908937993832 0.045934426250142484 0.026480308588841369 0.074193267901100271
leaf_count=33 340 110 316 182 82 17 19 17 15
internal_value=0 -0.348843 0.795453 0.14233 0.511774 -0.937601 -0.606651 -0.568255 0.366609
internal_count=1131 765 366 393 264 372 129 50 32
shrinkage=0.05


Tree=20
num_leaves=10
num_cat=0
split_feature=3 14 14 15 14 15 15 14 16
split_gain=56.6746 33.58 19.5833 18.1664 20.1418 13.4259 11.1423 14.1288 12.1089
threshold=25.500000000000004 -5.7749999999999995 2.7350000000000008 -3.2499999999999996 9.7700000000000014 7.495000000000001 -3.2499999999999996 20.915000000000003 5.2150000000000007
decision_type=2 2 2 2 2 2 2 2 2
left_child=1 5 -2 4 -3 -1 7 8 -4
right_child=2 3 6 -5 -6 -7 -8 -9 -10
leaf_value=-0.060097059407660441 -0.056848122216233435 -0.027340605748173843 -0.042515037943043628 0.050331796697474562 0.048432296864770089 0.016037125808958209 0.072461124957589634 0.041912964607021375 0.029219066108749737
leaf_count=83 227 93 150 370 80 40 16 38 34
internal_value=0 0.436247 -0.60348 0.691816 0.117912 -0.614971 -0.196977 -0.329043 -0.584157
internal_count=1131 666 465 543 173 123 238 222 184
shrinkage=0.05


Tree=21
num_leaves=10
num_cat=0
split_feature=3 14 13 14 14 15 16 16 15
split_gain=52.8768 39.2951 25.1021 20.8439 15.2018 12.4132 15.5175 11.0355 10.7734
threshold=18.500000000000004 0.58000000000000007 1.5000000000000002 -7.21 21.140000000000004 -16.839999999999996 4.4500000000000011 -5.1899999999999986 5.7150000000000007
decision_type=2 2 2 2 2 2 2 2 2
left_child=3 8 4 -1 5 -3 -7 -4 -2
right_child=1 2 7 -5 -6 6 -8 -9 -10
leaf_value=-0.026983970748356501 -0.058414772391252569 -0.058535175410787302 -0.022835373393477992 0.05064041999570186 0.045392386700579289 -0.021139423133844849 0.069001569848161054 0.056110299408978395 0.017701698964146782
leaf_count=50 279 90 26 316 44 159 27 116 24
internal_value=0 -0.328617 0.0566107 0.761391 -0.28681 -0.480877 -0.161859 0.827952 -1.01982
internal_count=1131 765 462 366 320 276 186 142 303
shrinkage=0.05


Tree=22
num_leaves=10
num_cat=0
split_feature=3 14 15 14 16 14 15 16 14
split_gain=49.1199 29.5939 25.4997 18.0291 12.0082 11.2911 9.76055 10.9741 16.2298
threshold=25.500000000000004 3.7050000000000005 5.7150000000000007 14.145000000000001 8.490000000000002 -8.2949999999999982 -6.3249999999999993 2.4550000000000005 14.585000000000003
decision_type=2 2 2 2 2 2 2 2 2
left_child=1 2 4 -2 -1 -4 7 8 -3
right_child=3 6 5 -5 -6 -7 -8 -9 -10
leaf_value=-0.043717623695964998 -0.042100798182310453 -0.05873285679284878 -0.014785262714875118 0.0096319773785779189 0.05408424212260228 0.057852239357596785 0.057530150243431957 0.067291985722915101 0.05739941504050438
leaf_count=160 363 35 34 102 17 95 266 32 27
internal_value=0 0.414152 -0.103056 -0.571446 -0.66917 0.67837 0.889592 0.293238 -0.252896
internal_count=1131 666 306 465 177 129 360 94 62
shrinkage=0.05


Tree=23
num_leaves=10
num_cat=0
split_feature=7 13 3 8 14 3 15 14 15
split_gain=46.3358 23.3147 22.8333 13.7243 12.8291 9.6091 8.88546 14.5473 8.47378
threshold=109.50000000000001 1.5000000000000002 32.500000000000007 2.5000000000000004 -7.4949999999999992 11.500000000000002 4.8050000000000006 4.2600000000000007 -3.2499999999999996
decision_type=2 2 2 2 2 2 2 2 2
left_child=1 5 4 6 -2 -1 7 -3 -6
right_child=2 3 -4 -5 8 -7 -8 -9 -10
leaf_value=0.033494039151501877 -0.039893152202140764 -0.034624818327809032 -0.03096974288991788 -0.055035992919930193 0.020618614403158375 -0.044036530505892436 0.065114553916406553 0.049492687750994871 0.054653896563116325
leaf_count=25 29 59 79 35 155 369 52 53 275
internal_value=0 -0.452429 0.5029 0.196963 0.713774 -0.787458 0.486949 0.121364 0.818268
internal_count=1131 593 538 199 459 394 164 112 430
shrinkage=0.05


Tree=24
num_leaves=10
num_cat=0
split_feature=3 14 13 14 14 3 15 16 16
split_gain=42.6385 34.4401 20.9953 17.8533 13.5852 12.6416 12.0205 16.4174 10.1919
threshold=18.500000000000004 0.58000000000000007 1.5000000000000002 -7.21 14.485000000000001 32.500000000000007 -9.7249999999999979 0.51500000000000012 -5.1899999999999986
decision_type=2 2 2 2 2 2 2 2 2
left_child=3 -2 4 -1 6 -6 -3 -8 -4
right_child=1 2 8 -5 5 -7 7 -9 -10
leaf_value=-0.025099689384924174 -0.048660056886805206 -0.053290920425004509 -0.023121721062840939 0.047947879915175989 0.048058940524994202 -0.028254060162803154 -0.02863540610433625 0.079648283852033291 0.053550494570917366
leaf_count=50 303 127 26 316 68 40 62 23 116
internal_value=0 -0.298655 0.0627873 0.711178 -0.255207 0.363803 -0.599526 0.0298831 0.780632
internal_count=1131 765 462 366 320 108 212 85 142
shrinkage=0.05


Tree=25
num_leaves=10
num_cat=0
split_feature=7 13 3 8 14 12 14 15 14
split_gain=40.8458 20.5205 19.9514 12.2328 11.0065 8.74377 8.91408 8.44386 9.67987
threshold=109.50000000000001 1.5000000000000002 32.500000000000007 2.5000000000000004 -7.4949999999999992 109.50000000000001 0.58000000000000007 -3.2499999999999996 4.6550000000000002
decision_type=2 2 2 2 2 2 2 2 2
left_child=1 5 4 7 -2 6 -1 8 -3
right_child=2 3 -4 -5 -6 -7 -8 -9 -10
leaf_value=-0.04896262734351961 -0.037052724813794145 -0.06050746447080118 -0.028928315397851834 -0.052756450294442737 0.039019734286375486 -0.052640212029979108 0.007751539580304819 0.044757670276865627 0.033036524745088537
leaf_count=73 29 30 79 35 430 235 86 104 30
internal_value=0 -0.431972 0.479913 0.187396 0.68176 -0.75167 -0.32687 0.466443 -0.217186
internal_count=1131 593 538 199 459 394 159 164 60
shrinkage=0.05


Tree=26
num_leaves=10
num_cat=0
split_feature=3 14 15 14 14 16 14 16 15
split_gain=38.0467 30.6687 18.5023 16.4503 15.9323 14.3818 11.733 11.2239 9.79762
threshold=18.500000000000004 0.58000000000000007 -10.284999999999998 14.145000000000001 -7.21 -5.4949999999999983 15.120000000000003 5.4000000000000012 5.7150000000000007
decision_type=2 2 2 2 2 2 2 2 2
left_child=4 8 3 7 -1 6 -4 -3 -2
right_child=1 2 5 -5 -6 -7 -8 -9 -10
leaf_value=-0.023226241224949672 -0.054851028773359324 -0.064544195321877121 -0.07447554934429261 0.013184902988672923 0.046429659175890009 0.042780763755350198 0.042020842601743769 0.010420461830325155 0.018851676977348124
leaf_count=50 279 107 27 104 316 170 19 35 24
internal_value=0 -0.285165 0.0564969 -0.362874 0.686121 0.545796 -0.569678 -0.903604 -0.939014
internal_count=1131 765 462 246 366 216 46 142 303
shrinkage=0.05


Tree=27
num_leaves=10
num_cat=0
split_feature=7 15 13 14 8 15 16 14 3
split_gain=35.8394 18.4153 18.3922 16.2119 10.8923 9.43201 12.7723 8.90853 8.04187
threshold=109.50000000000001 -4.4749999999999988 1.5000000000000002 7.2800000000000002 2.5000000000000004 -21.024999999999995 -4.9099999999999993 -4.7599999999999989 11.500000000000002
decision_type=2 2 2 2 2 2 2 2 2
left_child=2 3 8 -2 -4 -5 -7 -3 -1
right_child=1 7 4 5 -6 6 -8 -9 -10
leaf_value=0.032350251307081385 -0.04204297090474593 -0.0079894544966872712 0.022497288979426357 -0.048707795351497205 -0.050584865784445113 -0.036864525622733582 0.052620692340552437 0.053398130307073959 -0.040479262804936481
leaf_count=25 90 38 164 21 35 23 97 269 369
internal_value=0 0.45576 -0.412141 -0.0145082 0.183265 0.437596 0.675794 0.8879 -0.720484
internal_count=1131 538 593 231 199 141 120 307 394
shrinkage=0.05


Tree=28
num_leaves=10
num_cat=0
split_feature=3 14 13 14 3 15 14 14 16
split_gain=33.3252 28.118 15.8675 14.3744 11.2821 11.1496 12.374 8.33994 7.60334
threshold=18.500000000000004 3.4950000000000006 1.0000000180025095e-35 -7.21 32.500000000000007 -0.55999999999999994 -4.2249999999999988 21.140000000000004 4.4500000000000011
decision_type=2 2 2 2 2 2 2 2 2
left_child=3 5 7 -1 8 -2 -7 -3 -4
right_child=1 2 4 -5 -6 6 -8 -9 -10
leaf_value=-0.02190298291543737 -0.053417034954488365 -0.038265638319264612 0.024291815011250485 0.044809661427317724 -0.022214342629569488 -0.040574769735643904 0.050317776503476103 0.041108656788121235 0.079711478681634751
leaf_count=50 284 110 171 316 55 56 32 19 38
internal_value=0 -0.269961 0.129125 0.656538 0.451716 -0.799001 -0.076118 -0.518831 0.700168
internal_count=1131 765 393 366 264 372 88 129 209
shrinkage=0.05


Tree=29
num_leaves=10
num_cat=0
split_feature=7 13 15 14 14 3 3 15 16
split_gain=31.7813 17.0422 16.3635 14.3253 13.443 10.8 10.6115 8.48316 11.6414
threshold=109.50000000000001 2.5000000000000004 -4.4749999999999988 7.2800000000000002 6.4300000000000006 22.500000000000004 11.500000000000002 -21.024999999999995 -4.9099999999999993
decision_type=2 2 2 2 2 2 2 2 2
left_child=1 4 3 -2 6 -6 -1 -5 -9
right_child=2 -3 -4 7 5 -7 -8 8 -10
leaf_value=0.034655594296989993 -0.040239780095113926 0.033016747241000448 0.042854243364018635 -0.047062032757230143 0.047419529642549488 -0.019480130481882341 -0.049688132677219332 -0.035108500859950931 0.050613497967595247
leaf_count=24 90 75 307 21 52 116 326 23 97
internal_value=0 -0.392809 0.438228 -0.00937085 -0.559054 -0.0368573 -0.865269 0.417469 0.644852
internal_count=1131 593 538 231 518 168 350 141 120
shrinkage=0.05


Tree=30
num_leaves=10
num_cat=0
split_feature=15 14 15 16 14 14 14 16 15
split_gain=29.8524 40.9131 22.5321 16.1412 14.6132 14.0237 13.7745 13.6526 9.64001
threshold=5.495000000000001 0.58000000000000007 -8.3799999999999972 -5.6499999999999995 15.715000000000002 14.145000000000001 -8.2949999999999982 3.7850000000000006 -16.659999999999997
decision_type=2 2 2 2 2 2 2 2 2
left_child=1 -1 5 4 -4 7 -2 -3 -9
right_child=6 2 3 -5 -6 -7 -8 8 -10
leaf_value=-0.049826102339719548 -0.014763136955517031 -0.06031906616592643 -0.087132669026007512 0.048234839685613505 0.051992946110519106 0.015260446823522608 0.057359329214085347 -0.048239042351827841 0.044840359215400229
leaf_count=319 39 115 24 224 19 117 210 28 36
internal_value=0 -0.203858 0.15222 0.684739 -0.617316 -0.27081 0.806119 -0.707574 0.155769
internal_count=1131 882 563 267 43 296 249 179 64
shrinkage=0.05


Tree=31
num_leaves=10
num_cat=0
split_feature=13 14 15 14 15 15 3 14 16
split_gain=28.6999 24.5924 16.8666 12.2184 10.8415 10.8264 10.7331 10.0921 9.3989
threshold=1.5000000000000002 3.4950000000000006 -9.7249999999999979 -4.7599999999999989 -1.9099999999999997 10.715000000000002 14.500000000000002 16.710000000000004 5.8550000000000013
decision_type=2 2 2 2 2 2 2 2 2
left_child=1 5 7 6 -5 -1 -2 8 -3
right_child=3 2 -4 4 -6 -7 -8 -9 -10
leaf_value=-0.050992718395526708 0.066213943793189511 -0.055898225804825064 0.032278515995739575 0.012418197399298479 0.058330710824724012 0.036105659832938369 -0.034931721772724189 0.014869719811807014 0.02830905738034882
leaf_count=304 16 100 189 129 209 24 74 65 21
internal_value=0 -0.313415 0.0845732 0.514594 0.747741 -0.872221 -0.263393 -0.380964 -0.802488
internal_count=1131 703 375 428 338 328 90 186 121
shrinkage=0.05


Tree=32
num_leaves=10
num_cat=0
split_feature=13 14 15 3 14 16 3 16 14
split_gain=27.1656 30.6417 17.373 15.5445 9.16574 10.604 9.11796 9.07998 8.12224
threshold=2.5000000000000004 6.4300000000000006 -10.094999999999997 11.500000000000002 21.140000000000004 -0.099999999999999992 33.500000000000007 -5.4949999999999983 15.120000000000003
decision_type=2 2 2 2 2 2 2 2 2
left_child=1 3 4 -1 5 -3 -7 8 -4
right_child=-2 2 7 -5 -6 6 -8 -9 -10
leaf_value=0.043632313177251303 0.043075444383645183 -0.059966498830569738 -0.041372555206684786 -0.037680250508974021 0.039596006811324247 0.02437057602454467 -0.065369868780494153 0.05688186122295788 0.051450994877083045
leaf_count=44 193 59 32 482 37 59 22 173 30
internal_value=0 -0.18023 0.305116 -0.616597 -0.193847 -0.462839 0.0673559 0.81344 -0.012019
internal_count=1131 938 412 526 177 140 81 235 62
shrinkage=0.05


Tree=33
num_leaves=10
num_cat=0
split_feature=7 13 15 14 16 3 14 15 16
split_gain=25.6211 14.1309 13.343 11.9083 9.89591 11.0459 11.6572 10.4454 7.52284
threshold=109.50000000000001 1.0000000180025095e-35 -3.2499999999999996 7.2800000000000002 5.6550000000000011 11.500000000000002 6.5500000000000016 -10.469999999999999 -4.9099999999999993
decision_type=2 2 2 2 2 2 2 2 2
left_child=1 -1 3 -2 5 -3 -7 -8 -5
right_child=2 4 -4 8 -6 6 7 -9 -10
leaf_value=-0.047635259608837556 -0.035788238049886768 0.052782104783004283 0.041234959340480874 -0.033180120702627429 0.040530805618139369 -0.040202862284495391 -0.031544165877535356 0.047433922272430332 0.0331117603813567
leaf_count=191 95 41 296 25 61 205 38 57 122
internal_value=0 -0.364875 0.407742 0.0143448 -0.100318 -0.273681 -0.431521 0.233451 0.40403
internal_count=1131 593 538 242 402 341 300 95 147
shrinkage=0.05


Tree=34
num_leaves=10
num_cat=0
split_feature=15 14 15 16 14 16 14 14 15
split_gain=24.2513 34.6007 18.3362 14.3909 11.8475 12.1335 11.7405 11.7288 8.5439
threshold=5.7150000000000007 0.58000000000000007 -8.3799999999999972 -5.6499999999999995 14.145000000000001 3.7850000000000006 -15.139999999999999 15.715000000000002 -16.659999999999997
decision_type=2 2 2 2 2 2 2 2 2
left_child=1 -1 4 7 5 -3 -2 -4 -7
right_child=6 2 3 -5 -6 8 -8 -9 -10
leaf_value=-0.0474926441619258 -0.044909679480288192 -0.057722646977177744 -0.078804772326182326 0.045653848253362266 0.014336651668982819 -0.046463186770121546 0.049180617158390866 0.048753588030999918 0.043167604639693213
leaf_count=321 17 115 25 228 117 28 225 19 36
internal_value=0 -0.185337 0.14527 0.638244 -0.243933 -0.661983 0.770113 -0.603665 0.162808
internal_count=1131 889 568 272 296 179 242 44 64
shrinkage=0.05


Tree=35
num_leaves=10
num_cat=0
split_feature=13 14 15 15 14 16 15 14 16
split_gain=23.6493 26.199 17.9883 11.7664 10.7689 13.4382 10.0667 12.8797 8.29735
threshold=2.5000000000000004 3.2500000000000004 -6.4299999999999988 8.8800000000000008 21.140000000000004 -2.0249999999999995 -16.839999999999996 9.3200000000000021 3.8650000000000007
decision_type=2 2 2 2 2 2 2 2 2
left_child=1 3 4 -1 5 -3 -7 8 -8
right_child=-2 2 -4 -5 -6 6 7 -9 -10
leaf_value=-0.042691542128694422 0.041150104834858203 -0.068525183688635319 0.041066549252489884 0.021954480838526531 0.041936435708113569 -0.036703560478049763 -0.064462892621265436 0.060602060516142309 0.043227442315989108
leaf_count=392 193 56 226 51 47 73 26 52 15
internal_value=0 -0.172519 0.205985 -0.67527 -0.166199 -0.385154 -0.0457829 0.443515 -0.515723
internal_count=1131 938 495 443 269 222 166 93 41
shrinkage=0.05


Tree=36
num_leaves=10
num_cat=0
split_feature=13 14 3 14 15 3 16 14 15
split_gain=22.396 18.685 12.8692 10.6414 11.1853 9.75157 9.01178 11.8899 8.72848
threshold=1.5000000000000002 3.4950000000000006 19.500000000000004 -5.4949999999999992 -1.9099999999999997 14.500000000000002 5.6550000000000011 6.7550000000000017 10.715000000000002
decision_type=2 2 2 2 2 2 2 2 2
left_child=1 8 -3 5 6 -2 7 -5 -1
right_child=3 2 -4 4 -6 -7 -8 -9 -10
leaf_value=-0.047524663411238954 0.061718013823523404 0.048174656708945163 -0.0085923464375629362 -0.057796081604265241 0.057259634480669452 -0.039164922736151832 0.077723611396821851 0.024602612924566652 0.033232211716688546
leaf_count=304 16 109 266 42 212 66 22 70 24
internal_value=0 -0.289039 0.0659825 0.473504 0.691238 -0.314445 0.18422 -0.102261 -0.806972
internal_count=1131 703 375 428 346 82 134 112 328
shrinkage=0.05


Tree=37
num_leaves=10
num_cat=0
split_feature=3 14 15 14 16 15 14 16 11
split_gain=21.3788 20.2207 16.011 18.9683 19.6882 9.81224 9.78592 7.26758 6.21084
threshold=30.500000000000004 -5.7749999999999995 -0.55999999999999994 10.010000000000002 4.6650000000000009 7.495000000000001 21.140000000000004 -8.2649999999999988 184.50000000000003
decision_type=2 2 2 2 2 2 2 2 2
left_child=1 5 3 4 -3 -1 -2 -4 -7
right_child=6 2 7 -5 -6 8 -8 -9 -10
leaf_value=-0.054271082165224582 -0.042186105117192833 -0.039709737382871049 -0.016856574764541398 0.03753404517624407 0.048852467626628239 -0.026596903788276789 0.029322188656111876 0.054628518281557542 0.057185907012013017
leaf_count=130 246 166 28 159 47 21 26 288 20
internal_value=0 0.207268 0.411828 0.0974107 -0.380688 -0.605471 -0.640955 0.935891 0.230468
internal_count=1131 859 688 372 213 171 272 316 41
shrinkage=0.05


Tree=38
num_leaves=10
num_cat=0
split_feature=13 14 15 14 14 15 3 16 14
split_gain=20.0976 16.7995 13.2739 9.42563 9.35829 10.0344 8.66331 7.96487 10.6502
threshold=1.5000000000000002 1.5350000000000004 -6.4299999999999988 16.710000000000004 -5.4949999999999992 -1.9099999999999997 14.500000000000002 5.6550000000000011 6.7550000000000017
decision_type=2 2 2 2 2 2 2 2 2
left_child=1 -1 3 -3 6 7 -2 8 -6
right_child=4 2 -4 -5 5 -7 -8 -9 -10
leaf_value=-0.042163963779856761 0.059580129849383559 -0.031874176123554337 0.033132258218521164 0.017874078243396558 -0.055607429486776265 0.055756177403021225 -0.037210603633706082 0.074418323838882805 0.023738662328927074
leaf_count=292 16 172 164 75 42 212 66 22 70
internal_value=0 -0.277504 0.0245439 -0.300035 0.459037 0.668283 -0.293243 0.185493 -0.0879429
internal_count=1131 703 411 247 428 346 82 134 112
shrinkage=0.05


Tree=39
num_leaves=10
num_cat=0
split_feature=3 14 15 14 16 15 14 16 16
split_gain=19.2396 17.5133 14.1714 16.8654 17.7438 9.19636 8.71199 6.97481 6.44039
threshold=30.500000000000004 -5.7749999999999995 -0.55999999999999994 9.7700000000000014 4.6650000000000009 7.495000000000001 21.140000000000004 -8.2649999999999988 -6.7849999999999993
decision_type=2 2 2 2 2 2 2 2 2
left_child=1 5 3 4 -3 -1 -2 -4 -5
right_child=6 2 7 8 -6 -7 -8 -9 -10
leaf_value=-0.053047113637816702 -0.040780970586479594 -0.03887773345648507 -0.017220873867093152 -0.032946353140089507 0.046542923937470976 0.011637847605758783 0.027259275528327548 0.053260728746118847 0.044430777859067357
leaf_count=130 246 162 28 18 46 41 26 288 146
internal_value=0 0.200572 0.393686 0.0970821 -0.370679 -0.573395 -0.618472 0.90319 0.705397
internal_count=1131 859 688 372 208 171 272 316 164
shrinkage=0.05


Tree=40
num_leaves=10
num_cat=0
split_feature=13 14 15 3 16 3 14 15 16
split_gain=18.5977 19.7174 13.1553 10.6661 10.4476 6.77082 6.30117 9.59501 8.1999
threshold=2.5000000000000004 6.4300000000000006 -16.659999999999997 11.500000000000002 -5.4949999999999983 19.500000000000004 -5.4949999999999992 -0.45999999999999991 5.035000000000001
decision_type=2 2 2 2 2 2 2 2 2
left_child=1 3 -3 -1 5 -4 -5 8 -8
right_child=-2 2 4 6 -6 -7 7 -9 -10
leaf_value=0.039602924040404809 0.038294994927140287 -0.023833584138129076 0.055766370510281209 -0.055079691097407263 0.042297742697900015 -0.034258637735655871 -0.0500506771260954 0.020122816108812853 0.017101853332915983
leaf_count=44 193 99 30 202 235 48 169 72 39
internal_value=0 -0.159514 0.249552 -0.542408 0.547183 -0.26283 -0.66533 -0.422741 -0.726628
internal_count=1131 938 412 526 313 78 482 280 208
shrinkage=0.05


Tree=41
num_leaves=10
num_cat=0
split_feature=7 13 3 16 3 14 15 3 14
split_gain=17.8967 11.0893 9.73456 9.15851 7.78185 7.9233 8.17715 5.99769 5.72161
threshold=109.50000000000001 1.0000000180025095e-35 32.500000000000007 5.6550000000000011 11.500000000000002 6.5500000000000016 -9.0049999999999972 31.500000000000004 19.645000000000007
decision_type=2 2 2 2 2 2 2 2 2
left_child=1 -1 -2 4 -3 -6 -7 -5 -4
right_child=2 3 8 7 5 6 -8 -9 -10
leaf_value=-0.044559274397995889 0.026751890803107803 0.048663490436948419 -0.044803277046663176 0.06167191348458502 -0.036966658728710793 -0.022834953346853107 0.0511665588290382 -0.040966761621118272 0.029826328430188884
leaf_count=191 459 41 62 46 205 46 49 15 17
internal_value=0 -0.327503 0.365463 -0.078 -0.261245 -0.399687 0.170115 0.836439 -0.44679
internal_count=1131 593 538 402 341 300 95 61 79
shrinkage=0.05


Tree=42
num_leaves=10
num_cat=0
split_feature=13 14 15 14 16 16 3 3 15
split_gain=16.648 17.9343 14.6649 10.187 9.73488 9.71587 8.26441 7.28107 7.01825
threshold=2.5000000000000004 0.73000000000000009 -6.4299999999999988 14.585000000000003 -9.8749999999999982 3.1050000000000004 11.500000000000002 33.500000000000007 -16.659999999999997
decision_type=2 2 2 2 2 2 2 2 2
left_child=1 6 3 5 -4 -3 -1 -5 -7
right_child=-2 2 4 7 -6 8 -8 -9 -10
leaf_value=0.03265929314050265 0.036630002006632127 -0.053627814217032291 -0.055711112009943442 0.036737601239816516 0.040987470582619104 -0.042410438716675242 -0.042473942822416372 -0.024277896442243454 0.039498228260095608
leaf_count=29 193 120 17 79 250 33 336 37 37
internal_value=0 -0.153824 0.115931 -0.222877 0.646042 -0.614024 -0.698312 0.29995 0.129579
internal_count=1131 938 573 306 267 190 365 116 70
shrinkage=0.05


Tree=43
num_leaves=10
num_cat=0
split_feature=15 14 15 16 14 14 14 16 16
split_gain=16.0374 22.6525 12.2383 12.5687 10.1093 8.93455 8.73491 9.26631 7.55204
threshold=5.7150000000000007 0.58000000000000007 -8.3799999999999972 -4.9899999999999993 -8.2949999999999982 12.255000000000001 14.145000000000001 2.9100000000000006 8.490000000000002
decision_type=2 2 2 2 2 2 2 2 2
left_child=1 8 6 5 -2 -4 7 -3 -1
right_child=4 2 3 -5 -6 -7 -8 -9 -10
leaf_value=-0.050970753961073235 -0.014603618373549338 -0.058064134635592693 -0.069738223157986709 0.043998268357557935 0.053138308337948428 0.032233342383456452 0.01230341056436522 0.0015857011738823713 0.029552224407422296
leaf_count=294 37 101 27 216 205 29 117 78 27
internal_value=0 -0.160563 0.113412 0.550792 0.687529 -0.496666 -0.216803 -0.60765 -0.86234
internal_count=1131 889 568 272 242 56 296 179 321
shrinkage=0.05


Tree=44
num_leaves=10
num_cat=0
split_feature=13 14 12 14 15 15 3 16 14
split_gain=15.527 12.7042 9.95059 7.33499 8.40995 7.20057 7.17376 6.58059 8.29928
threshold=1.5000000000000002 3.4950000000000006 129.50000000000003 -5.4949999999999992 -1.9099999999999997 10.715000000000002 14.500000000000002 5.6550000000000011 10.725000000000003
decision_type=2 2 2 2 2 2 2 2 2
left_child=1 5 -3 6 7 -1 -2 8 -5
right_child=3 2 -4 4 -6 -7 -8 -9 -10
leaf_value=-0.044100326568457943 0.05726871630889805 0.015882399238122642 -0.031044346230085246 -0.038956041698625626 0.053504678775594852 0.032703264511057172 -0.034670899948349994 0.069529437380902712 0.030991037453835843
leaf_count=304 16 272 103 59 212 24 66 22 53
internal_value=0 -0.255614 0.0440268 0.425968 0.624126 -0.731169 -0.266334 0.170481 -0.0912437
internal_count=1131 703 375 428 346 328 82 134 112
shrinkage=0.05


Tree=45
num_leaves=10
num_cat=0
split_feature=3 14 13 16 14 15 15 14 14
split_gain=14.7643 14.0852 13.1626 9.5225 10.0308 11.8316 8.71718 10.8364 6.14001
threshold=32.500000000000007 12.730000000000002 2.5000000000000004 -0.52499999999999991 -6.7599999999999989 -8.3799999999999972 5.495000000000001 -7.4949999999999992 21.405000000000005
decision_type=2 2 2 2 2 2 2 2 2
left_child=1 2 3 6 -5 -6 -1 -8 -2
right_child=8 -3 -4 4 5 -7 7 -9 -10
leaf_value=-0.051503077661060992 -0.045788736811847773 0.039918991203607861 0.035530998691937592 -0.043875896401343595 -0.019521130868532854 0.042076870088459908 -0.069882016015559892 0.046375014402198933 0.01840126926759187
leaf_count=159 188 216 145 93 93 143 15 58 21
internal_value=0 0.152619 -0.0370166 -0.235033 0.0773851 0.334495 -0.668648 0.150729 -0.688032
internal_count=1131 922 706 561 329 236 232 73 209
shrinkage=0.05


Tree=46
num_leaves=10
num_cat=0
split_feature=8 15 14 16 14 15 15 14 16
split_gain=14.0867 17.0814 11.1714 9.96469 8.1967 8.04441 6.56862 7.33545 6.16725
threshold=2.5000000000000004 -3.2499999999999996 10.010000000000002 5.035000000000001 -8.7799999999999994 -14.524999999999997 -16.534999999999997 -5.2349999999999985 -2.0949999999999993
decision_type=2 2 2 2 2 2 2 2 2
left_child=1 2 3 -1 -3 -4 -5 -8 -7
right_child=-2 4 5 6 -6 8 7 -9 -10
leaf_value=-0.046685242684533224 -0.03553435146649829 -0.021281465908668876 -0.012041824178060096 -0.050743808393931999 0.039103851075609652 0.0056249237627006895 -0.056090257404903136 0.064586008772319792 0.066335441121545394
leaf_count=207 196 51 97 29 392 49 19 31 60
internal_value=0 0.143302 -0.173636 -0.579714 0.61185 0.227312 0.246061 0.755362 0.725027
internal_count=1131 935 492 286 443 206 79 50 109
shrinkage=0.05


Tree=47
num_leaves=10
num_cat=0
split_feature=13 14 15 16 14 15 14 3 15
split_gain=13.7367 11.7457 10.9531 9.59866 12.7297 8.83969 6.07016 6.03981 5.60196
threshold=1.0000000180025095e-35 -8.2949999999999982 5.495000000000001 5.2150000000000007 6.5500000000000016 -9.0049999999999972 21.140000000000004 32.500000000000007 -5.6999999999999984
decision_type=2 2 2 2 2 2 2 2 2
left_child=6 -2 3 4 8 -6 -1 -5 -3
right_child=1 2 -4 7 5 -7 -8 -9 -10
leaf_value=-0.032387280164005265 -0.031886088307906457 -0.06016406786803552 0.054051269644559856 0.062604641390579335 -0.0062833344102307467 0.046205449884421358 0.033951281080068126 -0.031466742335540795 -0.0095683744344037223
leaf_count=290 129 80 190 65 91 145 24 17 100
internal_value=0 0.196823 0.33999 0.163845 -0.0163335 0.390891 -0.512833 0.949615 -0.583134
internal_count=1131 817 688 498 416 236 314 82 180
shrinkage=0.05


Tree=48
num_leaves=10
num_cat=0
split_feature=7 13 16 15 14 14 3 16 15
split_gain=13.1889 8.55353 7.94449 7.01646 7.23898 6.17161 6.11503 6.09831 8.10049
threshold=109.50000000000001 1.0000000180025095e-35 5.6550000000000011 -5.8849999999999989 7.2800000000000002 2.1850000000000005 11.500000000000002 -4.9099999999999993 -21.024999999999995
decision_type=2 2 2 2 2 2 2 2 2
left_child=1 -1 6 4 -2 -5 -3 -6 -9
right_child=3 2 -4 5 7 -7 -8 8 -10
leaf_value=-0.041242804472436029 -0.039737569730861566 0.046594441744511231 0.04060349819003832 0.0061297443776107165 -0.038346647167107277 0.050160908383682645 -0.01895994053492692 -0.043742268519610827 0.043865201027033625
leaf_count=191 75 41 61 106 22 223 300 21 91
internal_value=0 -0.297918 -0.0675517 0.330339 -0.0160847 0.649043 -0.251762 0.28921 0.553174
internal_count=1131 593 402 538 209 329 341 134 112
shrinkage=0.05


Tree=49
num_leaves=10
num_cat=0
split_feature=8 15 14 16 15 14 14 15 16
split_gain=12.4485 14.2741 9.88897 7.87365 8.31409 9.36237 7.04913 9.84621 9.3632
threshold=2.5000000000000004 -3.2499999999999996 12.940000000000001 2.4550000000000005 -16.534999999999997 3.4950000000000006 0.58000000000000007 10.715000000000002 3.8950000000000005
decision_type=2 2 2 2 2 2 2 2 2
left_child=1 2 3 -1 -5 -6 7 8 -3
right_child=-2 6 -4 4 5 -7 -8 -9 -10
leaf_value=-0.045971064066367334 -0.03404358816347388 -0.039585199535470815 0.015520194598811574 -0.054451758090899298 -0.019229996599706908 0.062837150123581653 0.04750596769083687 0.064739473388712568 0.046864780200941841
leaf_count=173 196 85 160 54 65 40 282 47 29
internal_value=0 0.138169 -0.156082 -0.477272 -0.0216907 0.382928 0.578905 0.147962 -0.27307
internal_count=1131 935 492 332 159 105 443 161 114
shrinkage=0.05


Tree=50
num_leaves=10
num_cat=0
split_feature=15 14 15 16 14 14 16 14 16
split_gain=11.8867 17.6247 9.57367 11.7197 8.07625 7.58564 8.00993 7.29451 6.65874
threshold=5.7150000000000007 0.58000000000000007 -10.469999999999999 -4.9899999999999993 -15.139999999999999 17.120000000000005 5.4000000000000012 15.715000000000002 8.490000000000002
decision_type=2 2 2 2 2 2 2 2 2
left_child=1 8 5 7 -2 6 -3 -4 -1
right_child=4 2 3 -5 -6 -7 -8 -9 -10
leaf_value=-0.04901754759982533 -0.039784464031633368 -0.049256741291861118 -0.05717592936627517 0.037224850519495485 0.043807860221314915 0.016023812226108575 0.014754752872896879 0.035003520997079374 0.02971992188136191
leaf_count=294 17 125 39 258 225 77 43 26 27
internal_value=0 -0.142691 0.103741 0.442597 0.639435 -0.25913 -0.607228 -0.521577 -0.814827
internal_count=1131 889 568 323 242 245 168 65 321
shrinkage=0.05


Tree=51
num_leaves=10
num_cat=1
split_feature=13 0 14 3 15 14 15 3 16
split_gain=11.4893 10.5727 7.17136 9.39982 6.36822 5.50377 6.72156 6.16256 5.28375
threshold=1.5000000000000002 0 5.6450000000000005 22.500000000000004 8.8800000000000008 -5.4949999999999992 -1.9099999999999997 14.500000000000002 5.6550000000000011
decision_type=2 1 2 2 2 2 2 2 2
left_child=1 -1 4 -4 -3 7 8 -2 -7
right_child=5 2 3 -5 -6 6 -8 -9 -10
leaf_value=0.011850461216042133 0.056219781152716641 -0.055827647809327779 0.038031197286946594 -0.0276131025038652 0.032664400671510961 -0.0043386266982530395 0.050844715103980948 -0.03239746055988315 0.065212011024187735
leaf_count=237 16 246 75 126 19 112 212 66 22
internal_value=0 -0.230196 -0.45422 -0.197286 -0.947933 0.390106 0.576275 -0.23246 0.158965
internal_count=1131 703 466 201 265 428 346 82 134
cat_boundaries=0 1
cat_threshold=845305928
shrinkage=0.05


Tree=52
num_leaves=10
num_cat=1
split_feature=2 7 15 16 12 16 14 15 14
split_gain=11.0822 10.3161 8.98658 7.20171 8.34349 6.0762 7.3257 6.66518 6.0426
threshold=0 129.50000000000003 -0.28499999999999998 -5.1899999999999986 116.50000000000001 7.7650000000000006 7.5850000000000009 -16.839999999999996 -8.7799999999999994
decision_type=1 2 2 2 2 2 2 2 2
left_child=3 2 5 -1 -5 6 -2 -8 -4
right_child=1 -3 8 4 -6 -7 7 -9 -10
leaf_value=-0.052202446953425796 -0.047842359415675675 0.044768085008302733 -0.023711538373167574 0.013034369346797109 -0.028268568425828269 0.055140237972056416 -0.043394107674633489 0.025903949212208413 0.054452709706960138
leaf_count=84 137 211 28 215 232 21 31 63 109
internal_value=0 0.266545 0.0400995 -0.284602 -0.164431 -0.253474 -0.395621 0.0619412 0.717774
internal_count=1131 600 389 531 447 252 231 94 137
cat_boundaries=0 1
cat_threshold=2960038444
shrinkage=0.05


Tree=53
num_leaves=10
num_cat=0
split_feature=13 14 15 16 14 15 14 3 14
split_gain=10.5872 9.29224 8.83379 7.8376 10.3456 7.12375 5.14768 5.03185 4.91936
threshold=1.0000000180025095e-35 -8.2949999999999982 5.495000000000001 5.2150000000000007 6.5500000000000016 -9.0049999999999972 21.140000000000004 32.500000000000007 20.435000000000006
decision_type=2 2 2 2 2 2 2 2 2
left_child=6 -2 3 4 -3 8 -1 -5 -6
right_child=1 2 -4 7 5 -7 -8 -9 -10
leaf_value=-0.030007055883830666 -0.029737701585141892 -0.027438678742957731 0.052179070319408619 0.058432749828267939 -0.022018409233760052 0.043895680742980975 0.03265124091762104 -0.030295149069638205 0.040663794546925591
leaf_count=290 129 180 190 65 65 145 24 17 26
internal_value=0 0.182116 0.315147 0.157174 -0.0131902 0.364536 -0.46793 0.88642 -0.0981774
internal_count=1131 817 688 498 416 236 314 82 91
shrinkage=0.05


Tree=54
num_leaves=10
num_cat=0
split_feature=3 14 13 16 14 15 15 14 12
split_gain=10.3363 10.5481 9.75327 9.14569 7.68494 8.77391 5.76932 7.98794 5.04992
threshold=32.500000000000007 12.730000000000002 2.5000000000000004 -0.52499999999999991 -6.7599999999999989 -8.3799999999999972 5.495000000000001 -7.4949999999999992 66.500000000000014
decision_type=2 2 2 2 2 2 2 2 2
left_child=1 2 3 6 -5 -6 -1 -8 -2
right_child=8 -3 -4 4 5 -7 7 -9 -10
leaf_value=-0.048952926042648663 0.044925374563668262 0.036837442192322795 0.032531536205407961 -0.040842545023366157 -0.016094349669023161 0.040116804007921281 -0.064641442824901016 0.041502013203498861 -0.038331062110876446
leaf_count=159 15 216 145 93 93 143 15 58 194
internal_value=0 0.137234 -0.0374581 -0.219203 0.107697 0.339548 -0.672674 0.0559298 -0.616508
internal_count=1131 922 706 561 329 236 232 73 209
shrinkage=0.05


Tree=55
num_leaves=10
num_cat=0
split_feature=8 15 14 15 14 16 16 15 16
split_gain=9.93949 11.2818 8.13796 9.62631 7.93187 8.68639 6.37825 5.4303 7.78986
threshold=2.5000000000000004 -5.8849999999999989 0.58000000000000007 10.715000000000002 10.115 5.035000000000001 0.64500000000000013 -21.024999999999995 -0.34499999999999992
decision_type=2 2 2 2 2 2 2 2 2
left_child=1 4 3 6 5 -1 -3 -6 -9
right_child=-2 2 -4 -5 7 -7 -8 8 -10
leaf_value=-0.051972056417787384 -0.031786848881840628 -0.055740235135320983 0.042866772670920421 0.06286552994484336 -0.032786251576896012 0.011318209026546037 0.0089023428070941091 -0.0076025942873303182 0.050159709352027307
leaf_count=173 196 64 321 47 40 71 71 78 70
internal_value=0 0.129895 0.489316 0.0166038 -0.181693 -0.607981 -0.3623 0.163134 0.385445
internal_count=1131 935 503 182 432 244 135 188 148
shrinkage=0.05


Tree=56
num_leaves=10
num_cat=0
split_feature=12 16 14 15 14 3 16 16 15
split_gain=9.52539 7.91181 8.10177 7.13072 6.97015 6.05469 5.53309 5.18702 6.78183
threshold=116.50000000000001 -9.8749999999999982 -7.4949999999999992 4.995000000000001 4.5550000000000006 32.500000000000007 4.6650000000000009 -0.099999999999999992 1.7300000000000002
decision_type=2 2 2 2 2 2 2 2 2
left_child=1 -1 -3 4 -2 6 -6 8 -4
right_child=3 2 7 -5 5 -7 -8 -9 -10
leaf_value=-0.058281400598298387 -0.044177025461568376 -0.026946226684172667 -0.0071455753730080328 0.035789698564568512 -0.0028831613726149701 -0.04524551000194324 0.068785029798130906 0.040440263490776229 0.04464593762528872
leaf_count=25 246 85 158 53 116 50 23 230 145
internal_value=0 0.249484 0.332611 -0.320517 -0.452911 -0.101693 0.19528 0.478944 0.189849
internal_count=1131 643 618 488 435 189 139 533 303
shrinkage=0.05


Tree=57
num_leaves=10
num_cat=1
split_feature=7 16 3 2 14 15 14 15 14
split_gain=9.2548 7.49811 6.37724 5.22853 5.16908 4.61484 6.66551 4.27917 4.47537
threshold=109.50000000000001 -0.099999999999999992 35.500000000000007 0 -16.939999999999994 -1.6549999999999996 4.6550000000000002 5.495000000000001 7.705000000000001
decision_type=2 2 2 1 2 2 2 2 2
left_child=1 -1 4 7 -3 6 -6 8 -2
right_child=3 2 -4 -5 5 -7 -8 -9 -10
leaf_value=-0.033062794596318119 -0.045928378115942421 -0.064428576570306581 -0.05730071838330323 0.024144344867415742 -0.032618380199796848 0.043438065998734593 0.026802373886543631 0.040781212379994658 0.0022843562935733115
leaf_count=252 75 25 55 322 102 87 72 51 90
internal_value=0 -0.264647 0.0399621 0.296711 0.193142 0.305356 0.02193 -0.107249 -0.336645
internal_count=1131 593 341 538 286 261 174 216 165
cat_boundaries=0 1
cat_threshold=3043145772
shrinkage=0.05


Tree=58
num_leaves=10
num_cat=0
split_feature=13 14 15 16 14 3 12 16 6
split_gain=8.86693 10.0841 8.17696 9.19239 9.7855 8.22352 5.16849 4.57635 4.47513
threshold=2.5000000000000004 -6.0649999999999986 5.495000000000001 -0.11499999999999998 21.140000000000004 33.500000000000007 111.50000000000001 -5.8349999999999991 251.50000000000003
decision_type=2 2 2 2 2 2 2 2 2
left_child=1 -1 3 4 7 6 -5 -3 -8
right_child=-2 2 -4 5 -6 -7 8 -9 -10
leaf_value=-0.044231532615088692 0.030291767072214332 -0.06589360095221794 0.049237802688357146 0.045822101037449658 0.037334800028796314 -0.039951470766530536 -0.020515843185348603 -0.021935211511907176 0.031813990410900647
leaf_count=198 193 51 125 113 44 63 73 213 58
internal_value=0 -0.123138 0.0141216 -0.0889369 -0.439174 0.266235 0.476638 -0.660952 0.0930761
internal_count=1131 938 740 615 308 307 244 264 131
shrinkage=0.05


Tree=59
num_leaves=10
num_cat=1
split_feature=2 15 14 16 14 12 16 14 8
split_gain=8.5938 10.5366 7.66656 6.67019 7.25411 6.16867 6.08047 5.68058 5.18654
threshold=0 -3.4399999999999995 14.145000000000001 -8.2649999999999988 21.140000000000004 116.50000000000001 7.7650000000000006 -8.7799999999999994 1.0000000180025095e-35
decision_type=1 2 2 2 2 2 2 2 2
left_child=3 2 6 -1 5 8 -2 -3 -5
right_child=1 7 -4 4 -6 -7 -8 -9 -10
leaf_value=-0.069707498716880673 -0.032023780211958501 -0.011431879510373012 0.026715587769628665 0.048588435996624803 0.063324576918584549 -0.032731512829301333 0.0491848415030397 0.049030349704516585 -0.008968682738057657
leaf_count=36 189 45 79 51 31 236 21 270 173
internal_value=0 0.243685 -0.080253 -0.261108 -0.196363 -0.296599 -0.443246 0.761645 0.0755332
internal_count=1131 604 289 527 491 460 210 315 224
cat_boundaries=0 2
cat_threshold=2691602988 2
shrinkage=0.05


Tree=60
num_leaves=10
num_cat=0
split_feature=13 8 15 14 15 16 14 16 14
split_gain=8.30141 7.00355 6.46232 6.18748 7.62481 4.93401 5.52168 4.93296 6.79551
threshold=1.0000000180025095e-35 2.5000000000000004 -7.339999999999999 0.58000000000000007 5.7150000000000007 0.64500000000000013 -5.4949999999999992 5.8550000000000013 10.665000000000001
decision_type=2 2 2 2 2 2 2 2 2
left_child=-1 2 7 4 5 -4 -7 8 -2
right_child=1 -3 3 -5 -6 6 -8 -9 -10
leaf_value=-0.021529206114182995 -0.049301331063604015 -0.023877508633194405 -0.073120024859238936 0.045365228672594342 0.040972432169616914 -0.057084268185862569 0.040648008939846894 0.03787190197235149 0.0077238967864577601
leaf_count=314 92 129 36 300 79 26 23 46 86
internal_value=0 0.171224 0.302996 0.55952 0.117076 -0.496344 0.0443029 -0.0669718 -0.281584
internal_count=1131 817 688 464 164 85 49 224 178
shrinkage=0.05


Tree=61
num_leaves=10
num_cat=0
split_feature=8 15 14 16 15 14 13 14 15
split_gain=7.83667 7.35702 6.94067 6.08253 7.09485 5.95627 5.19667 4.52733 5.91504
threshold=1.5000000000000002 -14.524999999999997 14.585000000000003 -0.42499999999999993 10.010000000000003 22.005000000000003 3.5000000000000004 1.5350000000000004 1.0000000180025095e-35
decision_type=2 2 2 2 2 2 2 2 2
left_child=1 5 3 4 -3 -1 7 -2 -9
right_child=6 2 -4 -5 -6 -7 -8 8 -10
leaf_value=-0.031018200077527036 -0.03867602688982702 -0.026609260455931 0.054856007740116036 0.02652331917843025 0.056095552704258013 0.040409641391970376 0.049226598051301258 -0.016591913594855914 0.061525127080898183
leaf_count=125 250 128 137 233 57 20 23 118 40
internal_value=0 0.201484 0.390688 0.205852 -0.238892 -0.340836 -0.348471 -0.444557 -0.0809011
internal_count=1131 700 555 418 185 145 431 408 158
shrinkage=0.05


Tree=62
num_leaves=10
num_cat=1
split_feature=7 16 3 14 2 15 14 15 14
split_gain=7.59579 6.28734 5.53662 4.49688 4.36999 3.88677 6.81985 3.81763 3.84334
threshold=109.50000000000001 -0.099999999999999992 35.500000000000007 -16.939999999999994 0 4.8050000000000006 -5.4949999999999992 -2.6449999999999996 11.925000000000002
decision_type=2 2 2 2 1 2 2 2 2
left_child=1 -1 3 -3 -2 6 -5 8 -8
right_child=4 2 -4 5 -6 -7 7 -9 -10
leaf_value=-0.030953897893322885 -0.0050904580953466186 -0.063267905951026007 -0.056924048193347558 -0.054208677830856179 0.022568073462039318 0.057890089097075874 -0.005537942191318459 0.069068920144018553 0.050783905388653072
leaf_count=252 216 25 55 66 322 38 103 29 25
internal_value=0 -0.245616 0.0429868 0.185402 0.278643 0.290957 0.127158 0.371694 0.174316
internal_count=1131 593 341 286 538 261 223 157 128
cat_boundaries=0 1
cat_threshold=3043145772
shrinkage=0.05


Tree=63
num_leaves=10
num_cat=0
split_feature=13 14 15 16 14 15 15 3 15
split_gain=7.27824 6.02581 5.94299 7.30484 7.95121 5.95351 4.13288 3.98886 3.94956
threshold=1.0000000180025095e-35 -7.754999999999999 5.495000000000001 5.2150000000000007 6.5500000000000016 -9.0049999999999972 10.945000000000002 32.500000000000007 -5.6999999999999984
decision_type=2 2 2 2 2 2 2 2 2
left_child=-1 6 3 4 8 -6 -2 -5 -3
right_child=1 2 -4 7 5 -7 -8 -9 -10
leaf_value=-0.020369234075782741 -0.046150277983592052 -0.056651426840674257 0.048532654812494025 0.058528790691242664 -0.0051286338139170107 0.041891273307400612 0.015450583061716061 -0.026398190525780737 -0.0088422044280816112
leaf_count=314 114 79 189 61 91 145 21 17 100
internal_value=0 0.165247 0.281885 0.153083 -0.0189254 0.327532 -0.489318 0.905579 -0.518535
internal_count=1131 817 682 493 415 236 135 78 179
shrinkage=0.05


Tree=64
num_leaves=10
num_cat=1
split_feature=2 15 14 16 14 3 14 16 14
split_gain=7.17585 8.78116 6.5849 6.08348 6.34909 5.51179 6.45196 5.06322 4.60846
threshold=0 -3.4399999999999995 14.585000000000003 -8.2649999999999988 21.140000000000004 32.500000000000007 10.310000000000002 7.7650000000000006 -8.7799999999999994
decision_type=1 2 2 2 2 2 2 2 2
left_child=3 2 7 -1 5 6 -5 -2 -3
right_child=1 8 -4 4 -6 -7 -8 -9 -10
leaf_value=-0.067212680826922888 -0.029268628497134748 -0.0093947992532276339 0.026640917213564458 -0.017126649050050461 0.062481077357501164 -0.051840362590706138 0.032854056188232623 0.045642634192976858 0.046999722975497149
leaf_count=36 191 45 76 279 31 99 82 22 270
internal_value=0 0.23067 -0.0654447 -0.242619 -0.177868 -0.273169 -0.108189 -0.401618 0.730934
internal_count=1131 604 289 527 491 460 361 213 315
cat_boundaries=0 2
cat_threshold=2691602988 2
shrinkage=0.05


Tree=65
num_leaves=10
num_cat=0
split_feature=13 14 15 16 14 15 16 14 3
split_gain=6.92592 8.48297 6.39837 5.96327 5.36213 6.68255 7.24561 4.53559 4.11804
threshold=2.5000000000000004 0.73000000000000009 -16.659999999999997 -5.4949999999999983 10.115 -5.8849999999999989 5.035000000000001 17.675000000000004 11.500000000000002
decision_type=2 2 2 2 2 2 2 2 2
left_child=1 8 7 -4 5 6 -5 -3 -1
right_child=-2 2 3 4 -6 -7 -8 -9 -10
leaf_value=0.027569013197872118 0.028142040820716214 -0.049830087474377512 -0.018984728149589274 -0.044669973953288297 0.047296446980332259 0.036245992749644657 0.046266907645048636 0.0036474299420295418 -0.036335630398458808
leaf_count=29 193 80 94 69 165 103 17 45 336
internal_value=0 -0.111896 0.0888702 0.276048 0.471744 0.155777 -0.390907 -0.459562 -0.589028
internal_count=1131 938 573 448 354 189 86 125 365
shrinkage=0.05


Tree=66
num_leaves=10
num_cat=0
split_feature=12 16 15 14 14 3 14 15 14
split_gain=6.65775 6.4672 5.21821 5.56118 5.14728 4.85743 4.60703 4.17057 4.62428
threshold=116.50000000000001 -5.4949999999999983 4.995000000000001 4.5550000000000006 -17.754999999999999 28.500000000000004 12.075000000000001 -15.159999999999998 18.145000000000007
decision_type=2 2 2 2 2 2 2 2 2
left_child=1 6 3 -2 -3 -5 -1 8 -6
right_child=2 4 -4 5 7 -7 -8 -9 -10
leaf_value=-0.052422812293877352 -0.041678268007449656 -0.064161369593486381 0.03276775568000153 0.01853370094934868 -0.040629082935607151 -0.027393464738169587 0.012113348035983025 0.029590124021039735 0.030784593454907257
leaf_count=57 246 21 53 101 50 88 49 443 23
internal_value=0 0.223466 -0.283904 -0.405734 0.381119 -0.0837173 -0.463095 0.444764 -0.161274
internal_count=1131 643 488 435 537 189 106 516 73
shrinkage=0.05


Tree=67
num_leaves=10
num_cat=1
split_feature=8 2 7 15 14 16 15 3 15
split_gain=6.44499 5.88747 5.76046 5.45982 4.70958 4.56294 4.33823 4.06661 4.01067
threshold=1.5000000000000002 0 97.500000000000014 -14.524999999999997 9.7700000000000014 5.035000000000001 10.010000000000003 32.500000000000007 -3.1699999999999995
decision_type=2 1 2 2 2 2 2 2 2
left_child=1 2 -1 -3 6 8 -5 -7 -2
right_child=5 3 -4 4 -6 7 -8 -9 -10
leaf_value=0.0036324669354458657 -0.04580709803261037 -0.03854628341211154 0.047539125104779437 -0.018448212279692726 0.036012414997227404 0.039042717353655165 0.058749854285719022 -0.054591127617453605 -0.0091074257105624966
leaf_count=132 173 90 213 138 97 51 30 28 179
internal_value=0 0.190103 0.436675 -0.109683 0.099785 -0.328137 -0.190571 0.394651 -0.496546
internal_count=1131 700 345 355 265 431 168 79 352
cat_boundaries=0 2
cat_threshold=1320699602 2
shrinkage=0.05


Tree=68
num_leaves=10
num_cat=0
split_feature=13 14 15 16 15 14 15 16 15
split_gain=6.34453 5.16965 6.36033 5.58319 6.37308 5.62411 5.09813 4.24857 5.97279
threshold=1.0000000180025095e-35 -5.4949999999999992 7.495000000000001 5.2150000000000007 2.7450000000000006 7.1950000000000012 -9.0049999999999972 -0.52499999999999991 -5.6999999999999984
decision_type=2 2 2 2 2 2 2 2 2
left_child=-1 2 -2 4 5 7 -7 -3 -9
right_child=1 3 -4 -5 -6 6 -8 8 -10
leaf_value=-0.019596845761565444 -0.048518482446413345 -0.060226528298580731 0.018179311131128847 0.04884031475063947 0.04190607278994652 -0.0057882587012114475 0.041459660070343088 -0.049903574863457881 0.02925436380605019
leaf_count=314 132 55 40 82 203 89 120 52 44
internal_value=0 0.159329 -0.37661 0.289926 0.15306 -0.0347977 0.270854 -0.508253 -0.108047
internal_count=1131 817 172 645 563 360 209 151 96
shrinkage=0.05


Tree=69
num_leaves=10
num_cat=1
split_feature=2 15 14 16 12 16 14 15 15
split_gain=6.05148 7.45073 5.60941 5.32074 6.13061 4.34418 4.20382 5.55768 4.11442
threshold=0 -3.4399999999999995 14.585000000000003 -5.1899999999999986 116.50000000000001 7.9350000000000014 -2.3699999999999997 6.8200000000000012 -18.145
decision_type=1 2 2 2 2 2 2 2 2
left_child=3 2 5 -1 -5 -2 7 -3 -4
right_child=1 6 8 4 -6 -7 -8 -9 -10
leaf_value=-0.044305979075314084 -0.026793526258544954 -0.032935317040837547 -0.0073337578934179097 0.015264082092819101 -0.025209449450715384 0.05307575660237876 0.053467683685073181 0.04470260308405033 0.053096226723869211
leaf_count=93 196 50 29 212 222 17 221 44 47
internal_value=0 0.217461 -0.0588657 -0.229001 -0.0962601 -0.382465 0.70027 0.187459 0.501436
internal_count=1131 604 289 527 434 213 315 94 76
cat_boundaries=0 2
cat_threshold=2691602988 2
shrinkage=0.05


Tree=70
num_leaves=10
num_cat=0
split_feature=8 15 14 16 15 14 16 15 14
split_gain=5.86668 5.17203 5.78523 5.63088 5.50583 4.8602 4.39817 3.84118 6.69422
threshold=1.5000000000000002 -14.524999999999997 14.585000000000003 -2.0949999999999993 9.2700000000000014 22.005000000000003 -5.0699999999999994 4.8050000000000006 1.635
decision_type=2 2 2 2 2 2 2 2 2
left_child=1 5 3 4 -3 -1 -2 8 -8
right_child=6 2 -4 -5 -6 -7 7 -9 -10
leaf_value=-0.027992492129154018 -0.051670388872644683 -0.039009409436260745 0.053288764670424919 0.020980449694192941 0.054946444045570988 0.038251214524356779 -0.046660193070644056 0.02512005380679613 0.0082936923628186381
leaf_count=125 62 80 137 296 42 20 190 69 110
internal_value=0 0.184374 0.354257 0.18256 -0.440095 -0.28864 -0.319191 -0.148696 -0.351026
internal_count=1131 700 555 418 122 145 431 369 300
shrinkage=0.05


Tree=71
num_leaves=10
num_cat=1
split_feature=13 0 14 3 15 14 16 7 12
split_gain=5.73163 6.50368 4.3955 6.85029 3.75906 3.67317 3.3522 4.2559 3.34114
threshold=1.5000000000000002 0 5.6450000000000005 19.500000000000004 8.8800000000000008 0.84000000000000019 -5.0699999999999994 75.500000000000014 129.50000000000003
decision_type=2 1 2 2 2 2 2 2 2
left_child=1 5 4 -4 -3 -1 -2 -8 -5
right_child=6 2 3 8 -6 -7 7 -9 -10
leaf_value=-0.02169508605316928 -0.016491733831149071 -0.049474578173060689 0.056471984259331823 -0.0064243037043407716 0.029674821166884871 0.028315234002005175 -0.0082075239089196648 0.034553005679569586 -0.049785094312587291
leaf_count=60 76 255 57 102 19 154 81 271 56
internal_value=0 -0.178748 -0.361818 -0.176761 -0.836466 0.236239 0.320281 0.462603 -0.390739
internal_count=1131 703 489 215 274 214 428 352 158
cat_boundaries=0 1
cat_threshold=845301832
shrinkage=0.05


Tree=72
num_leaves=10
num_cat=0
split_feature=14 15 15 16 14 15 16 16 14
split_gain=5.48961 7.1243 5.75649 5.64182 6.88182 6.69454 5.7955 5.59768 4.32729
threshold=-5.4949999999999992 -0.55999999999999994 7.495000000000001 5.2150000000000007 9.5150000000000023 -14.524999999999997 -2.0949999999999993 -8.2649999999999988 18.145000000000007
decision_type=2 2 2 2 2 2 2 2 2
left_child=2 3 -1 4 -2 8 -7 -3 -6
right_child=1 7 -4 -5 5 6 -8 -9 -10
leaf_value=-0.049111698235765694 -0.030695783905124716 -0.029795318113488692 0.0095229655097202603 0.030471857676596898 -0.059251444169761684 0.0011745624904492104 0.060179697967731906 0.044693676330192444 0.001247479728801323
leaf_count=206 242 29 44 86 36 77 77 287 47
internal_value=0 0.11269 -0.506996 -0.0500925 -0.187747 0.12634 0.537902 0.65418 -0.423219
internal_count=1131 881 250 565 479 237 154 316 83
shrinkage=0.05


Tree=73
num_leaves=10
num_cat=0
split_feature=13 16 14 3 15 14 3 12 14
split_gain=5.33023 4.54986 4.82494 6.99568 6.82544 4.31131 3.78325 3.39141 4.1846
threshold=1.0000000180025095e-35 4.1750000000000007 0.58000000000000007 13.500000000000002 -7.2249999999999988 20.435000000000006 32.500000000000007 98.500000000000014 14.585000000000003
decision_type=2 2 2 2 2 2 2 2 2
left_child=-1 2 3 -2 5 7 -3 8 -4
right_child=1 6 4 -5 -6 -7 -8 -9 -10
leaf_value=-0.018497549905795004 0.03874712159434697 0.040968946686904734 -0.029334268443491601 -0.037237738957641806 0.032395606172927881 0.035789431030449452 -0.032544355220870722 -0.049273560210305462 0.051619657699745337
leaf_count=314 49 132 31 182 282 30 33 61 17
internal_value=0 0.150872 0.0131982 -0.413242 0.223828 -0.223776 0.62842 -0.48608 0.0105057
internal_count=1131 817 652 231 421 139 165 109 48
shrinkage=0.05


Tree=74
num_leaves=10
num_cat=0
split_feature=8 15 14 16 15 14 3 14 15
split_gain=5.19184 6.66401 6.20036 6.1064 6.23716 6.11873 4.77713 4.65637 6.36726
threshold=2.5000000000000004 10.715000000000002 -5.4949999999999992 -0.099999999999999992 -12.199999999999998 10.915000000000001 35.500000000000007 21.140000000000004 -5.6249999999999991
decision_type=2 2 2 2 2 2 2 2 2
left_child=1 2 -1 7 5 -5 -7 8 -4
right_child=-2 -3 3 4 -6 6 -8 -9 -10
leaf_value=-0.039441580179823486 -0.025826338614625508 0.056189968426869602 -0.042974579128868595 -0.039417556817067621 0.041023630309310159 0.043133661243143537 -0.043564851854619897 0.032777771502145371 0.0065811115989552324
leaf_count=139 196 127 124 70 203 46 17 55 154
internal_value=0 0.10752 0.0250558 0.128636 0.422604 -0.0395158 0.481121 -0.189737 -0.365603
internal_count=1131 935 808 669 336 133 63 333 278
shrinkage=0.05


Tree=75
num_leaves=10
num_cat=1
split_feature=2 15 7 11 15 3 16 14 15
split_gain=5.0745 5.71782 4.90843 4.47211 5.99831 4.52108 3.77522 3.86903 5.5699
threshold=0 -0.41999999999999993 129.50000000000003 214.50000000000003 -10.469999999999999 11.500000000000002 8.3350000000000026 5.6450000000000005 -16.839999999999996
decision_type=1 2 2 2 2 2 2 2 2
left_child=3 2 6 5 -5 -1 7 -2 -9
right_child=1 -3 -4 4 -6 -7 -8 8 -10
leaf_value=0.027820432497013464 -0.043979581109476418 0.037709805612107523 0.033640250227127196 -0.022470401000494737 0.023447936537331099 -0.044347697675609782 0.057187705246800807 -0.042385190736948783 0.0216317176297674
leaf_count=45 128 252 90 165 152 170 15 39 75
internal_value=0 0.207266 0.0170935 -0.214484 -0.0203169 -0.668968 -0.207483 -0.32001 -0.0183449
internal_count=1131 599 347 532 317 215 257 242 114
cat_boundaries=0 1
cat_threshold=2691619372
shrinkage=0.05


Tree=76
num_leaves=10
num_cat=1
split_feature=13 14 0 16 15 14 3 16 12
split_gain=4.81231 6.34278 5.32687 4.77235 6.58843 4.48845 5.15068 3.93673 3.51831
threshold=2.5000000000000004 -7.754999999999999 0 -9.8749999999999982 2.3700000000000006 22.005000000000003 33.500000000000007 -3.4499999999999997 145.50000000000003
decision_type=2 2 1 2 2 2 2 2 2
left_child=1 -1 3 -3 -5 6 7 -4 -9
right_child=-2 2 5 4 -6 -7 -8 8 -10
leaf_value=-0.04614125066583441 0.025119429240988252 -0.087639194574003002 -0.015805869855142467 -0.021777597071397384 0.049219738442171958 0.065960075835614293 -0.043314911507382189 0.036950383903065535 -0.0087289141171161665
leaf_count=167 193 16 82 262 70 38 55 191 57
internal_value=0 -0.100688 -0.000742562 -0.268884 -0.244802 0.222938 0.1685 0.31194 0.517611
internal_count=1131 938 771 348 332 423 385 330 248
cat_boundaries=0 1
cat_threshold=3448252197
shrinkage=0.05


Tree=77
num_leaves=10
num_cat=1
split_feature=2 7 15 16 7 12 16 14 15
split_gain=4.63211 4.76201 4.93903 3.99858 3.94261 3.91321 3.65845 3.80661 3.69961
threshold=0 129.50000000000003 3.4150000000000005 -3.5449999999999995 73.500000000000014 125.50000000000001 8.3350000000000026 -1.8899999999999997 -16.839999999999996
decision_type=1 2 2 2 2 2 2 2 2
left_child=1 2 6 -2 -5 -6 7 -1 -9
right_child=3 -3 -4 4 5 -7 -8 8 -10
leaf_value=-0.054009560492186019 -0.034478287701887093 0.038771613986295035 0.044909494095836826 -0.033258128510046739 0.02127923073535121 -0.018677818278218915 0.05556033712377987 -0.041483085591034752 0.0099666254729386602
leaf_count=84 142 191 84 108 204 121 17 43 137
internal_value=0 0.213533 0.0506436 -0.193339 -0.0517112 0.134577 -0.137017 -0.2523 -0.0547445
internal_count=1131 556 365 575 433 325 281 264 180
cat_boundaries=0 2
cat_threshold=1334846931 2
shrinkage=0.05


Tree=78
num_leaves=10
num_cat=1
split_feature=8 2 7 13 16 3 3 4 13
split_gain=4.58736 4.29278 4.3712 4.16867 3.8239 3.77026 3.34575 3.72254 2.78712
threshold=1.5000000000000002 0 97.500000000000014 1.5000000000000002 4.1750000000000007 32.500000000000007 30.500000000000004 21.500000000000004 3.5000000000000004
decision_type=2 1 2 2 2 2 2 2 2
left_child=1 3 6 -1 8 -6 7 -3 -2
right_child=4 2 -4 -5 5 -7 -8 -9 -10
leaf_value=-0.030407945019997891 -0.028052071594035333 -0.0067550958116474984 0.034990734031649338 0.016452158381769423 0.035949815877077858 -0.054180018771303233 -0.049716820507998444 0.049961063129254496 0.041629014201585962
leaf_count=140 319 110 295 78 60 36 35 42 16
internal_value=0 0.170085 0.322398 -0.180675 -0.297437 0.350194 0.0140998 0.21871 -0.477917
internal_count=1131 700 482 218 431 96 187 152 335
cat_boundaries=0 1
cat_threshold=2420547625
shrinkage=0.05


Tree=79
num_leaves=10
num_cat=0
split_feature=14 15 16 3 14 15 12 15 14
split_gain=4.49455 5.7147 6.5685 5.28795 4.99455 4.92305 3.65903 3.51007 5.43124
threshold=-5.4949999999999992 5.495000000000001 -0.099999999999999992 35.500000000000007 21.140000000000004 7.495000000000001 111.50000000000001 -11.644999999999998 12.075000000000001
decision_type=2 2 2 2 2 2 2 2 2
left_child=5 2 4 6 7 -1 -4 -2 -9
right_child=1 -3 3 -5 -6 -7 -8 8 -10
leaf_value=-0.048266723684854948 -0.056924368189930054 0.047930304210878405 0.040559196476804671 -0.046334763932244546 0.031268590056818049 0.0086351901310110432 0.0063175587011548399 -0.030013132504269086 0.024017612293910365
leaf_count=206 68 191 152 44 49 44 155 151 71
internal_value=0 0.104112 0.0147872 0.320849 -0.301824 -0.486042 0.443829 -0.4635 -0.280207
internal_count=1131 881 690 351 339 250 307 290 222
shrinkage=0.05


Tree=80
num_leaves=10
num_cat=0
split_feature=3 14 15 16 14 16 16 15 15
split_gain=4.27611 5.28632 4.98059 4.9999 4.46965 4.54096 4.21898 4.46563 2.96132
threshold=11.500000000000002 0.58000000000000007 -10.469999999999999 -4.9899999999999993 17.120000000000005 5.4000000000000012 8.490000000000002 5.7150000000000007 -21.024999999999995
decision_type=2 2 2 2 2 2 2 2 2
left_child=-1 6 4 -4 5 -3 7 -2 -6
right_child=1 2 3 -5 8 -7 -8 -9 -10
leaf_value=0.041722447269517571 -0.045185474099072656 -0.043371142381075999 -0.012420624069322489 0.032349547575905233 -0.02199896085175496 0.011784341407882842 0.040400124024635692 0.0020089250144084141 0.032873935035158924
leaf_count=140 292 125 90 267 22 43 28 69 55
internal_value=0 -0.0553599 0.107859 0.38895 -0.193886 -0.514482 -0.443697 -0.580266 0.298406
internal_count=1131 991 602 357 245 168 389 361 77
shrinkage=0.05


Tree=81
num_leaves=10
num_cat=1
split_feature=13 1 15 0 11 3 14 16 15
split_gain=4.12515 3.88889 4.21914 4.02636 3.79736 2.98728 2.92269 2.73022 2.53845
threshold=1.0000000180025095e-35 1.0000000180025095e-35 -21.024999999999995 0 209.50000000000003 15.500000000000002 3.8450000000000002 -2.2249999999999996 -12.674999999999999
decision_type=2 2 2 1 2 2 2 2 2
left_child=6 3 -3 -2 5 -4 -1 -8 -9
right_child=1 2 4 -5 -6 -7 7 8 -10
leaf_value=-0.043998443423967727 0.011105605916284979 -0.050172492778492131 0.040999435954212092 -0.017084904505484874 0.038069877060483641 -0.018332646036164715 -0.031102781834508753 -0.010427209894803587 0.038403717321401222
leaf_count=151 205 22 78 212 208 92 62 57 44
internal_value=0 0.138954 0.394804 -0.102845 0.493596 -0.00345719 -0.340591 -0.124721 0.18151
internal_count=1131 817 400 417 378 170 314 163 101
cat_boundaries=0 1
cat_threshold=2087081997
shrinkage=0.05


Tree=82
num_leaves=10
num_cat=2
split_feature=2 15 0 5 16 15 14 3 16
split_gain=4.07553 5.02385 4.61696 3.67865 3.986 3.21899 5.55934 3.02565 2.66029
threshold=0 -3.4399999999999995 1 345.50000000000006 -0.099999999999999992 -10.469999999999999 3.7050000000000005 36.500000000000007 -4.0749999999999993
decision_type=1 2 1 2 2 2 2 2 2
left_child=1 3 -2 -1 -5 -4 -7 -6 -8
right_child=2 -3 5 4 7 6 8 -9 -10
leaf_value=-0.034323929409534021 0.0083398169567549408 0.035208493752709562 -0.053626106199646875 -0.01727511303848207 0.040548551413535819 -0.038400139321201017 -0.016266436680982512 -0.035825933100878248 0.041378583971700106
leaf_count=108 223 259 120 67 75 152 40 15 72
internal_value=0 0.208562 -0.182084 -0.0206262 0.203312 -0.401018 -0.326293 0.596716 0.310633
internal_count=1131 524 607 265 157 384 264 90 112
cat_boundaries=0 1 2
cat_threshold=1586505171 846125056
shrinkage=0.05


Tree=83
num_leaves=10
num_cat=1
split_feature=8 2 15 14 15 3 16 14 15
split_gain=4.00666 5.0631 4.82455 3.90179 3.06423 3.03126 2.77137 3.02439 6.71519
threshold=1.0000000180025095e-35 0 -14.764999999999999 14.485000000000001 -3.6749999999999994 29.500000000000004 -9.7449999999999992 -5.7749999999999995 -0.45999999999999991
decision_type=2 1 2 2 2 2 2 2 2
left_child=4 2 -2 6 -1 -5 -3 -8 -9
right_child=1 3 -4 5 -6 -7 7 8 -10
leaf_value=0.0063051236285096776 -0.031539835210757976 -0.079429140333859213 0.023944776176569371 0.059985757771959948 0.045993255191907348 -0.011444336563529361 -0.051965342886195115 -0.030932987932875772 0.033119225384223135
leaf_count=165 64 22 268 39 148 25 126 176 98
internal_value=0 -0.131931 0.192469 -0.321426 0.347934 0.304196 -0.557612 -0.46927 -0.279965
internal_count=1131 818 332 486 313 64 422 400 274
cat_boundaries=0 1
cat_threshold=1486102987
shrinkage=0.05


Tree=84
num_leaves=10
num_cat=0
split_feature=14 15 14 16 15 14 14 3 15
split_gain=3.7814 5.84104 5.33408 5.06172 4.35712 4.87851 4.1784 3.8853 3.71402
threshold=-17.754999999999999 8.6250000000000018 -5.4949999999999992 -0.099999999999999992 -8.3799999999999972 9.3200000000000021 21.140000000000004 35.500000000000007 -5.6249999999999991
decision_type=2 2 2 2 2 2 2 2 2
left_child=-1 2 -2 6 5 -5 8 -7 -4
right_child=1 -3 3 4 -6 7 -8 -9 -10
leaf_value=-0.061331916576101909 -0.042061576149543561 0.041871692509431145 -0.037819701415057319 -0.025144303267157608 0.039040133224412688 0.037064735238968326 0.031102871521663952 -0.039471895673507541 -0.0018917778268418787
leaf_count=45 173 170 150 111 161 72 55 20 174
internal_value=0 0.0381666 -0.0499192 0.0402844 0.316681 0.0350458 -0.232715 0.472209 -0.377561
internal_count=1131 1086 916 743 364 203 379 92 324
shrinkage=0.05


Tree=85
num_leaves=10
num_cat=0
split_feature=14 13 15 16 3 14 15 7 16
split_gain=3.63837 5.0644 4.38901 5.80858 3.34285 3.91714 3.2774 3.21214 3.16128
threshold=6.4300000000000006 2.5000000000000004 -15.315 -3.0799999999999996 19.500000000000004 16.710000000000004 -6.3249999999999993 98.500000000000014 0.115
decision_type=2 2 2 2 2 2 2 2 2
left_child=1 8 7 4 -4 6 -6 -2 -1
right_child=2 -3 3 -5 5 -7 -8 -9 -10
leaf_value=-0.037410838891937047 -0.043532967414873058 0.020869086558966941 0.052548164382118359 0.043621745579639153 -0.073542289432501448 0.028793141823267789 -0.0039940227898055897 0.0058773588600783428 -0.0060323586937834411
leaf_count=221 45 118 74 210 26 35 27 70 305
internal_value=0 -0.202964 0.212658 0.44836 -0.0545878 -0.297294 -0.736446 -0.235394 -0.39413
internal_count=1131 644 487 372 162 88 53 115 526
shrinkage=0.05


Tree=86
num_leaves=10
num_cat=0
split_feature=14 3 16 14 15 14 16 15 9
split_gain=3.59585 4.88294 4.66482 5.92245 5.09351 4.82145 4.27486 3.92176 3.18716
threshold=26.920000000000005 33.500000000000007 4.1750000000000007 14.585000000000003 -5.8849999999999989 0.58000000000000007 -7.4049999999999994 18.420000000000005 21.500000000000004
decision_type=2 2 2 2 2 2 2 2 2
left_child=1 2 3 4 -1 7 -7 8 -6
right_child=-2 -3 -4 -5 5 6 -8 -9 -10
leaf_value=-0.03581460512870533 0.062789633636029726 -0.032309800576311519 0.028400595618336983 0.029451514343849947 -0.038924300752297213 -0.036757389043983915 0.033460844896578516 0.059605286389751599 0.023629417863460848
leaf_count=178 30 180 170 147 157 24 195 18 32
internal_value=0 -0.0324308 0.0656252 -0.0671021 -0.230215 0.00622003 0.415529 -0.388841 -0.552337
internal_count=1131 1101 921 751 604 426 219 207 189
shrinkage=0.05


Tree=87
num_leaves=10
num_cat=0
split_feature=3 14 16 15 14 15 11 14 15
split_gain=3.51111 4.31252 3.96454 3.79527 4.52775 3.65266 4.64064 4.29129 3.12686
threshold=11.500000000000002 -5.4949999999999992 5.2150000000000007 5.495000000000001 0.58000000000000007 -14.524999999999997 218.50000000000003 18.145000000000007 -12.199999999999998
decision_type=2 2 2 2 2 2 2 2 2
left_child=-1 -2 3 4 -3 7 -7 -6 -4
right_child=1 2 8 -5 5 6 -8 -9 -10
leaf_value=0.04065231680072709 -0.030538459880048108 -0.046370257462450951 0.0078216006173330976 0.044171335857996777 -0.055441660893078996 -0.018085972838482622 0.021791436118812079 0.0026939406225124705 0.063617585547262476
leaf_count=140 231 104 54 90 77 114 233 47 41
internal_value=0 -0.0506503 0.0489185 -0.0574622 -0.130414 -0.0197026 0.159827 -0.471276 0.616542
internal_count=1131 991 760 665 575 471 347 124 95
shrinkage=0.05


Tree=88
num_leaves=10
num_cat=0
split_feature=14 15 14 16 15 14 15 16 10
split_gain=3.40088 5.27179 4.5954 4.72084 4.22568 4.97239 4.69532 4.60905 3.17535
threshold=-17.754999999999999 8.6250000000000018 -5.4949999999999992 -5.4949999999999983 -0.55999999999999994 6.2950000000000008 -16.659999999999997 6.8350000000000009 291.50000000000006
decision_type=2 2 2 2 2 2 2 2 2
left_child=-1 2 -2 8 5 7 -7 -5 -4
right_child=1 -3 3 4 -6 6 -8 -9 -10
leaf_value=-0.060434219916334103 -0.040611105293099782 0.041055562810204102 -0.06623145009522817 -0.03320414325522799 0.041642405256451819 -0.01069245933041406 0.030625759812370035 0.032377740849970402 -0.0090120718079458127
leaf_count=45 173 170 34 186 143 98 190 27 65
internal_value=0 0.036387 -0.0486205 0.0357792 0.15814 0.0407345 0.290755 -0.39696 -0.565104
internal_count=1131 1086 916 743 644 501 288 213 99
shrinkage=0.05


Tree=89
num_leaves=10
num_cat=0
split_feature=14 3 16 5 15 14 15 14 16
split_gain=3.37904 4.34798 4.42999 4.01577 3.84613 3.03703 3.39961 5.17741 3.5799
threshold=26.920000000000005 33.500000000000007 -2.8799999999999994 333.50000000000006 -12.199999999999998 -16.939999999999994 7.035000000000001 -5.4949999999999992 5.2150000000000007
decision_type=2 2 2 2 2 2 2 2 2
left_child=1 2 -1 4 -4 -6 7 -7 -9
right_child=-2 -3 3 -5 5 6 -8 8 -10
leaf_value=-0.016792862045635341 0.062283647980679792 -0.031102968984087945 -0.056334501868706768 0.024863049317940922 -0.06228745727975539 -0.053930884729293693 0.057832554280359209 0.00011922556906162688 0.066391116925841737
leaf_count=267 30 180 52 321 22 79 50 103 27
internal_value=0 -0.0321478 0.0623438 0.227813 -0.0859735 0.0824493 0.20352 -0.00255058 0.335529
internal_count=1131 1101 921 654 333 281 259 209 130
shrinkage=0.05


Tree=90
num_leaves=10
num_cat=1
split_feature=7 11 3 2 15 16 14 15 16
split_gain=3.25105 4.44948 4.02561 4.06534 4.03125 3.02441 2.69744 2.4592 3.39559
threshold=66.500000000000014 387.50000000000006 12.500000000000002 0 -20.449999999999999 -5.4949999999999983 14.765000000000002 -3.2499999999999996 -0.59499999999999986
decision_type=2 2 2 1 2 2 2 2 2
left_child=-1 2 -2 4 -4 -5 7 8 -6
right_child=1 -3 3 5 6 -7 -8 -9 -10
leaf_value=-0.022994550263086961 0.04628920239478878 0.050549859826870047 -0.052460469068730156 -0.04593022488082997 -0.051075000843379459 -0.0084735125861806499 0.050141264638018969 0.031255618724018518 0.013763193613009518
leaf_count=196 143 42 22 66 45 332 79 126 80
internal_value=0 0.0905611 0.017815 -0.0541778 0.211422 -0.25209 0.41398 0.216457 -0.130061
internal_count=1131 935 893 750 352 398 330 251 125
cat_boundaries=0 2
cat_threshold=1385188567 2
shrinkage=0.05


Tree=91
num_leaves=10
num_cat=1
split_feature=0 7 15 11 15 13 12 16 14
split_gain=3.15332 4.66787 3.82347 3.16252 4.74748 3.30324 2.52848 2.63376 2.51042
threshold=0 92.500000000000014 -11.819999999999999 199.50000000000003 -8.3799999999999972 2.5000000000000004 96.500000000000014 -0.42499999999999993 12.940000000000001
decision_type=1 2 2 2 2 2 2 2 2
left_child=1 2 -1 5 6 8 7 -5 -2
right_child=3 -3 -4 4 -6 -7 -8 -9 -10
leaf_value=-0.051284088532882049 -0.04918712060882343 0.024858773485718536 0.006897143490775845 -0.031494759841330579 0.021792349099839108 0.027665627276723944 -0.034638070470234525 0.035386835660536679 0.035317954678773925
leaf_count=59 158 354 119 23 187 32 140 36 23
internal_value=0 0.188924 -0.251565 -0.16929 -0.0239677 -0.618759 -0.385202 0.128399 -0.835425
internal_count=1131 532 178 599 386 213 199 59 181
cat_boundaries=0 1
cat_threshold=922114192
shrinkage=0.05


Tree=92
num_leaves=10
num_cat=0
split_feature=14 15 16 14 15 14 16 16 3
split_gain=3.11736 4.59161 4.80466 3.94043 3.6557 5.35103 3.62953 3.12082 3.0646
threshold=12.940000000000001 -8.3799999999999972 -4.1149999999999993 -17.754999999999999 7.495000000000001 -5.4949999999999992 0.64500000000000013 2.0850000000000004 30.500000000000004
decision_type=2 2 2 2 2 2 2 2 2
left_child=1 7 -3 -4 5 -5 -7 -1 -2
right_child=8 2 3 4 -6 6 -8 -9 -10
leaf_value=-0.055435182616916268 0.033143796968655374 -0.028760436959110482 -0.060719486923936063 -0.042054147869484408 0.055633923741585149 -0.00024513658762913195 0.04373995437356748 -0.011327476381940543 -0.0045101935620876056
leaf_count=127 195 109 28 90 106 127 108 170 71
internal_value=0 -0.123324 0.0671288 0.259725 0.349189 0.179211 0.406843 -0.553632 0.322266
internal_count=1131 865 568 459 431 325 235 297 266
shrinkage=0.05


Tree=93
num_leaves=10
num_cat=0
split_feature=14 15 14 16 13 15 14 16 15
split_gain=3.05256 3.84596 4.29764 5.46805 3.65637 3.08032 4.13427 3.04662 2.65548
threshold=26.920000000000005 -15.315 6.2950000000000008 -2.0949999999999993 2.5000000000000004 -6.3249999999999993 16.710000000000004 0.115 -8.3799999999999972
decision_type=2 2 2 2 2 2 2 2 2
left_child=1 -1 4 5 7 6 -4 -3 -9
right_child=-2 2 3 -5 -6 -7 -8 8 -10
leaf_value=-0.023943960458916651 0.061455940358547873 -0.034400804301256256 -0.057894712310703617 0.045451917900867084 0.021131093193622337 0.020509748220976901 0.030383564270300624 -0.039674349225150896 0.011576860809031033
leaf_count=200 30 199 36 179 115 124 17 70 161
internal_value=0 -0.0308852 0.0838108 0.405852 -0.140129 -0.0387401 -0.567487 -0.324976 -0.00780387
internal_count=1131 1101 901 356 545 177 53 430 231
shrinkage=0.05


Tree=94
num_leaves=10
num_cat=1
split_feature=8 2 15 14 3 15 5 15 7
split_gain=2.88738 3.94252 3.67494 2.85355 2.56024 2.54653 2.42267 2.50853 2.07874
threshold=1.0000000180025095e-35 0 -14.764999999999999 14.485000000000001 29.500000000000004 -3.6749999999999994 333.50000000000006 6.0500000000000007 96.500000000000014
decision_type=2 1 2 2 2 2 2 2 2
left_child=5 2 -2 -3 -5 8 7 -4 -1
right_child=1 3 6 4 -6 -7 -8 -9 -10
leaf_value=-0.020542189272460373 -0.028559154182153303 -0.026222162178183475 -0.019850226302706775 0.058985414844523992 -0.011709096842127831 0.04438089522791052 0.037643547966749673 0.044008667229718475 0.018103586016193256
leaf_count=60 64 422 96 39 25 148 140 32 105
internal_value=0 -0.12055 0.180955 -0.295232 0.258945 0.313117 0.4585 0.00462509 0.105632
internal_count=1131 818 332 486 64 313 268 128 165
cat_boundaries=0 1
cat_threshold=1486102987
shrinkage=0.05


Tree=95
num_leaves=10
num_cat=0
split_feature=14 3 16 7 5 15 15 14 15
split_gain=2.87347 3.56169 3.53915 3.5128 3.40064 3.65266 3.15789 2.80275 2.6485
threshold=26.920000000000005 36.500000000000007 -0.099999999999999992 111.50000000000001 329.50000000000006 -12.199999999999998 -4.4749999999999988 -6.0649999999999986 7.495000000000001
decision_type=2 2 2 2 2 2 2 2 2
left_child=1 2 3 -1 5 -4 -5 8 -7
right_child=-2 -3 4 6 -6 7 -8 -9 -10
leaf_value=-0.026771634227115444 0.061107339634924755 -0.03996717211163256 -0.054134695561402525 -0.020324980733405256 0.027124994273957245 -0.053384744742800021 0.024021816641355723 0.024894325881212501 0.021530048878332375
leaf_count=227 30 117 58 75 237 76 185 110 16
internal_value=0 -0.0298089 0.0332928 -0.202944 0.254293 -0.0825981 0.119509 0.143577 -0.457076
internal_count=1131 1101 984 487 497 260 260 202 92
shrinkage=0.05


Tree=96
num_leaves=10
num_cat=0
split_feature=14 15 16 11 15 14 16 7 16
split_gain=2.77539 4.07914 4.23188 3.89549 3.56101 4.81659 3.10908 2.78414 4.31367
threshold=12.940000000000001 -3.6749999999999994 3.0550000000000002 199.50000000000003 -16.659999999999997 4.6550000000000002 6.8350000000000009 57.500000000000007 -3.0799999999999996
decision_type=2 2 2 2 2 2 2 2 2
left_child=1 2 -1 7 -4 6 -6 -3 -9
right_child=-2 3 4 -5 5 -7 -8 8 -10
leaf_value=-0.03900285406148371 0.015523074684713959 -0.06367203920395352 -0.049534339314016976 0.02818570604584579 -0.046233183385168512 0.058067153556092689 0.031876808507715092 -0.032487004188004064 0.024680127022337725
leaf_count=241 266 23 62 199 60 35 25 85 135
internal_value=0 -0.11919 -0.405492 0.146717 0.0323999 0.325013 -0.297631 -0.189557 -0.0225284
internal_count=1131 865 423 442 182 120 85 243 220
shrinkage=0.05


Tree=97
num_leaves=10
num_cat=2
split_feature=8 15 0 6 2 15 11 5 3
split_gain=2.66791 4.10717 3.6669 3.34546 2.94342 2.59017 3.585 2.17905 2.05757
threshold=2.5000000000000004 10.715000000000002 0 251.50000000000003 1 -9.8199999999999985 199.50000000000003 446.50000000000006 31.500000000000004
decision_type=2 2 1 2 1 2 2 2 2
left_child=1 2 3 -1 8 -6 -7 -2 -4
right_child=7 -3 4 -5 5 6 -8 -9 -10
leaf_value=-0.0013791040266548985 -0.033745149291587583 0.054175056425706726 0.036204465903595891 0.035352913745287415 -0.041844833603294961 -0.039528369380864077 0.012879293402349732 0.013340464803367619 -0.029252409250979119
leaf_count=203 164 127 94 155 146 81 114 32 15
internal_value=0 0.0871183 0.0197601 0.255209 -0.182803 -0.33898 -0.182408 -0.4205 0.216339
internal_count=1131 935 808 358 450 341 195 196 109
cat_boundaries=0 1 2
cat_threshold=846416082 1384121425
shrinkage=0.05


Tree=98
num_leaves=10
num_cat=0
split_feature=16 8 15 14 15 14 16 14 6
split_gain=2.63753 3.11319 2.81795 3.65156 2.94878 4.24186 2.74515 2.77711 2.61028
threshold=4.1750000000000007 1.5000000000000002 9.6050000000000022 -2.3699999999999997 -6.3249999999999993 20.435000000000006 -0.42499999999999993 12.255000000000001 216.50000000000003
decision_type=2 2 2 2 2 2 2 2 2
left_child=1 2 3 -1 5 -5 7 8 -6
right_child=-2 -3 -4 4 6 -7 -8 -9 -10
leaf_value=-0.05050172904652131 0.018809912231055229 -0.020353767526754819 0.053546300262971282 -0.01915829016289531 0.03806849462014756 0.034550581660890638 0.063103437662530001 0.056740208241275972 -0.033320217297726842
leaf_count=68 228 335 102 157 26 45 73 60 37
internal_value=0 -0.0952503 0.0768918 0.00102895 0.105054 -0.124823 0.512543 0.18996 -0.180334
internal_count=1131 903 568 466 398 202 196 123 63
shrinkage=0.05


Tree=99
num_leaves=10
num_cat=0
split_feature=14 15 11 15 11 14 15 16 14
split_gain=2.57283 4.5878 3.77489 4.25388 3.03754 3.04254 3.43673 4.87456 2.54182
threshold=-7.754999999999999 5.495000000000001 199.50000000000003 -5.8849999999999989 357.50000000000006 6.5500000000000016 -16.839999999999996 -2.0449999999999995 16.710000000000004
decision_type=2 2 2 2 2 2 2 2 2
left_child=-1 2 -2 4 5 -4 -7 8 -8
right_child=1 -3 3 -5 -6 6 7 -9 -10
leaf_value=-0.025690631660504615 -0.026669395835204425 0.043251117755681058 -0.040059157097329476 0.031108773153678333 0.024828071152096048 -0.028980141790933257 -0.055300426159241634 0.039988812471842147 0.017591731732837606
leaf_count=192 163 208 130 179 69 68 26 77 19
internal_value=0 0.0704541 -0.0202493 0.108506 -0.0728056 -0.230837 -0.0289581 0.290837 -0.484935
internal_count=1131 939 731 568 389 320 190 122 45
shrinkage=0.05


Tree=100
num_leaves=10
num_cat=0
split_feature=16 14 15 14 16 15 15 16 14
split_gain=2.54232 2.94435 3.75612 2.99062 4.57243 4.62948 3.67148 3.68133 3.0492
threshold=-9.8749999999999982 20.435000000000006 -15.159999999999998 6.2950000000000008 -3.0799999999999996 -6.3249999999999993 -0.55999999999999994 6.8350000000000009 -5.7749999999999995
decision_type=2 2 2 2 2 2 2 2 2
left_child=-1 2 -2 6 5 -5 7 -4 -8
right_child=1 -3 3 4 -6 -7 8 -9 -10
leaf_value=-0.041053297553934567 -0.026717440881528359 0.036079279730544728 -0.033596555921435449 -0.057401040201823156 0.039652592290767133 0.024566620263413524 -0.010211768493545751 0.031992409506186849 0.032827486084460573
leaf_count=35 187 83 227 28 192 78 110 31 160
internal_value=0 0.0446102 -0.0195909 0.0983353 0.413794 -0.226864 -0.0899756 -0.446925 0.236297
internal_count=1131 1096 1013 826 298 106 528 258 270
shrinkage=0.05


Tree=101
num_leaves=10
num_cat=0
split_feature=14 15 14 16 15 15 16 15 14
split_gain=2.47143 3.87762 3.42009 2.59635 4.1954 2.55878 4.05137 3.2964 5.91925
threshold=-17.754999999999999 8.6250000000000018 3.4950000000000006 5.2150000000000007 -12.199999999999998 -21.024999999999995 2.5850000000000004 -6.3249999999999993 14.585000000000003
decision_type=2 2 2 2 2 2 2 2 2
left_child=-1 2 3 -2 -5 -4 7 8 -7
right_child=1 -3 5 4 -6 6 -8 -9 -10
leaf_value=-0.057752079033172858 -0.029039554279623958 0.038997038586096093 -0.026747992285840724 -0.061036195816867381 0.035340230322655951 -0.040540029242742547 0.043639662378520454 0.023947275547962027 0.017905098231660262
leaf_count=45 317 170 56 36 49 92 98 187 81
internal_value=0 0.0316327 -0.0439888 -0.36766 0.201237 0.125798 0.220663 0.0466239 -0.223988
internal_count=1131 1086 916 402 85 514 458 360 173
shrinkage=0.05


Tree=102
num_leaves=10
num_cat=0
split_feature=16 12 6 15 14 14 14 3 11
split_gain=2.5428 3.15763 2.42842 3.22614 2.42455 2.36831 2.16425 2.04502 2.34647
threshold=-4.9899999999999993 109.50000000000001 255.50000000000003 -7.2249999999999988 -17.754999999999999 9.3200000000000021 21.140000000000004 29.500000000000004 215.50000000000003
decision_type=2 2 2 2 2 2 2 2 2
left_child=6 4 -3 5 -2 -4 7 8 -1
right_child=1 2 3 -5 -6 -7 -8 -9 -10
leaf_value=-0.030746830603473857 -0.058641845726359138 -0.021194522114722697 -0.042848148471460096 0.044996475073823254 0.019867692444453786 0.009427181038607263 0.027223113336789742 -0.062931112316777921 0.029842330983537998
leaf_count=84 19 288 62 58 458 64 33 36 29
internal_value=0 0.0954149 -0.137156 0.159605 0.338583 -0.151123 -0.387752 -0.559316 -0.30344
internal_count=1131 949 472 184 477 126 182 149 113
shrinkage=0.05


Tree=103
num_leaves=10
num_cat=1
split_feature=13 0 14 3 16 12 15 16 5
split_gain=2.41756 2.86094 2.58031 3.4054 1.84893 2.12799 1.91356 1.80608 2.36519
threshold=1.5000000000000002 0 5.6450000000000005 19.500000000000004 -1.7999999999999998 96.500000000000014 -18.145 -5.1899999999999986 321.50000000000006
decision_type=2 1 2 2 2 2 2 2 2
left_child=1 -1 -3 -4 -5 -6 -7 -2 -9
right_child=7 2 3 4 5 6 -8 8 -10
leaf_value=0.0062607406202041249 -0.015528125149801848 -0.045399235030337194 0.05576267098160366 -0.042126998918461715 0.0308966752296016 -0.062575000225653793 0.0049084020867311527 0.0018304411597651036 0.03612501734494724
leaf_count=327 74 210 43 51 23 25 24 154 200
internal_value=0 -0.139397 -0.316672 -0.199043 -0.38495 -0.0540302 -0.500954 0.251087 0.380957
internal_count=1131 703 376 166 123 72 49 428 354
cat_boundaries=0 1
cat_threshold=854808776
shrinkage=0.05


Tree=104
num_leaves=10
num_cat=1
split_feature=14 3 1 11 13 3 0 15 4
split_gain=2.38445 3.04702 2.96793 3.36031 2.29508 2.48161 2.03231 1.59504 2.3468
threshold=26.920000000000005 36.500000000000007 1.0000000180025095e-35 339.50000000000006 1.0000000180025095e-35 24.500000000000004 0 -8.5849999999999991 18.500000000000004
decision_type=2 2 2 2 2 2 1 2 2
left_child=1 2 6 4 5 -4 7 -1 -9
right_child=-2 -3 3 -5 -6 -7 -8 8 -10
leaf_value=-0.009988943086371653 0.05986166754967305 -0.038906289353976789 0.0040953826406489357 0.05535088388094498 0.016224620123402742 -0.053951816317930723 -0.015403930694804417 -0.0072212030023745578 0.048531492608775539
leaf_count=70 30 117 70 41 323 59 271 64 86
internal_value=0 -0.027328 0.0335465 0.256099 0.126159 -0.312746 -0.182706 0.130507 0.51605
internal_count=1131 1101 984 493 452 129 491 220 150
cat_boundaries=0 1
cat_threshold=2630303897
shrinkage=0.05


Tree=105
num_leaves=10
num_cat=0
split_feature=3 14 16 15 14 16 15 14 15
split_gain=2.34722 2.78867 2.8913 2.93136 3.37471 2.73973 4.25789 4.66457 3.52997
threshold=11.500000000000002 -5.4949999999999992 5.2150000000000007 5.495000000000001 -1.345 -5.4949999999999983 -4.6549999999999985 9.5150000000000023 -17.294999999999998
decision_type=2 2 2 2 2 2 2 2 2
left_child=-1 -2 3 4 -3 -6 7 -7 -9
right_child=1 2 -4 -5 5 6 -8 8 -10
leaf_value=0.039420016523634784 -0.027999920338463172 -0.058483009070435299 0.028386447480638639 0.042669873198124125 -0.028395091107204236 -0.037243758071927945 0.033436244399569999 -0.018833618394912661 0.030534747566608497
leaf_count=140 231 59 95 90 80 136 143 57 100
internal_value=0 -0.0443786 0.0399172 -0.0594204 -0.128616 -0.0534721 0.0788935 -0.146686 0.190179
internal_count=1131 991 760 665 575 516 436 293 157
shrinkage=0.05


Tree=106
num_leaves=10
num_cat=0
split_feature=14 3 14 16 15 14 15 9 16
split_gain=2.27099 2.7559 3.11939 3.73395 3.54393 3.16103 2.41047 2.76136 2.22284
threshold=26.920000000000005 33.500000000000007 14.585000000000003 4.1750000000000007 -3.6749999999999994 0.58000000000000007 18.420000000000005 21.500000000000004 -7.4049999999999994
decision_type=2 2 2 2 2 2 2 2 2
left_child=1 2 3 4 -1 6 7 -6 -7
right_child=-2 -3 -4 -5 5 8 -8 -9 -10
leaf_value=-0.02961470525442857 0.059463942297044027 -0.027300709273300694 0.028523332901093563 0.022563252392887256 -0.035284795798710349 -0.02402831625996928 0.056615983607835998 0.031977608458952297 0.035277509933905139
leaf_count=224 30 180 158 159 140 22 18 24 176
internal_value=0 -0.0289977 0.0526893 -0.0542228 -0.212377 0.0498286 -0.31146 -0.45972 0.465499
internal_count=1131 1101 921 763 604 380 182 164 198
shrinkage=0.05


Tree=107
num_leaves=10
num_cat=0
split_feature=15 14 16 3 14 14 15 14 12
split_gain=2.24101 4.47029 3.16799 2.68599 2.62877 2.5318 2.36403 3.08173 1.95214
threshold=5.7150000000000007 -5.4949999999999992 -0.099999999999999992 35.500000000000007 21.140000000000004 -15.139999999999999 -14.449999999999998 14.585000000000003 111.50000000000001
decision_type=2 2 2 2 2 2 2 2 2
left_child=1 -1 4 8 6 -2 -3 -8 -4
right_child=5 2 3 -5 -6 -7 7 -9 -10
leaf_value=-0.052326277552426186 -0.028384853034435404 -0.059610268323132799 0.033095354140349066 -0.042130008094693104 0.026079003573147425 0.033870351381867177 -0.022138706970544271 0.030266649277593278 0.0043819795512843795
leaf_count=194 17 49 152 44 49 225 197 48 156
internal_value=0 -0.0792735 0.00352854 0.248487 -0.248013 0.42957 -0.382672 -0.247405 0.342996
internal_count=1131 889 695 352 343 242 294 245 308
shrinkage=0.05


Tree=108
num_leaves=10
num_cat=0
split_feature=16 14 15 14 15 16 15 16 15
split_gain=2.12823 2.50202 4.03062 3.04334 3.65022 2.92898 2.46244 2.38135 3.87168
threshold=-9.8749999999999982 17.120000000000005 -10.469999999999999 0.58000000000000007 5.7150000000000007 5.4000000000000012 -21.024999999999995 1.1050000000000002 1.0000000180025095e-35
decision_type=2 2 2 2 2 2 2 2 2
left_child=-1 2 5 4 -4 -2 -3 8 -5
right_child=1 6 3 7 -6 -7 -8 -9 -10
leaf_value=-0.038737375358497195 -0.041177048780633961 -0.01340988394734797 -0.029845541108077814 -0.0067158258376647604 0.017138395330651653 0.0043367677858366866 0.041576102902933017 0.050017870190927773 0.047715062537277086
leaf_count=35 197 21 204 115 109 83 123 101 143
internal_value=0 0.0416948 -0.0453865 0.13202 -0.183042 -0.481425 0.506039 0.392832 0.199384
internal_count=1131 1096 952 672 313 280 144 359 258
shrinkage=0.05


Tree=109
num_leaves=10
num_cat=0
split_feature=14 15 11 15 14 8 3 14 16
split_gain=2.08728 2.53452 3.1205 2.8896 2.59886 1.74894 1.72516 1.796 3.22922
threshold=26.920000000000005 -15.315 199.50000000000003 5.495000000000001 -12.475 2.5000000000000004 33.500000000000007 18.145000000000007 5.6550000000000011
decision_type=2 2 2 2 2 2 2 2 2
left_child=1 6 3 5 -5 -3 7 8 -1
right_child=-2 2 -4 4 -6 -7 -8 -9 -10
leaf_value=-0.059157278959759307 0.059115054843287662 -0.017778897718363301 0.012835286659614807 -0.037275300916839255 0.030664037607200569 -0.06424328499406684 -0.044755482404550434 0.026135447090347593 0.018124453955879957
leaf_count=50 30 141 537 18 147 58 106 20 24
internal_value=0 -0.0277542 0.0745771 -0.268436 0.23029 -0.602893 -0.421276 -0.140972 -0.472558
internal_count=1131 1101 901 364 165 199 200 94 74
shrinkage=0.05


Tree=110
num_leaves=10
num_cat=0
split_feature=1 11 3 14 15 9 4 16 14
split_gain=2.0697 2.49316 2.81444 2.29979 2.23457 3.2262 2.71051 2.44497 2.55233
threshold=1.0000000180025095e-35 322.50000000000006 24.500000000000004 25.985000000000003 -8.3799999999999972 20.500000000000004 22.500000000000004 -9.7449999999999992 7.2800000000000002
decision_type=2 2 2 2 2 2 2 2 2
left_child=3 2 -2 4 -1 7 -7 -6 -9
right_child=1 -3 -4 -5 5 6 -8 8 -10
leaf_value=-0.027704646669421015 0.014720095051356796 0.03791981932659641 -0.019917373423117439 0.059638104200359976 -0.065108845340539845 0.0072350954574979046 0.077103280698353663 -0.016953592001233555 0.054786388477467723
leaf_count=217 319 77 164 22 16 97 20 146 53
internal_value=0 0.181967 0.04465 -0.178283 -0.23021 -0.00854177 0.528512 -0.333643 -0.114326
internal_count=1131 560 483 571 549 332 117 215 199
shrinkage=0.05


Tree=111
num_leaves=10
num_cat=1
split_feature=16 7 0 3 7 12 14 3 11
split_gain=2.02566 2.36277 2.34604 1.99089 2.89564 2.09177 1.69937 1.77319 2.03366
threshold=-4.9899999999999993 124.50000000000001 0 23.500000000000004 74.500000000000014 140.50000000000003 21.140000000000004 29.500000000000004 215.50000000000003
decision_type=2 2 1 2 2 2 2 2 2
left_child=6 2 3 -2 -5 -6 7 8 -1
right_child=1 -3 -4 4 5 -7 -8 -9 -10
leaf_value=-0.029075647679052338 0.033627884528205747 0.02005370026513812 -0.011974307668951203 -0.048595717284831343 0.035843709110326936 -0.025062529155383779 0.025453073353453877 -0.060594298576438679 0.029104286983899542
leaf_count=84 145 314 329 60 60 41 33 36 29
internal_value=0 0.0879091 -0.060305 0.179649 -0.0311811 0.318875 -0.362959 -0.520243 -0.276006
internal_count=1131 949 635 306 161 101 182 149 113
cat_boundaries=0 1
cat_threshold=1488410654
shrinkage=0.05


Tree=112
num_leaves=10
num_cat=0
split_feature=14 15 14 16 15 14 15 16 15
split_gain=1.98846 3.1026 2.8775 2.57732 2.79176 3.43994 2.93726 2.42019 2.49901
threshold=-17.754999999999999 8.6250000000000018 -5.4949999999999992 -5.4949999999999983 -0.55999999999999994 9.3200000000000021 -16.839999999999996 5.035000000000001 -12.199999999999998
decision_type=2 2 2 2 2 2 2 2 2
left_child=-1 2 -2 -4 5 7 -7 -5 -9
right_child=1 -3 3 4 -6 6 -8 8 -10
leaf_value=-0.056631727895216005 -0.038461914802774277 0.03705393245389485 -0.02335678232038094 -0.025898242071600876 0.038010381819973592 -0.0054532750632892181 0.035443758878943264 -0.02135286075510387 0.046158626988238062
leaf_count=45 173 170 99 216 143 79 144 34 28
