tree
version=v2
num_class=1
num_tree_per_iteration=1
label_index=0
max_feature_idx=16
objective=regression
feature_names=Team Home Opp_Name Opp OFF1stD OFFTotYd OFFPassY OFFRushY TOOFF DEF1stD DEFTotYd DEFPassY DEFRushY TODEF OffenseEP DefenseEP Sp_TmsEP
feature_infos=7:9:27:31:1:2:4:5:12:18:20:24:26:30:0:8:10:13:14:17:19:21:28 [0:1] 28:22:26:31:17:19:4:6:1:2:5:8:9:12:13:15:18:30 [0:51] [7:33] [139:570] [79:467] [22:246] [0:5] [10:35] [145:576] [70:450] [39:285] [0:5] [-30.050000000000001:33.530000000000001] [-32.32:33.299999999999997] [-17.390000000000001:14.869999999999999]
tree_sizes=1705 1731 1732 1738 1773 1773 1749 1774 1776 1761 1792 1791 1790 1802 1794 1786 1791 1779 1777 1787 1788 1780 1788 1797 1805 1792 1788 1784 1783 1775 1793 1797 1802 1798 1795 1795 1797 1776 1793 1790 1800 1810 1797 1810

Tree=0
num_leaves=22
num_cat=0
split_feature=14 14 14 14 13 13 13 13 14 14 3 15 5 15 3 15 16 13 3 1 14
split_gain=48369.5 9999.6 7681.28 3627.8 2814.5 2063.6 1203.38 1127.33 1044.02 775.324 769.065 624.636 617.102 535.618 488.806 543.047 382.787 336.161 329.409 307.823 288.602
threshold=2.0250000000000004 13.275000000000002 -7.004999999999999 26.245000000000005 1.5000000000000002 2.5000000000000004 2.5000000000000004 2.5000000000000004 7.1350000000000007 19.380000000000006 30.500000000000004 -10.484999999999998 211.00000000000003 -0.48999999999999994 22.500000000000004 4.9400000000000004 2.6550000000000007 2.5000000000000004 32.000000000000007 1.0000000180025095e-35 9.0600000000000005
decision_type=2 2 2 2 2 2 2 2 2 2 2 2 2 2 2 2 2 2 2 2 2
left_child=2 4 7 6 10 11 9 12 17 -3 13 18 -1 16 15 -13 -2 -6 -4 -11 -15
right_child=1 3 5 -5 8 -7 -8 -9 -10 19 -12 14 -14 20 -16 -17 -18 -19 -20 -21 -22
leaf_value=16.789891903225747 22.14632790185879 25.894787763678636 19.23203430338598 31.213524841918261 23.764876342120129 23.823102970930112 29.111410381938935 20.842965095799215 26.748930333347666 26.539283750590553 24.722201570347281 19.871322193697424 18.528632385605444 23.299209388415509 22.394645807888029 21.832745355992692 23.707393722915551 25.521731351110848 20.941322243169278 28.310322161510918 25.169952688136508
leaf_count=43 89 116 33 37 37 57 34 28 74 26 58 40 137 31 68 52 35 33 40 40 23
internal_value=0 5.80053 -7.37296 10.6716 2.55727 -4.0466 9.10395 -12.0104 6.04134 8.08315 0.431186 -5.36603 -12.9289 -0.59903 -4.25939 -5.76242 -1.74398 3.27172 -7.79087 10.8206 2.02919
internal_count=1131 633 498 253 380 290 216 208 144 182 236 233 180 178 160 92 124 70 73 66 54
shrinkage=1


Tree=1
num_leaves=22
num_cat=0
split_feature=14 14 14 13 14 13 15 3 16 13 14 3 14 7 4 3 8 14 13 14 12
split_gain=18130.9 4439.42 1717.38 1399.09 1305.64 957.235 725.644 713.712 512.672 475.985 450.161 418.231 394.839 394.424 323.466 284.442 275.412 273.219 248.822 216.124 203.912
threshold=1.0000000180025095e-35 13.275000000000002 -8.6949999999999985 1.0000000180025095e-35 26.245000000000005 1.5000000000000002 12.440000000000003 33.500000000000007 4.8550000000000013 1.0000000180025095e-35 -18.404999999999998 13.500000000000002 19.380000000000006 123.50000000000001 20.500000000000004 32.000000000000007 1.5000000000000002 6.080000000000001 2.5000000000000004 7.1350000000000007 148.50000000000003
decision_type=2 2 2 2 2 2 2 2 2 2 2 2 2 2 2 2 2 2 2 2 2
left_child=2 3 10 13 9 14 7 8 11 15 -1 -5 -11 19 -4 -3 -12 -13 -7 -2 -19
right_child=1 4 5 6 -6 18 -8 -9 -10 12 16 17 -14 -15 -16 -17 -18 20 -20 -21 -22
leaf_value=-4.1976494262332009 -1.6746846739918579 0.63855685181734045 -2.4957283284080529 -1.121008833032666 4.7572926825446054 -1.0043882470817889 2.4625825419028597 2.3041794464462679 1.6739525501992967 2.1394610974249932 -3.4338294046532876 -0.12280791348218918 3.5375875895074076 0.3070237351523506 -1.1025159660706649 2.3733983965714773 -2.2566098541932949 1.1809676924928441 0.26914764810176123 -0.34764999743551017 -0.17559664321982341
leaf_count=42 51 41 96 33 37 59 42 38 45 104 51 80 47 45 37 24 85 77 42 32 23
internal_value=0 3.0309 -5.28918 1.19987 6.40329 -3.5081 2.26622 1.71406 1.11788 5.46265 -7.63031 0.469693 6.43693 -1.61558 -5.27073 3.19855 -6.74554 1.06988 -1.1865 -2.90824 2.17189
internal_count=1131 719 412 466 253 234 338 296 258 216 178 213 151 128 133 65 136 180 101 83 100
shrinkage=0.4


Tree=2
num_leaves=22
num_cat=0
split_feature=14 14 14 13 15 16 13 15 13 3 5 6 14 16 16 5 15 5 5 15 12
split_gain=6997.3 1267.35 1196.55 896.966 692.456 536.103 529.368 491.575 421.17 346.979 344.823 334.777 256.497 530.373 234.804 234.617 264.248 217.735 204.124 202.659 190.784
threshold=3.8700000000000006 -4.9549999999999992 19.380000000000006 1.5000000000000002 12.440000000000003 -0.17499999999999996 1.5000000000000002 -10.484999999999998 1.5000000000000002 17.500000000000004 260.50000000000006 342.00000000000006 9.0600000000000005 1.0000000180025095e-35 3.4150000000000005 330.50000000000006 -0.48999999999999994 300.50000000000006 322.00000000000006 3.1350000000000002 148.50000000000003
decision_type=2 2 2 2 2 2 2 2 2 2 2 2 2 2 2 2 2 2 2 2 2
left_child=1 6 3 11 9 -3 10 -7 -4 19 20 12 -2 -14 18 16 -9 -8 -12 -5 -1
right_child=2 5 8 4 -6 7 17 15 -10 -11 14 -13 13 -15 -16 -17 -18 -19 -20 -21 -22
leaf_value=-3.1062823647260664 -0.40691657674140658 -0.99599426838116989 1.6325423493245979 -0.61832355193793775 3.2216667900766645 -0.90214725403224727 -1.2795048859080331 -0.62504362498560262 3.3239262203609243 1.5143344715579103 -2.6964460478290437 1.2453504977407661 -0.2615552803798567 1.3084210756665371 -0.70985478573375282 1.6098296128852028 0.96798529240820153 0.067167556669030876 -1.1013277966325934 0.9296707404813459 -1.8962432644707814
leaf_count=52 104 140 77 24 28 51 61 31 34 96 31 46 79 61 36 28 36 28 22 31 35
internal_value=0 -2.55191 2.4244 1.72548 3.48579 -1.0918 -4.12753 0.248576 5.37701 2.63835 -5.1328 0.638773 0.172044 1.05591 -3.74758 1.59332 0.576534 -2.13902 -5.08675 0.634547 -6.54929
internal_count=1131 551 580 469 179 286 265 146 111 151 176 290 244 140 89 95 67 89 53 55 87
shrinkage=0.4


Tree=3
num_leaves=22
num_cat=0
split_feature=14 3 14 15 13 3 16 15 3 15 3 3 16 16 15 8 5 14 16 16 16
split_gain=2731.25 850.601 685.52 640.944 469.797 370.946 356.384 339.325 536.369 311.716 288.811 276.652 264.694 227.395 222.789 219.908 193.076 178.264 175.46 165.989 160.487
threshold=7.1350000000000007 39.500000000000007 -3.4149999999999996 3.1350000000000002 3.5000000000000004 13.500000000000002 0.17500000000000002 -2.0249999999999995 23.500000000000004 -0.48999999999999994 24.500000000000004 28.500000000000004 4.8550000000000013 1.6800000000000004 11.500000000000002 1.5000000000000002 356.00000000000006 16.825000000000006 1.6800000000000004 -1.1849999999999998 -1.4099999999999997
decision_type=2 2 2 2 2 2 2 2 2 2 2 2 2 2 2 2 2 2 2 2 2
left_child=2 3 7 13 5 -4 -5 10 12 11 -1 19 14 17 -9 -13 -15 -2 -17 -7 -11
right_child=1 -3 4 6 -6 9 -8 8 -10 20 -12 15 -14 16 -16 18 -18 -19 -20 -21 -22
leaf_value=-2.4125516927943509 -0.1684782561681889 3.0161741997718812 -1.2234913830106908 1.096382448869593 1.5242362522006037 -1.5363807643228962 2.903612778078426 -1.7387927321862364 0.78498822769603216 0.057179646273938622 -1.0886105892810403 -0.62717761899485736 0.20872643411159514 -0.011106736063957214 -0.39902621146043143 0.060591594744473704 1.2417236997141983 0.53210288355163493 1.4920250430206459 -0.46101551983798494 1.2151144635015065
leaf_count=34 135 25 55 85 25 31 22 59 37 41 118 33 24 28 30 32 66 102 24 89 36
internal_value=0 1.86657 -1.29376 1.54261 -0.373396 -0.680286 3.67037 -2.40901 -1.34143 -0.222719 -3.46222 -0.856549 -2.42368 0.854628 -3.21853 0.478951 2.17082 0.332383 1.68605 -1.84746 1.49703
internal_count=1131 463 668 438 366 341 107 302 150 286 152 209 113 331 89 89 94 237 56 120 77
shrinkage=0.4


Tree=4
num_leaves=22
num_cat=1
split_feature=5 3 14 14 13 15 16 16 15 3 0 7 14 16 16 15 3 4 4 3 15
split_gain=1024.4 571.143 354.382 349.543 363.919 330.823 291.78 285.879 254.415 274.866 196.809 171.654 162.305 154.462 137.075 128.761 196.113 128.377 127.688 125.308 123.916
threshold=365.50000000000006 39.500000000000007 26.245000000000005 -15.934999999999997 3.5000000000000004 11.500000000000002 8.5900000000000016 -8.2549999999999972 -13.334999999999999 26.500000000000004 0 81.500000000000014 -1.5199999999999998 -1.4099999999999997 -4.6499999999999995 -15.999999999999998 17.500000000000004 16.500000000000004 22.500000000000004 32.000000000000007 -3.1049999999999995
decision_type=2 2 2 2 2 2 2 2 2 2 5 2 2 2 2 2 2 2 2 2 2
left_child=3 2 5 11 6 7 8 -2 17 12 -9 -1 -10 -11 -14 -12 -17 -5 -7 -19 -16
right_child=1 -3 -4 4 -6 18 -8 10 9 13 15 -13 14 -15 20 16 -18 19 -20 -21 -22
leaf_value=-1.7179926006968427 -1.2196083609580994 2.084123556613922 1.5571546482338625 -1.6322644039175724 0.90606681254578803 0.52912112293420022 0.83711953792721039 -0.25745907375019444 -0.76104206584448364 -0.47940389923427418 -0.21165832042694094 -0.40298946151366605 -1.0814477745087252 0.74824734139860727 -0.50331744625351649 -0.14814051552622948 0.74363980252586015 -1.1784526035715552 1.760679889784919 -0.045881989659934209 0.2587459794216686
leaf_count=41 25 31 34 33 41 27 32 111 137 23 48 26 23 57 55 53 154 34 27 29 90
internal_value=0 1.05021 0.78087 -0.862436 -0.601416 0.542985 -0.830616 0.222422 -1.02521 -0.661867 0.446017 -3.01998 -1.09468 0.987619 -0.435545 0.910089 1.28803 -2.48184 2.86318 -1.64357 -0.0754366
internal_count=1131 510 479 621 554 445 513 391 481 385 366 67 305 80 168 255 207 96 54 63 145
cat_boundaries=0 1
cat_threshold=218632229
shrinkage=0.4


Tree=5
num_leaves=22
num_cat=1
split_feature=14 0 16 15 13 3 15 16 3 15 14 15 3 3 15 15 16 3 9 14 14
split_gain=560.871 322.708 300.57 295.948 283.932 250.147 291.182 243.176 200.58 183.552 160.663 151.371 205.709 123.203 260.704 185.322 182.793 169.05 119.709 115.332 86.7621
threshold=9.0600000000000005 0 7.2750000000000012 16.850000000000005 2.5000000000000004 17.500000000000004 -11.034999999999998 -2.7849999999999997 33.500000000000007 5.955000000000001 -11.519999999999998 -9.6549999999999976 17.500000000000004 26.500000000000004 -3.1049999999999995 -17.479999999999997 -1.4099999999999997 15.500000000000002 17.500000000000004 -1.5199999999999998 -2.5749999999999997
decision_type=2 5 2 2 2 2 2 2 2 2 2 2 2 2 2 2 2 2 2 2 2
left_child=1 7 3 5 13 9 -7 20 -8 -3 -9 -12 -13 14 -2 -15 -17 -16 -19 -11 -1
right_child=4 2 -4 -5 -6 6 8 10 -10 19 11 12 -14 15 17 16 -18 18 -20 -21 -22
leaf_value=-1.9411056157817013 -0.49413185906618146 -1.243793018702066 0.98459165838631724 1.1005475848515829 1.1455635521549445 -0.61285744984602109 0.11954081132345731 -1.0610981991074302 1.3741896564027538 -0.741580334186554 -0.70990430815178052 -0.53693238743515914 0.64045826385606019 0.067115653425874847 0.011387449176538559 0.49069469124771836 1.851776290369034 0.34522224388339301 1.638367489675681 0.31761548476834456 -0.89875712493370319
leaf_count=23 86 53 44 30 65 87 180 44 23 35 57 43 53 71 63 43 25 22 24 31 29
internal_value=0 -0.522243 -0.0295471 -0.280004 0.951497 -0.502476 -0.00133526 -1.41956 0.654479 -1.72332 -0.968486 -0.483797 0.282193 0.579171 0.0661254 1.29855 2.47847 1.09342 2.55085 -0.609441 -3.40045
internal_count=1131 732 483 439 399 409 290 249 203 119 197 153 96 334 195 139 68 109 46 66 52
cat_boundaries=0 1
cat_threshold=2166371110
shrinkage=0.4


Tree=6
num_leaves=22
num_cat=0
split_feature=14 3 15 3 3 15 10 5 14 15 15 16 16 3 14 4 9 15 16 3 14
split_gain=285.013 217.166 265.478 288.985 256.116 234.646 178.039 192.544 171.305 165.842 163.43 204.255 149.179 132.11 123.237 134.401 116.22 111.446 117.84 89.8538 117.099
threshold=29.330000000000002 43.500000000000007 -3.1049999999999995 15.500000000000002 24.500000000000004 9.3700000000000028 306.50000000000006 322.00000000000006 -0.16999999999999996 -8.5549999999999979 20.535000000000004 3.4150000000000005 -5.7499999999999991 23.500000000000004 9.0600000000000005 24.500000000000004 21.500000000000004 -23.299999999999994 3.4150000000000005 17.500000000000004 3.8700000000000006
decision_type=2 2 2 2 2 2 2 2 2 2 2 2 2 2 2 2 2 2 2 2 2
left_child=1 2 4 10 19 6 12 -8 -6 17 11 14 -5 -14 -4 -16 -11 -10 -19 -1 -21
right_child=-2 -3 3 5 8 -7 7 -9 9 16 -12 -13 13 -15 15 -17 -18 18 -20 20 -22
leaf_value=-1.2106275485328268 1.4251283084262503 1.0709765712703978 -0.83833868594964356 -0.93504952828089394 -0.43726797521231681 1.2925001304760211 0.13367215706408025 1.0531825558730026 -0.74775817842319103 0.20950231547156972 0.69914930607591363 0.52079346085588141 -0.14779307174496353 0.98830912026492046 0.41368141664777486 -0.76195929046188082 1.4834284643693405 -0.11042615742027762 0.61097545630207251 -0.99077477034984851 -0.24430711527815974
leaf_count=35 22 28 90 27 127 41 80 67 29 24 28 36 64 22 35 28 22 125 51 51 99
internal_value=0 -0.0720314 -0.143294 0.373289 -0.618676 1.00754 0.65668 1.38226 -0.14668 0.332022 -0.506241 -0.840449 -0.286776 0.356513 -1.34488 -0.27127 2.04802 -0.0527867 0.246257 -1.58281 -1.2456
internal_count=1131 1109 1081 518 563 301 260 147 378 251 217 189 113 86 153 63 46 205 176 185 150
shrinkage=0.4


Tree=7
num_leaves=22
num_cat=1
split_feature=14 2 16 15 5 14 3 15 11 3 15 3 4 15 14 3 16 15 3 6 3
split_gain=219.747 165.64 160.872 179.678 180.375 133.314 104.109 187.499 95.203 90.5702 138.881 124.565 115.668 83.3624 115.592 73.9787 59.8218 55.481 102.781 61.1756 49.3686
threshold=-18.404999999999998 0 -2.0999999999999992 12.440000000000003 475.00000000000006 21.545000000000005 11.000000000000002 3.1350000000000002 199.50000000000003 15.500000000000002 -8.5549999999999979 27.500000000000004 21.500000000000004 -15.999999999999998 14.325000000000001 27.500000000000004 3.4150000000000005 -14.374999999999998 24.500000000000004 213.50000000000003 32.000000000000007
decision_type=2 5 2 2 2 2 2 2 2 2 2 2 2 2 2 2 2 2 2 2 2
left_child=-1 8 5 4 9 6 -3 -8 -2 12 11 16 -4 14 -13 -12 -11 -10 19 -19 -15
right_child=1 2 3 -5 -6 -7 7 -9 17 10 15 13 -14 20 -16 -17 -18 18 -20 -21 -22
leaf_value=-0.89810439018976129 -0.71801866201559705 -0.80074224275211958 -0.61628648928724816 1.0518665237426759 1.1812074318638555 0.55224629309773454 -0.39926274003326029 0.37656432166122478 -0.43318586799715253 -0.78620715186744938 0.33458236848050271 -0.32365913603626772 0.46066732038622321 0.23988326300834789 0.71966908724411682 1.1075321381200445 -0.079874067660924558 0.23703621251427609 0.61059891033172609 -0.61231700882767193 1.0257873009857925
leaf_count=42 60 43 52 40 27 40 138 78 56 40 202 65 23 29 23 22 37 23 35 33 23
internal_value=0 0.0858039 0.274998 0.583995 0.433209 -0.31813 -0.580677 -0.297526 -0.699576 0.301262 0.474104 -0.0958451 -0.714385 0.46579 -0.12686 1.02647 -1.11765 -0.299695 0.181767 -0.657796 1.4697
internal_count=1131 1089 882 583 543 299 259 216 207 516 441 217 75 140 88 224 77 147 91 56 52
cat_boundaries=0 1
cat_threshold=2151845920
shrinkage=0.4


Tree=8
num_leaves=22
num_cat=2
split_feature=14 0 3 16 2 15 14 16 3 15 10 3 16 3 7 15 7 16 10 14 8
split_gain=156.391 136.414 180.153 115.726 113.063 130.249 105.738 103.599 86.9235 215.119 80.865 78.6383 77.2328 75.2763 69.4124 55.7535 52.2022 50.2216 56.6086 56.1921 47.7477
threshold=-6.3099999999999996 0 39.500000000000007 -5.7499999999999991 1 -8.5549999999999979 21.545000000000005 4.6550000000000002 7.5000000000000009 12.440000000000003 370.50000000000006 24.500000000000004 7.2750000000000012 19.500000000000004 119.00000000000001 1.0000000180025095e-35 61.000000000000007 1.0600000000000003 347.00000000000006 -11.519999999999998 2.5000000000000004
decision_type=2 5 2 2 5 2 2 2 2 2 2 2 2 2 2 2 2 2 2 2 2
left_child=12 3 4 -2 10 11 7 8 -7 13 -3 -6 16 -10 -5 -15 20 19 -19 -18 -1
right_child=1 2 -4 14 5 6 -8 -9 9 -11 -12 -13 -14 15 -16 -17 17 18 -20 -21 -22
leaf_value=-1.1385582407236101 -0.93411512072881075 -0.59609458218195621 1.1762640080628572 -0.2970433448425947 -0.57927715454995643 -0.38964229222706392 1.1259147076129914 0.96009352929890168 -0.073072414363557395 1.2550849446654322 0.0963422434605085 0.05865489327403553 0.27756474182009699 0.2209926409507641 0.19175560928697205 0.84396492785215382 -0.89825514569427034 0.27024138490601285 -0.42776009664816023 -0.18823559186588495 -0.32896639624779878
leaf_count=25 30 56 27 109 40 35 25 32 121 32 52 136 32 99 81 30 33 41 34 39 22
internal_value=0 0.185404 0.402896 -0.487706 0.30481 0.48481 0.827484 0.684983 0.511677 0.69626 -0.600667 -0.21554 -0.744543 0.383555 -0.221388 0.915062 -0.982072 -0.688224 -0.114798 -1.28485 -1.90006
internal_count=1131 905 685 220 658 550 374 349 317 282 108 176 226 250 190 129 194 147 75 72 47
cat_boundaries=0 1 2
cat_threshold=2166367521 2214625572
shrinkage=0.4


Tree=9
num_leaves=22
num_cat=0
split_feature=14 16 5 15 3 9 3 15 12 15 4 14 16 15 11 3 7 11 7 10 14
split_gain=83.2128 119.716 105.041 83.9917 138.011 77.8587 76.7491 140.611 71.5153 67.6954 64.904 67.0416 61.1567 68.2887 55.2773 55.2527 55.0952 60.394 54.0792 51.4315 48.5284
threshold=11.265000000000002 0.69500000000000017 418.50000000000006 -13.334999999999999 33.500000000000007 21.500000000000004 7.5000000000000009 5.955000000000001 114.00000000000001 -5.2749999999999995 15.500000000000002 -4.9549999999999992 -4.6499999999999995 -5.2749999999999995 370.50000000000006 22.500000000000004 157.00000000000003 191.50000000000003 61.000000000000007 300.00000000000006 1.0000000180025095e-35
decision_type=2 2 2 2 2 2 2 2 2 2 2 2 2 2 2 2 2 2 2 2 2
left_child=1 3 5 -1 6 8 -5 15 9 -3 11 -7 -2 14 -14 -8 17 20 -12 -11 -9
right_child=12 2 -4 4 -6 10 7 16 -10 19 18 -13 13 -15 -16 -17 -18 -19 -20 -21 -22
leaf_value=-0.7567792093186152 -0.091237847264280025 -0.60813478496941664 0.79365847914449639 -0.92227666174372036 0.66250184273719803 -0.72625057954737482 -0.60950489796359431 -0.20217678619969273 0.54032938330717717 -0.094578943893961279 0.55378314394950878 0.10647434739314993 0.01617432410766681 0.590750091197208 0.69330073123392866 -0.19259958163242452 -0.34246104503455371 0.89071306308110554 -0.09961241505552676 0.54856878737040937 0.5466019366241992
leaf_count=42 97 22 31 24 30 47 88 31 69 46 25 23 120 78 23 121 23 24 107 35 25
internal_value=0 -0.169894 0.215171 -0.55225 -0.398378 0.0684106 -0.581976 -0.449222 0.56298 0.0347163 -0.352461 -1.13089 0.433453 0.724042 0.313057 -0.920586 0.506749 0.899209 0.0599631 0.457694 0.329356
internal_count=1131 813 405 408 366 374 336 312 172 103 202 70 318 221 143 209 103 80 132 81 56
shrinkage=0.4


Tree=10
num_leaves=22
num_cat=1
split_feature=0 16 15 3 15 15 16 4 14 3 3 7 5 14 12 14 15 1 10 7 12
split_gain=65.2682 93.2588 74.2389 72.2548 144.777 72.328 101.931 67.6489 62.2388 67.8986 51.6606 51.617 46.5645 44.6043 44.5415 42.8158 53.4506 42.1319 55.649 40.7941 39.4725
threshold=0 -2.0999999999999992 16.850000000000005 33.500000000000007 -17.479999999999997 -10.484999999999998 7.2750000000000012 22.500000000000004 -10.144999999999998 22.500000000000004 23.500000000000004 209.00000000000003 365.50000000000006 3.8700000000000006 57.500000000000007 11.265000000000002 -3.1049999999999995 1.0000000180025095e-35 256.50000000000006 123.50000000000001 148.50000000000003
decision_type=5 2 2 2 2 2 2 2 2 2 2 2 2 2 2 2 2 2 2 2 2
left_child=1 20 3 5 -5 10 8 -6 -7 11 -2 14 -11 -12 -10 16 -14 19 -19 -16 -1
right_child=2 -3 -4 4 7 6 -8 -9 9 12 13 -13 15 -15 17 -17 -18 18 -20 -21 -22
leaf_value=-0.64048483693599711 -0.82419308833453975 -0.011635626957213064 0.59254512280970817 -0.10102017720991914 0.37734387105878664 -0.39436780187266846 0.87221399151760604 1.226598208822586 -0.54216204334707829 0.54157563313605295 -0.57826989212343782 0.41561401193792175 -0.49884731508534536 -0.017491918174659504 -0.024831846468782025 0.45049724854528911 0.31742500644663108 0.64493776400089275 -0.031147022599523719 -0.54465697252168899 -0.07768856751067299
leaf_count=70 23 223 40 66 34 54 23 27 34 63 31 33 29 85 59 32 23 25 88 41 28
internal_value=0 -0.374954 0.151144 0.0839402 0.773238 -0.0521265 0.123922 1.88393 0.0254769 0.153499 -0.690821 -0.135284 0.703901 -0.418819 -0.292379 0.215777 -0.343548 -0.122459 0.295631 -0.5954 -1.19972
internal_count=1131 321 810 770 127 643 504 61 481 427 139 280 147 116 247 84 52 213 113 100 98
cat_boundaries=0 1
cat_threshold=2166629411
shrinkage=0.4


Tree=11
num_leaves=22
num_cat=2
split_feature=3 15 16 14 3 16 14 0 3 5 16 15 6 13 2 3 16 12 11 11 14
split_gain=63.0657 108.464 75.8295 72.2275 87.8271 87.0699 65.1537 64.0275 98.4839 123.055 65.7543 65.2643 51.2681 47.5897 45.3576 34.6369 41.8887 34.4693 34.4657 27.7219 27.5845
threshold=7.5000000000000009 4.9400000000000004 -6.8449999999999998 14.325000000000001 20.500000000000004 -0.17499999999999996 -3.4149999999999996 0 39.500000000000007 315.50000000000006 8.5900000000000016 -21.209999999999997 241.50000000000003 2.5000000000000004 1 22.500000000000004 -2.7849999999999997 114.00000000000001 259.00000000000006 155.00000000000003 5.2400000000000011
decision_type=2 2 2 2 2 2 2 5 2 2 2 2 2 2 5 2 2 2 2 2 2
left_child=12 2 18 4 5 19 -7 20 10 -10 11 -9 -1 14 -13 -16 -17 -15 -2 -3 -4
right_child=1 3 7 -5 -6 6 -8 8 9 -11 -12 13 -14 17 15 16 -18 -19 -20 -21 -22
leaf_value=-0.63009183736010044 -0.67695399672519874 0.14512128293514251 -0.30927637675935915 0.92545265815854083 0.8766909144933408 0.011360944461822509 0.89334590482300735 -0.54761128948015336 -0.039416439370675523 1.2829724760288779 0.63987116413620804 -0.14285709675370148 0.096030970985690758 -0.0065329460744504575 -0.028372151031400318 -0.07634270396717685 0.35574821818397928 -0.64644962577908138 -0.055306976708498871 -0.30838669178917288 -0.026700257904750786
leaf_count=44 41 33 129 25 26 25 29 34 22 23 26 109 24 27 108 47 151 27 22 62 97
internal_value=0 0.0595629 -0.0941605 0.72313 0.495629 0.19933 1.21347 -0.0109136 0.166927 1.59007 0.0489273 -0.0311313 -0.933798 0.0657524 0.180757 0.372039 0.6327 -0.817154 -1.15047 -0.376605 -0.450282
internal_count=1131 1063 863 200 175 149 54 800 574 45 529 503 68 469 415 306 198 54 63 95 226
cat_boundaries=0 1 2
cat_threshold=85206788 2416186146
shrinkage=0.4


Tree=12
num_leaves=22
num_cat=2
split_feature=15 3 14 15 15 3 14 16 15 3 0 3 14 6 15 2 15 16 14 13 15
split_gain=58.9614 89.3067 67.8857 46.601 45.3511 73.4473 53.5891 53.2159 51.5578 55.2704 51.0963 56.6332 34.6421 42.9266 38.8079 34.411 64.646 31.0189 36.0347 27.6352 27.7908
threshold=-25.984999999999996 39.500000000000007 -15.934999999999997 1.0000000180025095e-35 20.535000000000004 11.000000000000002 16.825000000000006 1.9400000000000002 1.0400000000000003 23.500000000000004 0 17.500000000000004 13.275000000000002 182.50000000000003 7.535000000000001 1 -5.2749999999999995 5.8400000000000007 3.8700000000000006 1.5000000000000002 -14.374999999999998
decision_type=2 2 2 2 2 2 2 2 2 2 5 2 2 2 2 5 2 2 2 2 2
left_child=-1 2 3 -2 5 6 7 -4 10 12 -7 -12 13 -10 -15 16 -13 18 -17 20 -20
right_child=1 -3 4 -5 -6 8 -8 -9 9 -11 11 15 -14 14 -16 17 -18 -19 19 -21 -22
leaf_value=-0.48384368982070536 -0.82814186222278163 0.60332768263109038 -0.66039342342796981 -0.083575817900044591 0.5198970323801041 0.1490556299612629 0.26007652165537531 -0.019119341773912311 0.31633062646422588 0.78535745132714518 -0.50133404989649233 -0.43748462500540841 0.61330416034568458 -0.30118993385084747 0.21079858613014221 -0.19911377143456926 0.29285778146523694 0.46847243279218675 -0.054198210252956916 -0.17026572190051856 0.34035280275492025
leaf_count=39 26 40 59 28 28 202 22 32 71 24 48 76 22 58 40 98 26 24 44 43 81
internal_value=0 0.0417184 -0.0139984 -1.1061 0.0450433 0.00877364 -0.748968 -1.08778 0.108744 0.532601 -0.0331236 -0.222922 0.352554 0.198556 -0.230027 -0.102308 -0.571753 0.0796052 -0.0157023 0.265215 0.503277
internal_count=1131 1092 1052 54 998 970 113 91 857 215 642 440 191 169 98 392 102 290 266 168 125
cat_boundaries=0 1 2
cat_threshold=2165985426 438290
shrinkage=0.4


Tree=13
num_leaves=22
num_cat=1
split_feature=4 12 15 3 8 3 16 5 0 15 16 4 11 7 14 11 8 16 9 12 16
split_gain=32.3552 44.8237 34.1961 67.8975 58.4398 59.8389 48.4693 48.4193 46.7086 55.9432 49.0904 47.9751 42.6427 42.1147 41.8757 40.7661 37.5302 37.7267 35.6486 27.5356 24.1873
threshold=29.500000000000004 93.500000000000014 -17.479999999999997 39.500000000000007 3.5000000000000004 26.500000000000004 5.8400000000000007 418.50000000000006 0 20.535000000000004 8.5900000000000016 17.500000000000004 326.50000000000006 130.50000000000003 -1.5199999999999998 194.00000000000003 1.0000000180025095e-35 -3.5199999999999996 17.500000000000004 108.00000000000001 -2.7849999999999997
decision_type=2 2 2 2 2 2 2 2 5 2 2 2 2 2 2 2 2 2 2 2 2
left_child=2 -2 6 4 7 -6 12 8 11 10 14 -4 -1 15 18 -9 -15 -18 19 -10 -16
right_child=1 -3 3 -5 5 -7 -8 13 9 -11 -12 -13 -14 16 20 -17 17 -19 -20 -21 -22
leaf_value=-0.16105896154388055 0.74179688022895307 -0.033282943597206703 0.11824719752439045 0.70704555208032793 -0.81343032990183151 0.0056963405578300879 0.17050684374112349 0.50750029853799128 -0.51875673760260854 0.73628428451039585 0.60331560560635167 -0.43961597732135238 -0.72610193771846376 -0.0062387810647487642 -0.012084600958868723 -0.1457930273771286 -0.85957119937737803 -0.21860783632973144 0.033221272721209304 0.0042664980773742386 0.21641893107413002
leaf_count=61 22 26 44 22 28 29 39 22 42 22 28 56 33 32 107 50 30 29 143 26 240
internal_value=0 0.803863 -0.0351485 0.0312891 -0.00981991 -0.990827 -0.510079 0.0543218 0.167503 0.270438 0.216016 -0.44081 -0.899095 -0.436979 0.151081 0.133866 -0.889187 -1.36215 -0.200074 -0.796208 0.364751
internal_count=1131 48 1083 950 928 57 133 871 708 608 586 100 94 163 558 72 91 59 211 68 347
cat_boundaries=0 1
cat_threshold=2147501344
shrinkage=0.4


Tree=14
num_leaves=22
num_cat=1
split_feature=3 10 7 4 15 3 14 3 15 16 14 15 14 16 7 9 11 6 14 0 16
split_gain=28.0372 54.8944 40.8747 41.5688 38.7476 53.5405 40.7333 47.9549 48.2159 34.9331 43.4479 48.6293 33.301 29.3632 26.3054 25.3048 27.3317 24.1947 27.7291 26.9954 29.3834
threshold=11.000000000000002 300.00000000000006 135.50000000000003 17.500000000000004 1.0400000000000003 24.500000000000004 -18.404999999999998 30.500000000000004 -10.484999999999998 -2.0999999999999992 16.825000000000006 -15.999999999999998 13.275000000000002 -3.5199999999999996 110.00000000000001 28.500000000000004 253.00000000000003 342.00000000000006 -11.519999999999998 0 0.35500000000000004
decision_type=2 2 2 2 2 2 2 2 2 2 2 2 2 2 2 2 2 2 2 5 2
left_child=1 2 3 -1 6 12 -2 17 9 14 11 15 -6 -4 -9 16 -11 18 -8 20 -20
right_child=4 -3 13 -5 5 -7 7 8 -10 10 -12 -13 -14 -15 -16 -17 -18 -19 19 -21 -22
leaf_value=0.58823955103754999 -0.51328015294928964 -0.64710755970080702 -0.65596603203903558 -0.080486948184477991 0.040283553705314279 0.68271832525730147 -0.48665057422085245 -0.5638840400495313 0.53544472078724614 0.12863631313356261 0.63218681187629711 0.42884000141918666 0.5496459988277892 -0.021486579132080078 0.047190505732660711 0.24968925590515134 -0.3954874539375306 -0.36071318298070271 -0.063506396545895502 -0.08899006170269852 0.34076580974636445
leaf_count=24 26 30 22 39 193 28 22 22 41 24 25 40 23 25 23 25 47 44 56 293 59
internal_value=0 -0.418623 -0.0911286 0.434871 0.059454 0.405458 -0.0534977 -0.00908401 0.348108 0.150726 0.368631 0.1455 0.236535 -0.797256 -0.627782 -0.240063 -0.545093 -0.195321 -0.122916 -0.0638184 0.330576
internal_count=1131 140 110 63 991 244 747 721 247 206 161 136 216 47 45 96 71 474 430 408 115
cat_boundaries=0 1
cat_threshold=151670916
shrinkage=0.4


Tree=15
num_leaves=22
num_cat=2
split_feature=3 8 2 16 3 15 0 10 9 14 11 12 3 12 16 15 14 13 5 5 12
split_gain=23.9619 25.5569 24.4831 42.1365 35.7955 34.7113 34.8741 34.0005 33.138 30.8796 42.2649 32.3717 26.4825 24.3123 23.3012 32.5636 38.2426 36.3057 32.8779 29.9642 28.3533
threshold=43.500000000000007 3.5000000000000004 0 5.8400000000000007 26.500000000000004 -20.029999999999998 1 273.00000000000006 21.500000000000004 6.080000000000001 205.50000000000003 108.00000000000001 23.500000000000004 148.50000000000003 -6.8449999999999998 -3.1049999999999995 8.0900000000000016 1.0000000180025095e-35 356.00000000000006 260.50000000000006 101.50000000000001
decision_type=2 2 5 2 2 2 5 2 2 2 2 2 2 2 2 2 2 2 2 2 2
left_child=1 2 9 5 8 -4 7 -7 -5 11 -11 -1 -12 -9 20 16 18 -17 -16 -19 -8
right_child=-2 -3 3 4 -6 6 14 13 -10 10 12 -13 -14 -15 15 17 -18 19 -20 -21 -22
leaf_value=-0.43998438248410826 0.36517548504285519 -0.25087975532719586 -0.39209232362833896 0.43137681403197353 0.60145767521465565 -0.63007582197135159 0.048790210711045404 -0.22038828094666504 -0.20894547292164392 0.54713103521953932 -0.3271344352788047 -0.051150058344812004 0.10233321848100629 0.2333097704393523 -0.022335780530601094 0.56866648566391731 0.17450643443972758 0.48794538677641841 -0.46083981773792176 0.075096593953009397 -0.52716457621617752
leaf_count=64 28 66 33 24 37 22 36 58 28 22 38 74 58 28 92 36 101 33 39 192 22
internal_value=0 -0.0238125 0.014542 0.102576 0.751587 0.0205148 0.0707039 -0.426091 0.215508 -0.248149 0.117396 -0.57906 -0.16864 -0.1811 0.172768 0.246502 -0.025889 0.488819 -0.382589 0.339342 -0.423326
internal_count=1131 1103 1037 781 89 692 659 108 52 256 118 138 96 86 551 493 232 261 131 225 58
cat_boundaries=0 1 2
cat_threshold=2416345424 1075856544
shrinkage=0.4


Tree=16
num_leaves=22
num_cat=1
split_feature=14 4 3 15 10 15 3 5 0 15 12 3 13 16 7 12 3 16 1 7 15
split_gain=22.7902 26.9279 37.9029 59.8459 64.6828 18.0672 35.6202 38.363 20.1129 33.2401 40.5594 29.1316 28.3493 28.2962 28.528 26.5233 24.3194 18.6378 18.6911 20.5431 18.0112
threshold=-10.144999999999998 10.500000000000002 17.500000000000004 -1.2499999999999998 379.50000000000006 -25.984999999999996 34.500000000000007 454.50000000000006 0 7.535000000000001 61.500000000000007 11.000000000000002 2.5000000000000004 1.0000000180025095e-35 138.50000000000003 78.500000000000014 22.500000000000004 2.6550000000000007 1.0000000180025095e-35 110.00000000000001 -1.2499999999999998
decision_type=2 2 2 2 2 2 2 2 5 2 2 2 2 2 2 2 2 2 2 2 2
left_child=1 -1 -3 4 -4 -2 8 -8 11 10 16 -7 20 14 -11 -13 -10 18 19 -17 -12
right_child=5 2 3 -5 -6 6 7 -9 9 13 12 15 -14 -15 -16 17 -18 -19 -20 -21 -22
leaf_value=-0.54217677344446602 -0.25162303482163445 -0.46814804157614714 -0.5751632892363 0.47666215884334906 0.20515602065835681 -0.47093500141439776 0.080896347212664629 0.6797557691291527 -0.49511161420589844 0.29208215027204104 0.030927375303295285 0.23125582067126579 -0.2136374688011905 0.50081701726448247 -0.15845095321153982 0.1611254325111707 0.0035585336501781761 0.10507239461690188 -0.40865606060292992 -0.33520086353023848 0.22619994062419033
leaf_count=23 37 30 33 34 35 29 47 27 39 53 293 44 60 41 39 30 26 40 45 24 102
internal_value=0 -0.356579 -0.182156 0.108005 -0.433086 0.0561968 0.0832516 0.749173 0.0262247 0.112946 0.000476133 -0.234905 0.106131 0.560794 0.252195 -0.0981206 -0.73834 -0.312548 -0.545469 -0.147734 0.203507
internal_count=1131 155 132 102 68 976 939 74 865 653 520 212 455 133 92 183 65 139 99 54 395
cat_boundaries=0 1
cat_threshold=3221377297
shrinkage=0.4


Tree=17
num_leaves=22
num_cat=2
split_feature=3 15 16 1 2 0 12 3 15 14 14 10 7 14 6 4 9 12 15 16 10
split_gain=17.4075 25.8716 31.6758 22.941 18.3237 27.6087 39.3545 25.018 47.4903 30.1427 24.763 22.1831 21.6023 23.4316 21.0093 19.38 21.7219 17.6832 17.0241 16.5347 13.6951
threshold=7.5000000000000009 12.440000000000003 -8.2549999999999972 1.0000000180025095e-35 0 1 64.500000000000014 24.500000000000004 -10.484999999999998 2.0250000000000004 1.5250000000000001 314.00000000000006 138.50000000000003 14.325000000000001 161.00000000000003 17.500000000000004 24.500000000000004 98.500000000000014 -1.2499999999999998 1.9400000000000002 306.50000000000006
decision_type=2 2 2 2 5 5 2 2 2 2 2 2 2 2 2 2 2 2 2 2 2
left_child=3 2 20 -1 10 7 -7 9 -9 -6 15 14 19 -14 -8 16 -4 -16 -11 -12 -2
right_child=1 -3 4 -5 5 6 11 8 -10 18 12 -13 13 -15 17 -17 -18 -19 -20 -21 -22
leaf_value=-0.45012577999022707 -0.5232837674140931 0.25699943240330775 0.30791494227553673 0.015861279908064251 -0.24529247753497849 -0.37425096504512384 0.47210255557840519 0.021884231865406039 0.59308566509149019 -0.054325522107296978 0.22955262074606464 -0.08513144698904751 -0.29138244601813229 0.25599951770798918 0.21861566102640195 -0.21203400700700051 -0.1842515724638234 -0.13414030089974402 0.36829357750015335 0.61549331197371859 -0.1034018564939499
leaf_count=31 25 65 38 37 53 61 22 58 39 29 57 317 22 29 44 51 23 47 32 26 25
internal_value=0 0.0311896 -0.00857501 -0.4907 0.032289 -0.0508643 -0.180216 0.244447 0.629372 -0.0611962 0.261232 -0.0771274 0.561957 0.0487045 0.303114 -0.0747936 0.30504 0.0905081 0.417621 0.876727 -0.784357
internal_count=1131 1063 998 68 948 702 491 211 97 114 246 430 134 51 113 112 61 91 61 83 50
cat_boundaries=0 1 2
cat_threshold=5149188 3358990624
shrinkage=0.4


Tree=18
num_leaves=22
num_cat=0
split_feature=3 15 3 15 10 14 11 4 13 7 14 6 9 15 13 13 6 16 7 3 11
split_gain=16.0946 39.5371 32.3014 28.9519 30.805 22.3927 22.3094 22.5044 28.2572 25.6564 28.4693 24.256 21.7909 17.8671 17.4675 17.1421 15.794 15.1069 36.8256 13.8641 12.3566
threshold=19.500000000000004 -0.48999999999999994 15.500000000000002 -11.879999999999997 443.00000000000006 16.825000000000006 266.50000000000006 23.500000000000004 1.0000000180025095e-35 123.50000000000001 2.8700000000000006 182.50000000000003 13.500000000000002 4.9400000000000004 2.5000000000000004 1.5000000000000002 213.50000000000003 -0.66499999999999992 123.50000000000001 32.000000000000007 199.50000000000003
decision_type=2 2 2 2 2 2 2 2 2 2 2 2 2 2 2 2 2 2 2 2 2
left_child=1 2 -1 17 5 13 7 8 -3 11 -11 -10 -9 14 20 -13 -4 18 19 -2 -5
right_child=3 6 16 4 -6 -7 -8 12 9 10 -12 15 -14 -15 -16 -17 -18 -19 -20 -21 -22
leaf_value=-0.7210740806745447 -0.62339508304993319 0.28129796977226551 0.095984400821768734 -0.070740570353570384 0.45388658081698757 0.34088949114777328 0.28850390690404015 0.42822130196461727 0.22932028816805944 -0.58638638521495623 -0.09271325493986543 0.048790287931760157 -0.036399651326631248 0.29529569341948159 -0.26151676513041772 -0.35516498293531573 -0.34405615782737731 -0.0084982753129276851 0.19871088956793148 -0.21405653611818948 0.099800963172669066
leaf_count=23 24 26 23 107 36 43 37 28 36 38 37 30 38 38 35 38 30 224 24 30 186
internal_value=0 -0.166494 -0.812459 0.0854161 0.247641 0.169438 -0.00693752 -0.106544 -0.270199 -0.411873 -0.857769 -0.0898325 0.401023 0.0890839 0.0137245 -0.441638 -0.381795 -0.153458 -0.532504 -0.990888 0.0936326
internal_count=1131 384 76 747 445 409 308 271 205 179 75 104 66 366 328 68 53 302 78 54 293
shrinkage=0.4


Tree=19
num_leaves=22
num_cat=2
split_feature=8 7 7 13 9 11 9 8 11 0 13 16 11 10 2 11 3 9 12 4 14
split_gain=18.8895 19.6716 19.3366 32.443 19.1493 18.5545 17.2718 31.5062 34.4815 23.1999 21.5851 29.8049 20.5148 22.6046 20.4226 17.6608 20.0409 19.9315 31.8535 31.482 16.0794
threshold=2.5000000000000004 38.000000000000007 104.50000000000001 1.0000000180025095e-35 20.500000000000004 173.50000000000003 24.500000000000004 1.0000000180025095e-35 370.50000000000006 0 1.5000000000000002 -2.0999999999999992 355.00000000000006 419.00000000000006 1 140.00000000000003 11.000000000000002 20.500000000000004 121.00000000000001 17.500000000000004 9.0600000000000005
decision_type=2 2 2 2 2 2 2 2 2 5 2 2 2 2 5 2 2 2 2 2 2
left_child=1 -1 5 -4 -5 -2 9 20 -9 10 11 -3 13 14 -11 16 -16 -17 19 -19 -8
right_child=2 6 3 4 -6 -7 7 8 -10 12 -12 -13 -14 -15 15 17 -18 18 -20 -21 -22
leaf_value=0.33187295337178513 -0.46470784422329497 -0.33020012930683468 0.42401803826292356 -0.30655762795660951 0.14624583954811096 -0.11146744836860648 -0.52104860067367553 -0.064761053576784314 0.45740766860246657 -0.079724080304304765 -0.31567607044027407 0.24117497269809249 -0.30143257844431159 0.39008799507729958 0.093042284836692205 0.0097022266697350049 0.5608176761014122 0.76612876214764336 -0.082007434943165536 0.20060142162122899 -0.14975943131548053
leaf_count=32 35 23 24 37 25 75 29 106 25 110 52 40 22 38 31 229 28 22 39 56 53
internal_value=0 0.0591022 -0.282333 0.0723822 -0.309133 -0.56011 0.0317394 -0.217103 0.086842 0.108628 -0.287255 0.0806506 0.18959 0.230632 0.175594 0.275658 0.788441 0.196041 0.531842 0.900914 -0.703282
internal_count=1131 935 196 86 62 110 903 213 131 690 115 63 575 553 515 405 59 346 117 78 82
cat_boundaries=0 1 2
cat_threshold=1074024608 2483294244
shrinkage=0.4


Tree=20
num_leaves=22
num_cat=1
split_feature=0 15 3 8 15 6 13 10 15 16 16 15 11 4 10 4 7 11 12 16 7
split_gain=13.9983 26.2705 44.1525 25.2985 27.0571 22.1144 21.6899 27.7078 27.0208 24.5311 18.7556 29.7875 17.0215 16.5431 16.2915 15.6914 15.3868 21.9383 16.9233 14.573 13.9588
threshold=0 4.9400000000000004 20.500000000000004 2.5000000000000004 -14.374999999999998 374.50000000000006 2.5000000000000004 384.50000000000006 7.535000000000001 -1.4099999999999997 2.6550000000000007 -2.0249999999999995 226.00000000000003 23.500000000000004 431.00000000000006 19.500000000000004 89.500000000000014 242.00000000000003 117.50000000000001 1.0000000180025095e-35 81.500000000000014
decision_type=5 2 2 2 2 2 2 2 2 2 2 2 2 2 2 2 2 2 2 2 2
left_child=1 2 -1 4 20 6 7 9 -8 -6 11 12 -4 16 19 -3 18 -18 -11 -9 -2
right_child=3 15 10 -5 5 -7 8 14 -10 13 -12 -13 -14 -15 -16 -17 17 -19 -20 -21 -22
leaf_value=-0.27711139407314239 -0.32274011365338873 0.53664849955056393 0.13368027456636941 -0.18807849962404349 -0.10089762062405548 0.4099902276515961 -0.30493830829622259 0.66042908438227399 0.073215887552962211 0.0045483933885892237 0.26818698683814884 0.44357249905990265 -0.19003612119047084 0.4221499039649963 0.037684200598761958 0.084011324169960891 -0.1408899467319682 0.31013220310211187 0.47119446655878661 0.23030336654186248 -0.057073231497336001
leaf_count=61 51 28 42 133 150 25 63 22 58 24 76 22 68 25 29 22 69 23 26 30 84
internal_value=0 0.173583 0.0551034 -0.0705013 0.00667749 0.106193 0.0618389 0.174638 -0.308773 0.0410959 0.274675 0.046415 -0.165634 0.304874 0.696648 0.84472 0.172392 -0.0697925 0.619011 1.03166 -0.393961
internal_count=1131 319 269 812 679 544 519 398 121 317 208 132 110 167 81 50 142 92 50 52 135
cat_boundaries=0 1
cat_threshold=135808564
shrinkage=0.4


Tree=21
num_leaves=22
num_cat=2
split_feature=14 2 10 8 16 6 10 9 4 0 11 10 10 3 9 9 12 12 10 16 9
split_gain=13.6572 13.4246 20.0122 19.2904 14.9691 31.9368 13.8705 12.5841 12.2594 12.0557 17.9521 17.0758 19.1647 22.2178 17.3165 14.7573 14.7589 17.9844 12.2676 12.7069 25.7588
threshold=-10.144999999999998 0 370.50000000000006 1.0000000180025095e-35 -6.8449999999999998 342.00000000000006 394.50000000000006 19.500000000000004 10.500000000000002 1 326.50000000000006 476.00000000000006 379.50000000000006 33.500000000000007 20.500000000000004 14.500000000000002 148.50000000000003 117.50000000000001 222.00000000000003 -1.4099999999999997 19.500000000000004
decision_type=2 5 2 2 2 2 2 2 2 5 2 2 2 2 2 2 2 2 2 2 2
left_child=8 2 3 -2 5 -3 -4 -5 -1 10 15 12 18 14 -14 -6 17 -17 -11 20 -20
right_child=1 4 6 7 9 -7 -8 -9 -10 11 -12 -13 13 -15 -16 16 -18 -19 19 -21 -22
leaf_value=-0.38010403456895248 0.22512223826066868 -0 0.45561939073020019 0.0026631665638848848 -0.32883759433572946 -0.54866712303161636 0.13896318536369426 -0.31396085507941973 -0.063295141722668299 -0.18256048179864884 -0.35235063396153915 0.31972658974721152 0.13948788244615903 0.24791466427346071 -0.25722536109302235 -0.00050681631816060918 -0.16294271549209952 0.36073538001025879 0.37801888840933962 0.04182474527156578 -0.063384698550216861
leaf_count=23 37 53 29 51 22 25 95 33 132 25 31 34 22 24 87 76 48 31 62 159 32
internal_value=0 0.0434502 0.240776 -0.038334 -0.0255605 -0.439988 0.532953 -0.303717 -0.276086 0.0234743 -0.170576 0.115526 0.0616488 -0.250374 -0.442428 -0.0555282 0.0529521 0.259913 0.211106 0.277263 0.568853
internal_count=1131 976 245 121 731 78 124 84 155 653 208 445 411 133 109 177 155 107 278 253 94
cat_boundaries=0 1 2
cat_threshold=72090374 2233741712
shrinkage=0.4


Tree=22
num_leaves=22
num_cat=2
split_feature=3 2 4 3 5 0 14 5 16 16 15 13 15 5 10 7 9 4 15 11 14
split_gain=8.78311 10.024 17.0045 17.9625 18.7082 16.677 20.8306 21.8046 24.3101 17.8504 22.1547 52.9178 17.3316 11.5883 11.3606 11.2195 14.4375 18.3811 11.0704 10.9288 10.8182
threshold=43.500000000000007 0 21.500000000000004 20.500000000000004 330.50000000000006 1 -4.9549999999999992 375.50000000000006 1.0600000000000003 3.4150000000000005 -5.2749999999999995 1.5000000000000002 2.4350000000000005 401.50000000000006 222.00000000000003 76.500000000000014 26.500000000000004 17.500000000000004 1.0000000180025095e-35 266.50000000000006 2.8700000000000006
decision_type=2 5 2 2 2 5 2 2 2 2 2 2 2 2 2 2 2 2 2 2 2
left_child=1 2 3 -1 -5 6 -3 8 -8 10 11 20 15 -13 -12 19 17 -17 -4 -11 -7
right_child=-2 5 18 4 -6 9 7 -9 -10 12 14 13 -14 -15 -16 16 -18 -19 -20 -21 -22
leaf_value=-0.18802910559978642 0.22114588592733653 -0.42505466659449875 0.11077076884637396 0.2599006731212139 -0.18984831410375508 -0.17697024315033319 -0.13762144149414132 -0.29583367938226141 0.42394793813878845 -0.26891299375465938 -0.16244881233503652 -0.64935453016182487 0.38468451581647001 -0.27971523063812548 0.057996908771720805 0.29210911485332031 0.36739501887354359 -0.12704280154102229 0.40624169879489475 0.10278100638285928 0.038876642637675811
leaf_count=61 28 36 83 45 22 53 28 37 22 28 43 29 30 26 286 27 29 44 27 23 124
internal_value=0 -0.0142727 0.163423 -0.0771662 0.279808 -0.0643677 -0.390871 -0.157253 0.272673 -0.00569922 -0.0939429 -0.330631 0.267216 -1.18745 0.0728102 0.128906 0.323788 0.0801783 0.458693 -0.252235 -0.0641062
internal_count=1131 1103 238 128 67 865 123 87 50 742 561 232 181 55 329 151 100 71 110 51 177
cat_boundaries=0 1 2
cat_threshold=4719190 1158676482
shrinkage=0.4


Tree=23
num_leaves=22
num_cat=1
split_feature=15 3 15 12 10 0 4 11 4 6 6 11 15 5 7 12 13 12 12 5 10
split_gain=11.8178 14.8954 20.7725 18.0527 15.4902 14.9572 21.9269 20.8407 19.7347 15.5063 13.9708 13.8171 17.5266 12.9692 11.7746 10.6772 20.5726 26.0973 10.0991 9.72666 9.24924
threshold=-25.984999999999996 27.500000000000004 -2.0249999999999995 98.500000000000014 379.50000000000006 0 14.500000000000002 213.00000000000003 22.500000000000004 301.00000000000006 284.00000000000006 199.50000000000003 16.850000000000005 260.50000000000006 130.50000000000003 68.500000000000014 2.5000000000000004 117.50000000000001 133.50000000000003 431.50000000000006 230.00000000000003
decision_type=2 2 2 2 2 5 2 2 2 2 2 2 2 2 2 2 2 2 2 2 2
left_child=-1 5 3 -3 18 6 -2 9 15 11 -9 12 20 -6 -10 -8 17 -17 -5 -12 -7
right_child=1 2 -4 4 13 7 8 10 14 -11 19 -13 -14 -15 -16 16 -18 -19 -20 -21 -22
leaf_value=-0.21641522742234742 -0.47634347349405293 0.2128941146164765 0.44646641801232878 -0.34015208457658686 0.2988278750181198 -0.19811183767347801 0.25379784927918364 -0.015206063381425466 -0.078455975841392175 0.32839246153831486 -0.3524675796887814 0.28500046130589074 0.32622220284938813 0.0043575019796355434 -0.41987812627106913 -0.12487593309237406 -0.33035711222224767 0.38650051273681502 -0.0290544657801327 -0.035702886511929911 0.018535225643392873
leaf_count=39 24 81 23 30 30 41 26 223 33 38 39 35 25 119 32 39 27 27 38 26 136
internal_value=0 0.0191785 0.200217 0.129355 -0.0207978 -0.0561307 -0.27813 0.0302017 -0.173922 0.227706 -0.157165 0.132371 0.0316059 0.159453 -0.617121 0.0677406 -0.0901691 0.210051 -0.416494 -0.565173 -0.0788389
internal_count=1131 1092 321 298 217 771 208 563 184 275 288 237 202 149 65 119 93 66 68 65 177
cat_boundaries=0 1
cat_threshold=3224653830
shrinkage=0.4


Tree=24
num_leaves=22
num_cat=1
split_feature=0 10 3 16 14 6 14 15 3 12 4 16 8 16 3 6 16 16 15 10 16
split_gain=8.05464 19.2816 22.8621 16.5284 16.2025 16.1426 12.1921 14.8534 20.2551 15.7303 15.146 16.2362 14.6697 14.9968 13.8774 12.4255 11.804 10.9749 12.0709 10.8929 9.93599
threshold=0 476.00000000000006 27.500000000000004 -8.2549999999999972 -15.934999999999997 110.00000000000001 11.265000000000002 -17.479999999999997 33.500000000000007 179.00000000000003 20.500000000000004 -0.66499999999999992 2.5000000000000004 -2.0999999999999992 23.500000000000004 223.00000000000003 3.4150000000000005 4.2800000000000002 -0.48999999999999994 347.00000000000006 1.9400000000000002
decision_type=5 2 2 2 2 2 2 2 2 2 2 2 2 2 2 2 2 2 2 2 2
left_child=1 2 -1 -2 19 -6 7 15 9 10 12 -12 13 -9 16 -7 -15 18 -13 -5 -4
right_child=3 -3 20 4 5 6 -8 8 -10 -11 11 17 -14 14 -16 -17 -18 -19 -20 -21 -22
leaf_value=0.011356663289023381 -0.27216792334616186 -0.26855748578354166 0.16271770162602603 -0.068358971284281825 0.32305768651962286 -0.45416977586845553 0.07695708819808296 0.29845331986257362 0.29028105609817428 -0.30943063689395789 -0.24751258653302988 -0.046985944916804634 -0.22300374216267041 -0.13808126310541019 0.22602108572210586 -0.036926588031717326 0.12935467272270015 -0.21431408389754916 0.34262403664263813 -0.43731911786577921 0.45299676056419103
leaf_count=204 40 27 59 31 25 24 208 42 32 32 75 30 28 74 42 22 41 23 22 22 28
internal_value=0 0.132393 0.211693 -0.0529276 -0.0210771 0.0181358 -0.0101919 -0.0968194 -0.0402945 -0.100348 -0.0430714 -0.289742 0.119706 0.215244 0.0729047 -0.637634 -0.106402 0.0386309 0.293661 -0.554724 0.640927
internal_count=1131 318 291 813 773 720 695 487 441 409 377 150 227 199 157 46 115 75 52 53 87
cat_boundaries=0 1
cat_threshold=3355710981
shrinkage=0.4


Tree=25
num_leaves=22
num_cat=2
split_feature=10 10 0 11 11 3 10 5 12 12 9 11 16 2 14 10 11 14 9 16 13
split_gain=9.21315 13.5444 9.24505 19.2436 19.8472 11.2897 10.9163 14.1746 10.229 13.9157 20.6298 20.959 20.4224 13.3594 21.8739 17.3633 16.1334 12.169 9.02744 14.6965 10.1964
threshold=504.00000000000006 465.50000000000006 0 277.00000000000006 242.00000000000003 28.500000000000004 300.00000000000006 287.50000000000006 191.50000000000003 141.50000000000003 24.500000000000004 310.00000000000006 2.6550000000000007 1 14.325000000000001 406.00000000000006 199.50000000000003 5.2400000000000011 20.500000000000004 -2.7849999999999997 2.5000000000000004
decision_type=2 2 5 2 2 2 2 2 2 2 2 2 2 5 2 2 2 2 2 2 2
left_child=1 2 3 4 6 -5 -1 -8 9 10 13 -12 17 14 16 18 -4 -11 20 -20 -15
right_child=-2 -3 8 5 -6 -7 7 -9 -10 12 11 -13 -14 15 -16 -17 -18 -19 19 -21 -22
leaf_value=-0.041858236184760707 0.16441022304388195 -0.18948066122259105 -0.17650373065897396 0.12143113059875293 -0.23653073849954775 0.46268442268554982 -0.041439894725536483 0.31219453068760539 -0.21104511175836838 -0.1322578113436699 -0.42789912705123428 -0.025100516621456594 0.33528039064518245 -0.017287774125923586 0.48021610942753878 -0.34348268781389507 0.17334279490380003 0.15794485180876977 -0.17354425575422205 0.2013535474063676 -0.22320531949076963
leaf_count=67 52 62 35 39 42 26 29 48 42 50 40 43 43 237 22 28 53 43 23 61 46
internal_value=0 -0.0199203 0.00769466 0.170406 0.0132364 0.6456 0.189915 0.446869 -0.0471656 -0.0198768 -0.0866161 -0.548653 0.268305 -0.0105783 0.282798 -0.0971056 0.08493 0.00426715 -0.0415095 0.246162 -0.127073
internal_count=1131 1079 1017 251 186 65 144 77 766 724 588 83 136 505 110 395 88 93 367 84 283
cat_boundaries=0 1 2
cat_threshold=2282754581 2215117586
shrinkage=0.4


Tree=26
num_leaves=22
num_cat=2
split_feature=3 6 12 4 11 2 3 15 7 7 16 9 0 9 13 3 11 15 9 6 15
split_gain=6.66096 7.65664 18.7282 13.4562 15.6843 12.7222 18.5979 19.661 12.6785 11.4159 12.4467 19.765 11.2378 22.0938 11.9557 9.91404 10.5122 15.0587 11.9933 8.56388 8.23374
threshold=43.500000000000007 284.00000000000006 179.00000000000003 29.500000000000004 158.50000000000003 0 7.5000000000000009 12.440000000000003 130.50000000000003 38.000000000000007 -5.7499999999999991 18.500000000000004 1 24.500000000000004 2.5000000000000004 11.000000000000002 199.50000000000003 -6.8899999999999988 17.500000000000004 190.00000000000003 -14.374999999999998
decision_type=2 2 2 2 2 5 2 2 2 2 2 2 5 2 2 2 2 2 2 2 2
left_child=1 5 3 4 -3 15 -7 9 -6 -8 11 -11 13 19 20 -1 18 -18 -17 -12 -14
right_child=-2 2 -4 -5 8 6 7 -9 -10 10 12 -13 14 -15 -16 16 17 -19 -20 -21 -22
leaf_value=-0.29094328833477839 0.19261230481522423 0.17598462081203858 0.23830137425164383 0.14726485066115855 -0.12394407861020373 -0.20730812547685101 0.32589548468589785 0.32885297583682199 -0.40596475592255593 0.48026921781400839 0.13579185463842891 -0.043861599144610498 -0.13153476796209299 0.39878457711050008 -0.21548670693439373 0.021596447358960692 -0.098794600410120836 0.16372055120184087 -0.3674503176047334 -0.12447280024870849 0.037795123666592316
leaf_count=28 28 24 30 32 174 43 22 42 30 24 42 22 58 33 47 23 77 64 28 39 221
internal_value=0 -0.012362 -0.151897 -0.238357 -0.323702 0.0373492 0.112908 0.164398 -0.413789 0.10992 0.0779118 0.572908 0.0260485 0.282434 -0.0699715 -0.163776 -0.0898562 0.0505484 -0.479014 0.0255808 0.00630561
internal_count=1131 1103 290 260 228 813 593 550 204 508 486 46 440 114 326 220 192 141 51 81 279
cat_boundaries=0 1 2
cat_threshold=2483953922 2148410528
shrinkage=0.4


Tree=27
num_leaves=22
num_cat=2
split_feature=15 0 14 7 12 5 16 13 7 3 0 15 11 6 4 3 15 4 11 12 4
split_gain=6.09899 7.06398 12.877 10.6351 11.8968 16.1302 9.38263 15.7675 12.2282 13.8724 11.9365 10.9155 15.4065 10.3241 15.7725 13.4265 9.33299 9.32524 8.9771 8.80707 8.27658
threshold=20.535000000000004 0 -18.404999999999998 159.50000000000003 117.50000000000001 388.00000000000006 -4.6499999999999995 3.5000000000000004 185.00000000000003 30.500000000000004 1 9.3700000000000028 155.00000000000003 176.00000000000003 25.500000000000004 19.500000000000004 -3.1049999999999995 19.500000000000004 277.00000000000006 68.500000000000014 16.500000000000004
decision_type=2 5 2 2 2 2 2 2 2 2 5 2 2 2 2 2 2 2 2 2 2
left_child=1 3 -3 4 5 18 8 10 9 17 13 12 -12 -8 15 -15 20 -4 -1 -7 -6
right_child=-2 2 6 -5 16 19 7 -9 -10 -11 11 -13 -14 14 -16 -17 -18 -19 -20 -21 -22
leaf_value=-0.051317872718229129 0.18105298286881941 -0.31372494518756866 -0.20012886481528935 0.24512080242416184 -0.14754305157396527 -0.049564410285516225 0.10141045255320413 -0.27348100809560666 -0.35780909157143193 -0.30905242021123952 -0.18590228561311961 0.24389591566673141 0.053807220262155613 -0.52062822933929664 0.10493445769460363 -0.12376561757177114 0.27908869252022772 0.10165507093071938 0.21438725851235851 -0.38633363808023519 0.11299750611345682
leaf_count=59 29 24 22 38 27 22 28 31 26 26 48 41 402 24 22 32 36 64 31 29 70
internal_value=0 -0.0119581 -0.0621351 0.113293 0.04797 -0.154182 -0.040254 0.0115505 -0.276364 -0.132417 0.0477362 0.113308 0.0704844 -0.243266 -0.45343 -0.735517 0.262657 0.0605549 0.0999514 -0.603632 0.100674
internal_count=1131 1102 790 312 274 141 766 628 138 112 597 491 450 106 78 56 133 86 90 51 97
cat_boundaries=0 1 2
cat_threshold=1226338336 67240704
shrinkage=0.4


Tree=28
num_leaves=22
num_cat=2
split_feature=12 16 3 7 0 16 9 15 4 5 7 12 0 3 15 11 12 7 12 4 16
split_gain=4.55664 12.2958 11.8956 12.2807 13.6853 9.27435 8.72742 13.5815 22.1812 14.7265 11.5524 14.9008 8.45084 8.97279 13.1759 9.93689 12.6047 9.0819 9.00884 7.90063 7.63116
threshold=88.500000000000014 -8.2549999999999972 11.000000000000002 209.00000000000003 0 -5.7499999999999991 26.500000000000004 -5.2749999999999995 18.500000000000004 268.00000000000006 73.000000000000014 117.50000000000001 1 23.500000000000004 3.1350000000000002 242.00000000000003 61.500000000000007 130.50000000000003 64.500000000000014 23.500000000000004 1.0600000000000003
decision_type=2 2 2 2 5 2 2 2 2 2 2 2 5 2 2 2 2 2 2 2 2
left_child=1 -1 -2 4 6 -6 7 8 9 -4 -9 -12 19 14 -14 16 -16 -18 -15 -3 -20
right_child=2 12 3 -5 5 -7 -8 10 -10 -11 11 -13 13 18 15 -17 17 -19 20 -21 -22
leaf_value=0.31928787540482439 -0.2107008873236676 0.20691653377006927 -0.080111124413934628 0.28256953120231632 -0.20871931104700675 -0.033562747053985528 0.23774494823813438 -0.087856357592073359 -0.22456372865680924 0.38211702980101109 0.02304131333231926 0.43897988311706054 -0.2240444795531972 -0.077298718316151815 -0.27566146085304871 0.234562547331055 0.2126421779766679 -0.11879525895118714 0.047156101422650476 -0.019961251288652421 0.35906718695293305
leaf_count=23 48 63 22 23 55 406 40 22 59 22 25 31 62 34 28 24 28 25 28 40 23
internal_value=0 0.0895238 -0.0450343 -0.0121656 -0.0364729 -0.133365 0.164029 0.0777132 -0.160319 0.376371 0.392679 0.634125 0.0434674 -0.0574897 -0.194546 0.0208352 -0.146124 0.139816 0.204434 0.270294 0.470535
internal_count=1131 378 753 705 682 461 221 181 103 44 78 56 355 252 167 105 81 53 85 103 51
cat_boundaries=0 1 2
cat_threshold=2366661250 1141516032
shrinkage=0.4


Tree=29
num_leaves=22
num_cat=2
split_feature=14 15 0 3 5 16 4 13 4 13 3 7 11 11 9 9 14 9 9 0 12
split_gain=5.40086 10.6427 14.2903 15.7285 22.6644 8.8287 12.4982 13.235 8.25145 9.15495 10.8713 8.01142 7.97563 7.60099 7.22361 7.03655 5.95334 5.91264 6.20312 5.22353 8.93826
threshold=6.080000000000001 -20.029999999999998 0 30.500000000000004 418.50000000000006 -4.6499999999999995 23.500000000000004 1.5000000000000002 23.500000000000004 2.5000000000000004 15.500000000000002 81.500000000000014 191.50000000000003 191.50000000000003 24.500000000000004 26.500000000000004 9.0600000000000005 20.500000000000004 16.500000000000004 1 141.50000000000003
decision_type=2 2 5 2 2 2 2 2 2 2 2 2 2 2 2 2 2 2 2 5 2
left_child=8 15 3 4 -3 17 7 -7 9 19 -11 -12 -8 -10 -14 -2 -9 18 -4 -1 -21
right_child=1 2 5 -5 -6 6 12 16 13 10 11 -13 14 -15 -16 -17 -18 -19 -20 20 -22
leaf_value=0.089122353471436752 -0.27948309289084539 0.31123300322672215 -0.067135616855488897 0.48528585636097454 -0.12345306079420777 0.077537124575297725 0.33936156599649364 -0.33087256638290868 -0.31920585536846408 -0.28902704732643592 -0.20241578560943407 0.087208249001275925 0.0037817938421286796 -0.053264535488560798 0.2742176144796869 -0 -0.073142288242067616 0.039497750837242968 -0.33398749525132387 -0.052928034494043423 0.085829192614610042
leaf_count=108 27 41 36 23 36 87 28 22 27 37 24 42 51 48 23 31 42 33 23 233 109
internal_value=0 0.0771764 0.129771 0.442678 0.269359 0.0253619 0.122693 -0.0596928 -0.0618826 -0.0195734 -0.288574 -0.0445164 0.393186 -0.373175 0.220266 -0.325488 -0.405124 -0.238999 -0.428754 0.0418866 -0.0210004
internal_count=1131 503 445 100 77 345 253 151 628 553 103 66 102 75 74 58 64 92 59 450 342
cat_boundaries=0 1 2
cat_threshold=1074139396 3355705396
shrinkage=0.4


Tree=30
num_leaves=22
num_cat=1
split_feature=15 11 16 6 6 6 11 3 14 14 0 4 12 12 12 4 4 16 11 3 13
split_gain=7.15893 8.13221 14.1257 8.89859 15.0628 7.39119 8.43851 7.25825 9.92197 6.57442 10.5773 15.5216 13.1368 12.5529 11.6464 10.5106 13.8599 19.1935 10.2232 10.9712 10.4459
threshold=7.535000000000001 155.00000000000003 -0.17499999999999996 241.50000000000003 199.50000000000003 190.00000000000003 194.00000000000003 11.000000000000002 26.245000000000005 11.265000000000002 0 13.500000000000002 191.50000000000003 191.50000000000003 148.50000000000003 17.500000000000004 16.500000000000004 1.9400000000000002 226.00000000000003 22.500000000000004 1.0000000180025095e-35
decision_type=2 2 2 2 2 2 2 2 2 2 5 2 2 2 2 2 2 2 2 2 2
left_child=7 3 5 4 -2 -3 -7 -1 9 10 12 14 18 15 -12 16 17 -13 -9 -20 -21
right_child=1 2 -4 -5 -6 6 -8 8 -10 -11 11 13 -14 -15 -16 -17 -18 -19 19 20 -22
leaf_value=-0.1929264222622982 0.25674826801784578 -0.28759339990823163 0.19547578302025795 0.36704261399507526 -0.17574697294018485 0.1291761038221162 -0.19139511729280154 0.13189403141659195 -0.23340639857947829 0.059101547667067426 -0.048509895882823256 -0.26332532466419284 0.33756366264075044 -0.28600967767563734 0.35371235107382137 -0.10144640022650178 0.31918617904186247 0.17488646015976417 -0.25467484415043146 -0.19179492654623809 0.10414158124648608
leaf_count=35 31 23 40 25 22 29 24 78 30 227 22 31 23 44 24 242 24 33 32 27 65
internal_value=0 0.175591 0.00726309 0.425283 0.192111 -0.245461 -0.0390272 -0.035458 -0.0180633 0.00133301 -0.0501205 -0.142116 0.122264 -0.213007 0.402276 -0.14592 0.149677 -0.0926497 0.045902 -0.132235 0.0426831
internal_count=1131 194 116 78 53 76 53 937 902 872 645 420 225 374 46 330 88 64 202 124 92
cat_boundaries=0 1
cat_threshold=2283685409
shrinkage=0.4


Tree=31
num_leaves=22
num_cat=2
split_feature=15 0 3 6 16 13 15 12 10 7 2 15 1 15 11 7 3 14 3 14 4
split_gain=5.03439 9.63187 12.1522 7.8845 9.72701 8.38487 12.5053 9.25982 7.23638 7.22521 6.72279 7.99875 10.7986 6.08124 6.06678 6.33651 7.34503 7.15846 7.67455 6.0938 11.4983
threshold=-11.879999999999997 0 30.500000000000004 144.50000000000003 1.9400000000000002 1.0000000180025095e-35 -5.2749999999999995 98.500000000000014 384.50000000000006 116.00000000000001 1 -2.0249999999999995 1.0000000180025095e-35 16.850000000000005 370.50000000000006 81.500000000000014 30.500000000000004 8.0900000000000016 32.000000000000007 14.325000000000001 19.500000000000004
decision_type=2 5 2 2 2 2 2 2 2 2 5 2 2 2 2 2 2 2 2 2 2
left_child=14 3 10 -2 5 -5 -7 -8 -4 -6 11 -3 -13 -12 15 17 -17 18 -1 20 -18
right_child=1 2 8 4 9 6 7 -9 -10 -11 13 12 -14 -15 -16 16 19 -19 -20 -21 -22
leaf_value=0.055931830741465099 -0.21242265511213279 0.070290660642087471 0.09860242960781887 0.094100927528219691 0.0023727464126913171 -0.4046604686975479 -0.18090129344868991 0.097824151732704853 0.40403700480110605 0.28325088851153851 0.03509536781757467 -0.33130429715911547 0.0021244177222251893 0.21384363760099268 0.089798714623826992 -0.13951027013361456 0.14052980843186377 -0.34042584717273711 -0.21471980687550138 0.17346413113590745 -0.17331600856781004
leaf_count=32 41 40 29 33 38 22 45 33 22 24 405 30 32 33 46 56 35 24 35 36 40
internal_value=0 0.0408964 0.108316 -0.126938 -0.0482228 -0.200932 -0.345372 -0.156806 0.576877 0.278556 0.0659766 -0.156686 -0.397224 0.118808 -0.109596 -0.169356 -0.0533228 -0.381747 -0.212887 0.095284 -0.0664699
internal_count=1131 827 591 236 195 133 100 78 51 62 540 102 62 438 304 258 167 91 67 111 75
cat_boundaries=0 1 2
cat_threshold=2148820102 2215256096
shrinkage=0.4


Tree=32
num_leaves=22
num_cat=1
split_feature=9 14 16 3 0 8 3 16 6 14 10 15 16 9 12 15 5 9 1 3 7
split_gain=4.74966 11.7841 11.6471 11.1315 7.21389 10.473 8.30187 8.87762 8.19012 7.17108 8.47334 11.1979 7.61118 6.87507 5.79023 11.6849 8.48794 11.9239 8.90254 6.18476 5.80051
threshold=24.500000000000004 -6.3099999999999996 8.5900000000000016 19.500000000000004 0 1.5000000000000002 17.500000000000004 -0.66499999999999992 223.00000000000003 6.080000000000001 436.50000000000006 -14.374999999999998 2.6550000000000007 19.500000000000004 161.50000000000003 -13.334999999999999 375.50000000000006 21.500000000000004 1.0000000180025095e-35 30.500000000000004 100.50000000000001
decision_type=2 2 2 2 5 2 2 2 2 2 2 2 2 2 2 2 2 2 2 2 2
left_child=2 -2 4 -3 8 -6 7 -7 13 12 11 -11 -5 -1 15 -8 17 20 -18 -16 -17
right_child=1 3 -4 9 5 6 14 -9 -10 10 -12 -13 -14 -15 19 16 18 -19 -20 -21 -22
leaf_value=-0.36844984430333844 -0.26361780427183423 -0.27668912716533828 0.23371775775342374 -0.056167230087777846 0.061076529917650328 -0.023571134507656102 0.30111729458622311 -0.29483265964521305 0.0096871693385025825 -0.35341028399467467 0.050340273323419851 0.0084341122806072238 0.23071858171282744 -0.084266213818508046 -0.27739803699268534 0.058535170232256253 -0.28009793690052526 -0.14952837599648369 0.019103385474000659 0.015481550010542076 0.2997758675726323
leaf_count=23 35 23 37 23 418 42 23 36 63 25 76 30 41 34 22 36 29 27 35 24 29
internal_value=0 -0.120348 0.0351602 -0.0336308 0.0109414 0.0493495 -0.0914207 -0.372563 -0.206329 0.0437339 -0.0900071 -0.389192 0.318266 -0.498219 0.00581974 0.08736 -0.0104282 0.183791 -0.290399 -0.310391 0.416183
internal_count=1131 253 878 218 841 721 303 78 120 195 131 55 64 57 225 179 156 92 64 46 65
cat_boundaries=0 1
cat_threshold=18104448
shrinkage=0.4


Tree=33
num_leaves=22
num_cat=1
split_feature=6 8 10 16 13 5 3 3 14 9 11 4 3 15 14 9 9 12 6 2 15
split_gain=3.7436 14.9491 12.4155 8.93434 8.85548 10.1854 8.25099 9.42827 7.48317 5.70856 6.67154 5.17801 4.9951 11.5354 11.046 10.1918 8.75278 10.1245 7.63865 7.22012 9.36901
threshold=176.00000000000003 1.0000000180025095e-35 358.00000000000006 0.69500000000000017 3.5000000000000004 300.50000000000006 17.500000000000004 23.500000000000004 5.2400000000000011 16.500000000000004 277.00000000000006 17.500000000000004 20.500000000000004 -6.8899999999999988 16.825000000000006 16.500000000000004 14.500000000000002 78.500000000000014 248.00000000000003 0 -11.879999999999997
decision_type=2 2 2 2 2 2 2 2 2 2 2 2 2 2 2 2 2 2 2 5 2
left_child=1 2 3 -1 5 6 -2 -8 -6 -3 -11 -9 13 -7 15 16 17 -15 -17 -14 -21
right_child=4 9 -4 -5 8 12 7 11 -10 10 -12 -13 19 14 -16 18 -18 -19 -20 20 -22
leaf_value=-0.22784631628990173 0.26496368886608829 0.14982133650198215 -0.39742223837252322 0.12134910118850795 0.021705183334972549 -0.32543462323645755 -0.16545490891933443 0.22517343389987943 0.3453605555451435 -0.066100098214761802 0.1176731960440791 -0.018387204097664877 0.089606573821962354 -0.2757721958577633 0.14560366789217699 -0.073129644855013429 -0.36082399991473979 0.06599164966614017 0.17676348576622625 -0.090515397947990101 0.044251328469839639
leaf_count=25 38 41 29 22 23 24 25 35 23 119 43 23 119 25 44 53 28 31 31 163 167
internal_value=0 -0.100314 -0.478675 -0.159919 0.0331468 0.00872802 0.276248 0.0988491 0.459919 0.0410925 -0.0429933 0.320611 -0.0384544 -0.156268 -0.0816188 -0.198629 -0.444989 -0.215561 0.0471368 0.0233586 -0.0540003
internal_count=1131 279 76 47 852 806 121 83 46 203 162 58 685 236 212 168 84 56 84 449 330
cat_boundaries=0 1
cat_threshold=2416706100
shrinkage=0.4


Tree=34
num_leaves=22
num_cat=1
split_feature=12 16 0 7 16 5 14 3 9 7 3 12 12 1 6 3 6 4 4 10 1
split_gain=3.14765 8.01332 6.58249 6.35411 8.24535 9.46387 10.9839 8.25018 7.03493 6.1661 5.52869 7.2422 6.39642 4.87658 5.99692 5.91918 7.71528 5.91213 4.70691 7.58644 4.59279
threshold=88.500000000000014 -8.2549999999999972 0 38.000000000000007 -0.66499999999999992 418.50000000000006 6.080000000000001 15.500000000000002 21.500000000000004 81.500000000000014 23.500000000000004 133.50000000000003 179.00000000000003 1.0000000180025095e-35 208.00000000000003 22.500000000000004 213.50000000000003 21.500000000000004 18.500000000000004 306.50000000000006 1.0000000180025095e-35
decision_type=2 2 5 2 2 2 2 2 2 2 2 2 2 2 2 2 2 2 2 2 2
left_child=-1 -2 9 -4 5 6 18 -6 -7 20 -11 -12 -13 15 -15 -9 -17 -16 -5 -20 -3
right_child=1 2 3 4 7 8 -8 13 -10 10 11 12 -14 14 17 16 -18 -19 19 -21 -22
leaf_value=0.030167764535829152 -0.19610057980048698 0.066833410810566304 0.15319901833576816 0.13755029733364396 -0.26769250372477943 -0.24320091449717679 0.25039336324691081 0.13966000243569865 0.030213931163152064 0.014806110296398403 0.30978365333203012 -0.066515026224347268 0.22267904120942822 -0.0088496691115359048 -0.34091121483732151 -0.18561376223961512 0.04185275364870375 -0.10001616228549254 0.10693390900777144 -0.20195292583107949 -0.13452034777775407
leaf_count=378 37 33 28 26 35 30 43 33 30 70 34 26 23 47 27 42 55 42 22 30 40
internal_value=0 -0.0364148 -0.0128925 -0.077592 -0.107294 0.0589444 0.22019 -0.214551 -0.2654 0.125063 0.244792 0.419424 0.172052 -0.149658 -0.298733 -0.0162519 -0.141079 -0.486423 -0.00287609 -0.177214 -0.108059
internal_count=1131 753 716 490 462 181 121 281 60 226 153 83 49 246 116 130 97 69 78 52 73
cat_boundaries=0 1
cat_threshold=1227911298
shrinkage=0.4


Tree=35
num_leaves=22
num_cat=3
split_feature=3 12 15 11 13 13 10 16 0 0 14 4 14 4 3 2 5 6 6 15 1
split_gain=3.21591 8.51515 6.14484 6.03819 5.14663 9.76691 11.1208 3.57403 8.46339 7.247 9.47963 10.4194 8.80051 7.13165 7.10081 6.85474 7.8204 7.86499 6.41793 6.19848 6.14081
threshold=7.5000000000000009 75.500000000000014 7.535000000000001 118.00000000000001 1.5000000000000002 2.5000000000000004 283.50000000000006 1.0000000180025095e-35 0 1 -2.5749999999999997 17.500000000000004 13.275000000000002 20.500000000000004 28.500000000000004 2 418.50000000000006 284.00000000000006 374.50000000000006 -10.484999999999998 1.0000000180025095e-35
decision_type=2 2 2 2 2 2 2 2 5 5 2 2 2 2 2 5 2 2 2 2 2
left_child=1 -1 3 -2 -4 -6 -7 9 13 14 11 -11 19 -9 20 -10 17 -17 -14 -12 -5
right_child=2 -3 4 7 5 6 -8 8 15 10 12 -13 18 -15 -16 16 -18 -19 -20 -21 -22
leaf_value=0.033900136480107909 -0.20819755476049107 -0.2533524170092174 0.20013388330160187 0.15787028989276372 -0.15427772483229638 0.3150538225527163 -0.033027102947235112 -0.045954809783647466 0.089167797150308481 0.0013674117321217502 -0.071982209245363873 -0.36427020260173343 -0.012200238647915071 -0.26451094408333303 0.25337812428176404 -0.02629230684461072 0.13411863665936924 -0.23318627771209269 -0.25519076306034222 0.13218571918794014 -0.073974913077221982
leaf_count=40 23 28 43 37 30 27 32 60 101 27 30 23 84 40 40 220 41 34 22 113 36
internal_value=0 -0.210216 0.0140993 -0.014479 0.216042 0.0781251 0.314813 -0.00160639 -0.0588401 0.067175 -0.0179837 -0.416065 0.0610291 -0.303585 0.270594 0.0102454 -0.067326 -0.135164 -0.157052 0.223034 0.108154
internal_count=1131 68 1063 931 132 89 59 908 496 412 299 50 249 100 113 396 295 254 106 143 73
cat_boundaries=0 1 2 3
cat_threshold=1090662912 1090523926 4493616
shrinkage=0.4


Tree=36
num_leaves=22
num_cat=1
split_feature=14 5 3 14 7 16 7 0 4 10 10 14 4 7 16 15 9 15 16 12 7
split_gain=2.62721 4.41636 10.4892 6.49562 11.96 11.0554 3.91686 10.2087 8.59865 5.49196 9.9682 6.12266 5.84421 4.40207 4.33559 5.97521 9.34268 8.7077 7.49331 6.59975 5.43337
threshold=29.330000000000002 475.00000000000006 23.500000000000004 16.825000000000006 98.500000000000014 -2.0999999999999992 89.500000000000014 0 22.500000000000004 222.00000000000003 256.50000000000006 2.8700000000000006 15.500000000000002 104.50000000000001 -4.6499999999999995 -8.5549999999999979 21.500000000000004 -1.2499999999999998 2.9300000000000002 141.50000000000003 54.000000000000007
decision_type=2 2 2 2 2 2 2 5 2 2 2 2 2 2 2 2 2 2 2 2 2
left_child=1 3 -3 6 -5 -6 14 8 13 11 -11 -9 -12 -8 -1 16 -16 -17 19 -18 -20
right_child=-2 2 -4 4 5 -7 7 9 -10 10 12 -13 -14 -15 15 17 18 -19 20 -21 -22
leaf_value=0.16797776339575649 0.13730841964483262 -0.30762167162895204 0.0083057266006282739 -0.097267168577421792 -0.0037565932202118417 0.32358745519958798 0.030141335763037208 -0.32301884713893136 -0.10011942643140044 0.13610838145017623 -0.21021823807342632 -0.02978871215473522 -0.042774151790919333 0.22912128809690474 0.29833868618011472 -0.13823343787988027 0.012175042937541831 0.039097966239270233 0.066402918708324432 0.30346864801916212 -0.18205760707263835
leaf_count=32 22 25 51 33 27 42 28 24 28 47 37 22 347 50 25 75 29 108 25 22 32
internal_value=0 -0.00570292 -0.238387 0.0113677 0.250966 0.488016 -0.0148289 -0.064986 0.20467 -0.12665 -0.0941045 -0.458033 -0.1474 0.394872 0.0690549 0.0333636 0.194776 -0.0836739 0.0667504 0.345558 -0.181832
internal_count=1131 1109 76 1033 102 69 931 583 106 477 431 46 384 78 348 316 133 183 108 51 57
cat_boundaries=0 1
cat_threshold=1076904976
shrinkage=0.4


Tree=37
num_leaves=22
num_cat=2
split_feature=15 5 11 10 9 0 14 5 5 4 0 14 5 16 5 14 15 11 15 15 5
split_gain=3.05545 5.42296 9.38495 5.55405 3.42714 7.40194 8.51952 14.6045 7.59557 6.18328 5.36918 11.4835 6.31626 8.52685 7.01448 6.47065 5.90772 5.46245 5.69128 5.27901 8.19375
threshold=-18.504999999999999 431.50000000000006 355.00000000000006 465.50000000000006 20.500000000000004 0 -4.9549999999999992 224.50000000000003 401.50000000000006 17.500000000000004 1 -1.5199999999999998 341.50000000000006 5.080000000000001 349.50000000000006 -11.519999999999998 12.440000000000003 205.50000000000003 7.535000000000001 -2.0249999999999995 322.00000000000006
decision_type=2 2 2 2 2 5 2 2 2 2 5 2 2 2 2 2 2 2 2 2 2
left_child=1 2 3 -1 10 8 7 -7 9 -6 11 -2 13 15 -14 -12 -16 18 -17 20 -8
right_child=4 -3 -4 -5 5 6 19 -9 -10 -11 12 -13 14 -15 16 17 -18 -19 -20 -21 -22
leaf_value=0.0041198692399831045 -0.27092159486017547 -0.20367406891238304 0.19398280950692984 -0.22541716105171614 0.19797627966193593 -0.09591729576699437 -0.23069631011058123 0.24980210554078219 0.30423950264294602 -0.02282443272173405 -0.12690432423177886 -0 -0.25245190162550318 0.29410434265451674 0.01297531481996015 -0.070961755401732635 -0.17091411922014121 0.16635528800026939 0.13392873338077749 0.063359182032186587 -0.025235242050189479
leaf_count=42 39 31 26 28 34 32 39 50 29 50 34 70 22 22 182 57 33 55 35 67 154
internal_value=0 -0.145453 -0.0274764 -0.218523 0.0191722 0.083381 0.00527297 0.286608 0.292945 0.165773 -0.0339516 -0.222079 0.0171954 0.14714 -0.0931709 0.0753796 -0.0378914 0.166534 0.0169208 -0.0830608 -0.167142
internal_count=1131 127 96 70 1004 455 342 82 113 84 549 109 440 203 237 181 215 147 92 260 193
cat_boundaries=0 1 2
cat_threshold=151393538 18236418
shrinkage=0.4


Tree=38
num_leaves=22
num_cat=3
split_feature=11 7 5 11 4 4 0 2 13 14 8 16 7 0 11 16 11 14 12 11 11
split_gain=2.54209 5.86194 7.6778 4.18951 7.96445 4.26757 5.07713 7.44279 6.63575 6.41248 6.20493 4.61294 4.49963 4.46193 10.4664 6.21098 6.56433 6.98149 5.84334 4.96185 6.54785
threshold=158.50000000000003 73.000000000000014 278.50000000000006 173.50000000000003 19.500000000000004 29.500000000000004 0 1 1.0000000180025095e-35 2.8700000000000006 1.0000000180025095e-35 1.0600000000000003 123.50000000000001 2 266.50000000000006 -4.6499999999999995 303.00000000000006 5.2400000000000011 88.500000000000014 215.50000000000003 259.00000000000006
decision_type=2 2 2 2 2 2 5 5 2 2 2 2 2 5 2 2 2 2 2 2 2
left_child=1 -1 -3 4 -2 6 -5 10 9 11 -8 -9 -12 14 -10 -15 17 19 -19 -17 -21
right_child=3 2 -4 5 -6 -7 7 8 13 -11 12 -13 -14 15 -16 16 -18 18 -20 20 -22
leaf_value=-0.11644636512796083 0.042600570506340751 0.26184328415270514 0.031641016562397664 -0.057379580088715181 -0.20754469854798582 0.12946256352158692 -0.059520077538490306 -0.15336762567552237 -0.084412384040583419 0.14984644511611098 0.22551046761289495 0.089579007600744567 0.012564933042634617 -0.21810695070028305 0.16930177896046172 0.045984898378903218 -0.1475674686569434 -0.070138465423475613 0.17827555851389965 -0.2129770117741514 0.036600328936026653
leaf_count=30 37 29 117 215 45 39 25 26 53 72 59 24 22 35 51 44 65 22 48 47 26
internal_value=0 0.110825 0.193758 -0.0199626 -0.236076 0.000279414 -0.0147826 0.0316333 -0.0196683 0.183428 0.260637 -0.0908831 0.419801 -0.0836694 0.0908012 -0.145172 -0.0951655 -0 0.249792 -0.149465 -0.309531
internal_count=1131 176 146 955 82 873 834 619 513 122 106 50 81 391 104 287 252 187 70 117 73
cat_boundaries=0 1 2 3
cat_threshold=85988628 2147655716 1208639490
shrinkage=0.4


Tree=39
num_leaves=22
num_cat=2
split_feature=15 7 0 2 9 12 10 14 5 12 4 11 15 4 4 5 11 15 12 5 6
split_gain=2.95465 6.52875 6.25187 5.79028 5.27742 5.1761 7.11856 4.78362 4.48165 6.16986 4.1267 5.68132 4.62028 8.98267 4.07934 5.35138 3.92757 4.3823 6.03921 3.40688 5.19977
threshold=-6.8899999999999988 103.50000000000001 0 1 26.500000000000004 98.500000000000014 406.00000000000006 16.825000000000006 244.00000000000003 148.50000000000003 22.500000000000004 242.00000000000003 4.9400000000000004 25.500000000000004 20.500000000000004 401.50000000000006 286.50000000000006 3.1350000000000002 121.00000000000001 268.00000000000006 176.00000000000003
decision_type=2 2 5 5 2 2 2 2 2 2 2 2 2 2 2 2 2 2 2 2 2
left_child=1 7 14 16 5 6 -3 8 9 -1 19 12 13 -12 -2 -16 17 18 -4 -5 -21
right_child=2 4 3 10 -6 -7 -8 -9 -10 -11 11 -13 -14 -15 15 -17 -18 -19 -20 20 -22
leaf_value=-0.21785710756545484 0.17659921960508237 0.086676524300605823 0.27506257154724811 0.019485244900071332 0.042170083267574619 -0.16412056452755891 -0.19011094422390062 -0.11695945367217063 0.068682432074370331 0.074706261099680621 0.062537637689839248 0.15748003290433968 0.068642636633923532 -0.29442046990448778 -0.088998492618401856 0.15398780662034239 0.22886255024621885 -0.064158501232809889 -0.020540415509180589 -0.1931145930924314 -0.042621654358785059
leaf_count=23 61 39 22 84 47 104 24 36 179 23 23 42 46 22 30 28 24 34 22 47 171
internal_value=0 -0.0603036 0.0432544 -0.00477281 -0.189823 -0.273216 -0.0461222 0.0457006 0.100019 -0.177852 -0.0559275 0.0893391 -0.0505858 -0.278827 0.240586 0.069901 0.198455 0.108272 0.317016 -0.12192 -0.187898
internal_count=1131 475 656 537 214 167 63 261 225 46 435 133 91 45 119 58 102 78 44 302 218
cat_boundaries=0 1 2
cat_threshold=218112528 268709910
shrinkage=0.4


Tree=40
num_leaves=22
num_cat=3
split_feature=15 12 12 14 7 0 3 2 1 5 0 4 10 4 8 7 15 11 14 12 3
split_gain=2.62074 2.0582 2.56397 9.75744 3.31998 2.90938 8.87293 5.12074 6.00754 7.36419 5.11273 5.80011 7.05678 7.63543 5.59598 4.07124 4.03457 4.85668 3.87139 3.51684 3.29654
threshold=20.535000000000004 225.50000000000003 179.00000000000003 6.080000000000001 81.500000000000014 0 34.500000000000007 1 1.0000000180025095e-35 341.50000000000006 2 13.500000000000002 476.00000000000006 26.500000000000004 1.0000000180025095e-35 138.50000000000003 -14.374999999999998 140.00000000000003 -11.519999999999998 88.500000000000014 13.500000000000002
decision_type=2 2 2 2 2 5 2 5 2 2 5 2 2 2 2 2 2 2 2 2 2
left_child=1 2 5 4 -4 6 16 8 9 -7 14 -12 13 18 -9 -15 -1 -18 -13 -16 -19
right_child=-2 -3 3 -5 -6 7 -8 10 -10 -11 11 12 -14 15 19 -17 17 20 -20 -21 -22
leaf_value=0.14816608071327209 0.11865184231051083 -0.091106083437618682 -0.13858486259761066 0.28795321980248328 0.071765216973423959 -0.031724884448380307 -0.23976511333370581 -0.036392164589329201 0.017058574627319883 -0.32882021034955983 -0.16359183356646567 0.14537758618593216 0.19950375597563483 -0.23933710158898913 0.28376346908211708 -0.026519926467846178 0.14452352454039183 -0.16269889528552692 0.0093350340348532356 0.10329013076835665 -0.026602133217555796
leaf_count=22 29 41 23 23 25 29 32 33 56 25 31 37 31 29 25 29 22 36 356 58 139
internal_value=0 -0.00791636 0.000532088 0.184141 -0.0715272 -0.0125853 -0.103335 0.019307 -0.170526 -0.424098 0.0547325 0.00996969 0.0372251 0.00539018 0.235793 -0.333183 -0.0353389 -0.0809053 0.055485 0.394726 -0.136784
internal_count=1131 1102 1061 71 48 990 251 739 110 54 629 513 482 451 116 58 219 197 393 83 175
cat_boundaries=0 1 2 3
cat_threshold=3374580738 67117360 667649
shrinkage=0.4


Tree=41
num_leaves=22
num_cat=1
split_feature=4 0 11 3 13 7 15 12 11 3 9 15 12 12 12 16 11 16 11 5 11
split_gain=2.42361 3.13639 4.19343 7.63415 4.71485 5.13978 3.71896 5.57482 2.91265 6.85919 6.10696 4.66619 3.98267 3.81136 7.86067 5.64247 3.40237 3.12606 3.51162 5.22937 2.85935
threshold=29.500000000000004 0 266.50000000000006 23.500000000000004 1.0000000180025095e-35 104.50000000000001 -6.8899999999999988 98.500000000000014 233.00000000000003 23.500000000000004 24.500000000000004 -2.0249999999999995 121.00000000000001 83.500000000000014 64.500000000000014 -0.17499999999999996 178.00000000000003 -3.5199999999999996 199.50000000000003 375.50000000000006 140.00000000000003
decision_type=2 5 2 2 2 2 2 2 2 2 2 2 2 2 2 2 2 2 2 2 2
left_child=1 2 4 -4 5 -1 -6 -8 10 12 13 -11 -10 14 16 -16 -3 18 19 -15 -19
right_child=-2 8 3 -5 6 -7 7 -9 9 11 -12 -13 -14 17 15 -17 -18 20 -20 -21 -22
leaf_value=0.15565257867393287 0.087927708004911731 -0.13325158998072148 0.16426817670050595 -0.08950655867159367 -0.27516719104155246 -0.10156244854684229 -0.18369307960829009 0.027706876458866259 -0.11304552011356844 0.0060805784901041071 0.20787087345945424 0.19466162850027499 0.058333759193237016 -0.017283082476684027 0.32008620559617329 0.057905754458445771 0.069575398904936664 0.12311920447929486 0.070209721456403321 -0.23650888868669667 3.1675832144108162e-05
leaf_count=23 48 25 36 40 23 27 46 35 127 244 29 23 26 42 27 26 28 37 23 30 166
internal_value=0 -0.00981003 -0.11081 0.0760984 -0.210571 0.0408912 -0.331947 -0.230251 0.0184475 -0.0405906 0.0762546 0.0560007 -0.209479 0.044301 0.207186 0.479617 -0.0643009 -0.0134703 -0.163325 -0.272262 0.0564122
internal_count=1131 1083 230 76 154 50 104 81 853 420 433 267 153 404 106 53 53 298 95 72 203
cat_boundaries=0 1
cat_threshold=143666
shrinkage=0.4


Tree=42
num_leaves=22
num_cat=1
split_feature=3 15 4 13 10 5 3 11 10 14 15 4 2 4 14 12 11 15 6 3 6
split_gain=1.78501 1.84477 8.65391 5.55211 5.7197 5.12575 5.99134 4.71342 2.90173 5.75496 4.06912 2.96867 4.04567 10.5224 5.37336 4.93713 5.13349 4.6957 4.67729 4.17461 3.50745
threshold=43.500000000000007 4.9400000000000004 24.500000000000004 1.5000000000000002 248.00000000000003 268.00000000000006 7.5000000000000009 158.50000000000003 273.00000000000006 9.0600000000000005 1.0400000000000003 29.500000000000004 0 17.500000000000004 14.325000000000001 133.50000000000003 233.00000000000003 -21.209999999999997 202.50000000000003 28.500000000000004 301.00000000000006
decision_type=2 2 2 2 2 2 2 2 2 2 2 2 5 2 2 2 2 2 2 2 2
left_child=1 8 3 4 -3 -5 -7 -8 9 10 -1 12 13 18 17 16 -15 -14 -10 -17 -16
right_child=-2 2 -4 5 -6 6 7 -9 11 -11 -12 -13 14 15 20 19 -18 -19 -20 -21 -22
leaf_value=0.10157655616219229 0.099764137087123742 -0.016844795342625642 0.19081672143104467 0.099914703836728791 0.20464448251487577 -0.2531533556514316 0.1093475795581937 -0.094387270853374949 0.26791937022671303 -0.24350935129523277 -0.1243767315864563 0.11494058753363788 -0.19175984426456338 0.1933794460117817 0.11665513145974127 -0.21027090747510233 -0.019701353843395528 -0.036430546747939906 0.037115728025851051 0.0063426623593729279 -0.028691365886479622
leaf_count=26 28 41 43 29 34 27 25 66 37 25 25 32 34 25 59 31 65 382 23 26 48
internal_value=0 -0.00626224 0.0664048 -0.0129078 0.208243 -0.12608 -0.218877 -0.0954909 -0.0293013 -0.215663 -0.0219818 -0.0106485 -0.02378 0.0920171 -0.0701259 -0.047272 0.0981638 -0.122935 0.449445 -0.277785 0.128165
internal_count=1131 1103 265 222 75 147 118 91 838 76 51 762 730 207 523 147 90 416 60 57 107
cat_boundaries=0 1
cat_threshold=2215252532
shrinkage=0.4


Tree=43
num_leaves=22
num_cat=2
split_feature=15 11 16 10 10 5 10 1 6 9 2 6 12 15 4 0 1 11 6 7 8
split_gain=3.41624 2.32946 5.41575 2.17962 4.18772 4.90582 4.81211 3.42425 3.22582 3.20036 3.11387 7.51846 3.36872 2.75821 2.33556 2.2408 4.8056 6.91554 6.49189 6.46945 4.45086
threshold=20.535000000000004 118.00000000000001 -2.0999999999999992 256.50000000000006 306.50000000000006 431.50000000000006 316.50000000000006 1.0000000180025095e-35 223.00000000000003 18.500000000000004 0 261.00000000000006 114.00000000000001 -11.879999999999997 23.500000000000004 1 1.0000000180025095e-35 246.00000000000003 161.00000000000003 89.500000000000014 1.0000000180025095e-35
decision_type=2 2 2 2 2 2 2 2 2 2 5 2 2 2 2 5 2 2 2 2 2
left_child=1 2 -1 7 5 8 9 -3 -5 -6 11 12 -8 -14 -9 -12 18 -18 -17 -20 -21
right_child=-2 3 -4 4 6 -7 10 14 -10 -11 15 -13 13 -15 -16 16 17 -19 19 20 -22
leaf_value=-0.20899129947026573 0.13554754766924626 -0.01987186250866068 0.057817496440627364 -0.076070286186054492 0.025926675722002985 -0.21381245794040815 -0.1137542910980992 0.19735622147398613 0.041941894709558815 0.23354307762036722 0.019589391091624192 0.21030121136356048 -0.048066722581332384 0.14224322900176048 0.025795456846244631 0.17830316973309362 -0.19948321920854073 -0.026863199161656665 0.097385009144836998 0.037237291062871623 -0.12161967333099422
leaf_count=27 29 49 22 99 24 28 30 31 59 24 216 37 22 27 22 31 54 120 53 42 85
internal_value=0 -0.0088398 -0.221979 0.00103086 -0.0138213 -0.148429 0.0188415 0.139996 -0.0796897 0.325379 -0.00161005 0.1415 -0.0199218 0.140974 0.316299 -0.0311513 -0.0763328 -0.201375 0.0229277 -0.0496153 -0.172317
internal_count=1131 1102 49 1053 951 186 765 102 158 48 717 116 79 49 53 601 385 174 211 180 127
cat_boundaries=0 1 2
cat_threshold=2416181792 2283032727
shrinkage=0.4


end of trees

feature importances:
DefenseEP=119
Opp=110
OffenseEP=100
Sp_TmsEP=92
DEFPassY=58
DEFRushY=58
OFF1stD=54
OFFRushY=46
OFFTotYd=44
DEFTotYd=43
Team=41
TODEF=40
DEF1stD=38
OFFPassY=34
Opp_Name=19
TOOFF=16
Home=12

parameters:
[boosting: gbdt]
[objective: regression]
[metric: rmse,regression]
[tree_learner: serial]
[device_type: cpu]
[data: ]
[valid: ]
[num_iterations: 100]
[learning_rate: 0.4]
[num_leaves: 22]
[num_threads: -1]
[max_depth: -1]
[min_data_in_leaf: 22]
[min_sum_hessian_in_leaf: 0.001]
[bagging_fraction: 1]
[bagging_freq: 1]
[bagging_seed: 28693]
[feature_fraction: 1]
[feature_fraction_seed: 24449]
[early_stopping_round: 0]
[max_delta_step: 0]
[lambda_l1: 0.05]
[lambda_l2: 0]
[min_gain_to_split: 0]
[drop_rate: 0.1]
[max_drop: 50]
[skip_drop: 0.5]
[xgboost_dart_mode: 0]
[uniform_drop: 0]
[drop_seed: 12255]
[top_rate: 0.2]
[other_rate: 0.1]
[min_data_per_group: 100]
[max_cat_threshold: 32]
[cat_l2: 10]
[cat_smooth: 10]
[max_cat_to_onehot: 4]
[top_k: 20]
[monotone_constraints: ]
[feature_contri: ]
[forcedsplits_filename: ]
[refit_decay_rate: 0.9]
[verbosity: -1]
[max_bin: 255]
[min_data_in_bin: 3]
[bin_construct_sample_cnt: 100]
[histogram_pool_size: -1]
[data_random_seed: 54]
[output_model: LightGBM_model.txt]
[snapshot_freq: -1]
[input_model: ]
[output_result: LightGBM_predict_result.txt]
[initscore_filename: ]
[valid_data_initscores: ]
[pre_partition: 0]
[enable_bundle: 1]
[max_conflict_rate: 0]
[is_enable_sparse: 1]
[sparse_threshold: 0.8]
[use_missing: 1]
[zero_as_missing: 0]
[two_round: 0]
[save_binary: 0]
[enable_load_from_binary_file: 1]
[header: 0]
[label_column: ]
[weight_column: ]
[group_column: ]
[ignore_column: ]
[categorical_feature: ]
[predict_raw_score: 0]
[predict_leaf_index: 0]
[predict_contrib: 0]
[num_iteration_predict: -1]
[pred_early_stop: 0]
[pred_early_stop_freq: 10]
[pred_early_stop_margin: 10]
[convert_model_language: ]
[convert_model: gbdt_prediction.cpp]
[num_class: 1]
[is_unbalance: 0]
[scale_pos_weight: 1]
[sigmoid: 1]
[boost_from_average: 1]
[reg_sqrt: 0]
[alpha: 0.9]
[fair_c: 1]
[poisson_max_delta_step: 0.7]
[tweedie_variance_power: 1.5]
[max_position: 20]
[label_gain: ]
[metric_freq: 1]
[is_provide_training_metric: 0]
[eval_at: ]
[num_machines: 1]
[local_listen_port: 12400]
[time_out: 120]
[machine_list_filename: ]
[machines: ]
[gpu_platform_id: -1]
[gpu_device_id: -1]
[gpu_use_dp: 0]

end of parameters

pandas_categorical:[["atl", "buf", "car", "chi", "cin", "cle", "clt", "crd", "dal", "den", "det", "gnb", "htx", "jax", "kan", "mia", "min", "nor", "nwe", "nyg", "nyj", "oti", "phi", "pit", "rai", "ram", "rav", "sdg", "sea", "sfo", "tam", "was"], ["Arizona Cardinals", "Atlanta Falcons", "Baltimore Ravens", "Buffalo Bills", "Carolina Panthers", "Chicago Bears", "Cincinnati Bengals", "Cleveland Browns", "Dallas Cowboys", "Denver Broncos", "Detroit Lions", "Green Bay Packers", "Houston Texans", "Indianapolis Colts", "Jacksonville Jaguars", "Kansas City Chiefs", "Las Vegas Raiders", "Los Angeles Chargers", "Los Angeles Rams", "Miami Dolphins", "Minnesota Vikings", "New England Patriots", "New Orleans Saints", "New York Giants", "New York Jets", "Oakland Raiders", "Philadelphia Eagles", "Pittsburgh Steelers", "San Francisco 49ers", "Seattle Seahawks", "Tampa Bay Buccaneers", "Tennessee Titans", "Washington Football Team", "Washington Redskins"]]
